\data\
ngram 1=47
ngram 2=627
ngram 3=1261

\1-grams:
-2.6855085	<unk>	0
0	<s>	-2.8160203
-1.3857576	</s>	0
-2.5435715	if	-0.30103
-2.5435715	the	-0.30103
-2.5435715	word	-0.30103
-2.5435715	ends	-0.30103
-2.3511221	with	-0.30103
-1.5721269	any	-1.0543576
-2.5435715	letter	-0.30103
-1.5007454	add	-0.48666656
-1.5470067	w	-0.5509075
-1.40293	after	-1.2218487
-2.1166167	that	-0.39794
-2.5435715	there	-0.30103
-2.5435715	is	-0.30103
-1.6902789	consonant	-0.47712123
-1.5007454	replace	-1.1249387
-1.7641062	j	-0.41642344
-1.5470067	p	-0.49560466
-1.5987898	s	-0.4913617
-1.5721269	b	-0.49008623
-1.6271973	d	-0.4345689
-1.6271973	y	-0.4913617
-1.6902789	k	-0.48555446
-1.40293	before	-1.2218487
-1.9651754	double	-0.66900676
-2.5435715	starts	-0.30103
-1.6575937	f	-0.4701724
-1.458941	e	-0.48208466
-1.5987898	c	-0.43933266
-1.3857576	t	-0.54654264
-1.7641062	vowel	-0.4913617
-1.4793403	i	-0.47210044
-1.5721269	r	-0.43786797
-1.5007454	u	-0.5149098
-1.5721269	q	-0.50267535
-1.6575937	v	-0.47712123
-1.458941	a	-0.5118834
-1.5721269	x	-0.5102896
-1.5007454	n	-0.47210044
-1.5470067	l	-0.46488678
-1.5007454	g	-0.4717262
-1.5232604	o	-0.47712123
-2.0343282	remove	-0.60206
-1.5721269	m	-0.45425838
-1.5470067	h	-0.5371192

\2-grams:
-0.30456644	w </s>	0
-0.28696737	that </s>	0
-0.5241794	j </s>	0
-0.38099116	p </s>	0
-0.4952276	s </s>	0
-0.38682637	b </s>	0
-0.48952502	d </s>	0
-0.38038906	y </s>	0
-0.37955675	k </s>	0
-0.41465032	f </s>	0
-0.41054547	e </s>	0
-0.47737184	c </s>	0
-0.3421139	t </s>	0
-0.426737	i </s>	0
-0.48702148	r </s>	0
-0.35347328	u </s>	0
-0.36935374	q </s>	0
-0.4011592	v </s>	0
-0.3607778	a </s>	0
-0.35736245	x </s>	0
-0.426737	n </s>	0
-0.4651165	l </s>	0
-0.4243688	g </s>	0
-0.41037133	o </s>	0
-0.45309758	m </s>	0
-0.31904367	h </s>	0
-0.00066199433	<s> if	-2.4164195
-0.59958255	if the	-2.4146469
-0.2997895	the word	-2.113617
-0.59958255	word ends	-1.978191
-0.2990994	ends with	-1.2067993
-0.99232846	that with	-1.1859353
-0.2990994	starts with	-1.7395785
-1.3854222	with any	-2.032834
-1.4011251	letter any	-1.4329082
-1.41576	is any	-1.7784164
-1.5065395	consonant any	-1.4329082
-1.6060917	s any	-0.20245922
-1.6313181	b any	-0.24469067
-1.5009488	e any	-0.42430797
-1.6039559	c any	-0.21448593
-1.7218711	t any	-0.20245922
-1.3882978	vowel any	-1.3164026
-1.6848766	i any	-0.20245922
-1.6329051	r any	-0.20245922
-1.6561418	u any	-0.20245922
-1.4909645	n any	-0.32739797
-1.62951	l any	-0.20245922
-1.6417445	o any	-0.21448593
-1.6397085	m any	-0.21448593
-0.039997045	any letter	-1.2263649
-1.3757173	letter add	-0.2954142
-0.751562	consonant add	-0.26679555
-1.6202724	p add	-0.24469067
-1.0417776	s add	-0.21579391
-1.6034653	b add	-0.24469067
-1.5798467	d add	-0.24469067
-1.4797714	e add	-0.24469067
-1.2446282	c add	-0.24469067
-1.3659337	t add	-0.24469067
-0.6578522	vowel add	-0.24726047
-1.4697872	i add	-0.24469067
-1.4140288	r add	-0.24469067
-1.6282889	u add	-0.24469067
-1.6471634	a add	-0.24469067
-1.652219	n add	-0.24469067
-1.4045596	l add	-0.24469067
-1.3173642	g add	-0.24469067
-1.4167942	o add	-0.24469067
-1.6089737	m add	-0.24469067
-1.5969809	h add	-0.24469067
-1.5516298	with w	-0.31535122
-1.5087354	add w	-0.35335806
-1.6269679	w w	-0.21448593
-1.5599543	j w	-0.24469067
-1.6218339	b w	-0.24469067
-1.5971633	y w	-0.20245922
-1.5893714	f w	-0.21448593
-1.5939529	c w	-0.24469067
-1.7116215	t w	-0.24469067
-1.6221853	r w	-0.21448593
-1.634423	q w	-0.24469067
-1.6665037	a w	-0.20245922
-1.6294886	x w	-0.24469067
-1.6737156	n w	-0.21448593
-1.6195071	l w	-0.24469067
-1.6317415	o w	-0.24469067
-1.62922	m w	-0.24469067
-1.6131797	h w	-0.24469067
-1.5727334	w after	-0.21448593
-1.497234	j after	-0.20245922
-1.5764152	p after	-0.5034892
-1.5393299	s after	-0.21448593
-1.5606797	b after	-0.20245922
-1.5339668	d after	-0.570436
-1.5393299	y after	-0.570436
-1.4927069	k after	-0.5034892
-1.5298449	f after	-0.21448593
-1.6127017	e after	-0.5034892
-1.5297248	c after	-0.570436
-1.6459405	t after	-0.42430797
-1.6027174	i after	-0.42430797
-1.5537522	r after	-0.21448593
-1.5855033	u after	-0.20245922
-1.5732688	q after	-0.570436
-1.5250895	v after	-0.32739797
-1.6022755	a after	-0.21448593
-1.569962	x after	-0.5034892
-1.6027174	n after	-0.5034892
-1.5552789	l after	-0.570436
-1.5876105	g after	-0.24469067
-1.5675133	o after	-0.570436
-1.5621383	m after	-0.628428
-1.5589452	h after	-0.32739797
-0.026660265	after that	-1.79722
-0.033589132	replace that	-2.5838752
-0.026660265	before that	-1.789796
-0.10383079	double that	-0.90142924
-0.1238334	remove that	-0.76673067
-0.59958255	if there	-2.418185
-0.2997895	there is	-1.1171548
-1.420446	with consonant	-1.1302
-1.4374939	letter consonant	-1.0707188
-1.4534309	is consonant	-0.62942255
-1.537248	consonant consonant	-1.0352465
-1.6437627	s consonant	-0.24469067
-1.5308939	e consonant	-0.21448593
-1.6464443	c consonant	-0.24469067
-1.765475	t consonant	-0.21448593
-1.4107199	vowel consonant	-0.8392813
-1.696296	u consonant	-0.21448593
-1.718995	a consonant	-0.24469067
-1.7326307	n consonant	-0.24469067
-1.684233	o consonant	-0.24469067
-1.3757173	letter replace	-2.0926938
-0.6128662	consonant replace	-2.0370917
-1.6202724	p replace	-0.570436
-0.90978914	s replace	-1.0870658
-1.6034653	b replace	-0.21448593
-1.2539598	d replace	-0.5034892
-1.3516967	e replace	-0.725338
-1.5746127	c replace	-0.20245922
-1.1818631	t replace	-0.9806105
-0.59839463	vowel replace	-1.8459119
-1.3417126	i replace	-0.871466
-1.4140288	r replace	-0.67958045
-1.4268531	u replace	-0.42430797
-1.3171788	a replace	-0.5034892
-1.4697872	n replace	-0.628428
-1.0848532	l replace	-0.76673067
-1.3173642	g replace	-0.725338
-1.2824167	o replace	-0.871466
-1.4188621	m replace	-0.21448593
-1.5969809	h replace	-0.32739797
-1.6478922	with j	-0.3686695
-1.7291607	add j	-0.269406
-1.6332867	j j	-0.24469067
-1.6930333	b j	-0.24469067
-1.6583728	f j	-0.24469067
-1.703456	r j	-0.24469067
-1.7056224	q j	-0.24469067
-1.6496584	v j	-0.21448593
-1.69849	x j	-0.21448593
-1.707145	o j	-0.21448593
-1.7085903	m j	-0.24469067
-1.5516298	with p	-0.32900748
-1.3152949	add p	-0.53825134
-1.6269679	w p	-0.24469067
-1.4068316	is p	-0.42430797
-1.5599543	j p	-0.21448593
-1.6391355	p p	-0.21448593
-1.5893714	f p	-0.24469067
-1.6737156	i p	-0.24469067
-1.6221853	r p	-0.24469067
-1.6466575	u p	-0.24469067
-1.5829229	v p	-0.24469067
-1.6665037	a p	-0.24469067
-1.6294886	x p	-0.20245922
-1.6737156	n p	-0.24469067
-1.6195071	l p	-0.24469067
-1.6317415	o p	-0.21448593
-1.62922	m p	-0.24469067
-1.6131797	h p	-0.24469067
-1.393917	with s	-0.43267477
-1.4099357	letter s	-0.21448593
-1.6724925	add s	-0.28641126
-1.4248759	is s	-0.43695122
-1.5140154	consonant s	-0.20723005
-1.6152077	y s	-0.24469067
-1.5612105	k s	-0.21448593
-1.6079932	f s	-0.24469067
-1.5082437	e s	-0.30954838
-1.6152077	vowel s	-0.22036117
-1.696332	i s	-0.20245922
-1.6481105	x s	-0.24469067
-1.6397488	l s	-0.24469067
-1.6519833	o s	-0.24469067
-1.6504565	m s	-0.24469067
-1.6300062	h s	-0.24469067
-1.5641426	with b	-0.36662757
-1.5160848	add b	-0.269406
-1.6352997	w b	-0.24469067
-1.41576	is b	-0.22932579
-1.5697021	j b	-0.21448593
-1.6488835	p b	-0.24469067
-1.6060917	s b	-0.24469067
-1.6098974	d b	-0.24469067
-1.6060917	y b	-0.24469067
-1.5530432	k b	-0.42430797
-1.6039559	c b	-0.24469067
-1.6561418	u b	-0.24469067
-1.6439072	q b	-0.24469067
-1.6765065	a b	-0.24469067
-1.6848766	n b	-0.24469067
-1.6667633	g b	-0.24469067
-1.6397085	m b	-0.24469067
-1.4025812	with d	-0.26127753
-1.4189289	letter d	-0.24469067
-1.4187503	add d	-0.60039926
-1.4341872	is d	-0.29804358
-1.6311523	d d	-0.24469067
-1.5695344	k d	-0.24469067
-1.7180818	e d	-0.21448593
-1.6246808	c d	-0.21448593
-1.743126	t d	-0.24469067
-1.7080976	i d	-0.24469067
-1.6551725	r d	-0.24469067
-1.6635203	q d	-0.24469067
-1.6102784	v d	-0.24469067
-1.6890308	g d	-0.24469067
-1.6614773	m d	-0.24469067
-1.5903049	with y	-0.41631782
-1.4187503	add y	-0.46250254
-1.6690613	p y	-0.24469067
-1.6509312	b y	-0.21448593
-1.6245189	y y	-0.24469067
-1.6176125	f y	-0.21448593
-1.7180818	e y	-0.20245922
-1.6246808	c y	-0.20245922
-1.743126	t y	-0.24469067
-1.7080976	i y	-0.24469067
-1.6551725	r y	-0.24469067
-1.6757549	u y	-0.24469067
-1.6635203	q y	-0.24469067
-1.6624693	o y	-0.20245922
-1.6614773	m y	-0.20245922
-1.6181448	with k	-0.36774158
-1.3392862	add k	-0.37855047
-1.6703235	w k	-0.24469067
-1.6714723	b k	-0.24469067
-1.6535013	d k	-0.24469067
-1.6437627	y k	-0.24469067
-1.6464443	c k	-0.24469067
-1.765475	t k	-0.24469067
-1.696296	u k	-0.24469067
-1.6295222	v k	-0.24469067
-1.7326307	n k	-0.20245922
-1.7125019	g k	-0.24469067
-1.6843952	m k	-0.24469067
-1.5727334	w before	-0.42430797
-1.497234	j before	-0.32739797
-1.5764152	p before	-0.570436
-1.5393299	s before	-0.32739797
-1.5606797	b before	-0.32739797
-1.5339668	d before	-0.628428
-1.5393299	y before	-0.21448593
-1.4927069	k before	-0.20245922
-1.5298449	f before	-0.570436
-1.6127017	e before	-0.32739797
-1.5297248	c before	-0.628428
-1.6459405	t before	-0.32739797
-1.6027174	i before	-0.32739797
-1.5537522	r before	-0.42430797
-1.5855033	u before	-0.20245922
-1.5732688	q before	-0.42430797
-1.5250895	v before	-0.21448593
-1.6022755	a before	-0.5034892
-1.569962	x before	-0.5034892
-1.6027174	n before	-0.32739797
-1.5552789	l before	-0.570436
-1.5876105	g before	-0.5034892
-1.5675133	o before	-0.24469067
-1.5621383	m before	-0.32739797
-1.5589452	h before	-0.20245922
-1.4984856	letter double	-0.570436
-1.4324447	consonant double	-0.20245922
-1.728407	d double	-0.24469067
-1.7191606	c double	-0.24469067
-1.707209	vowel double	-0.24469067
-1.7917111	a double	-0.24469067
-1.8158331	n double	-0.24469067
-0.59958255	word starts	-2.2166996
-1.6040018	with f	-0.38512343
-1.6942807	add f	-0.46250254
-1.6003318	j f	-0.24469067
-1.6795131	p f	-0.21448593
-1.6610804	b f	-0.24469067
-1.6421831	d f	-0.24469067
-1.6340343	y f	-0.24469067
-1.578021	k f	-0.24469067
-1.6274495	f f	-0.21448593
-1.6859039	u f	-0.24469067
-1.6736695	q f	-0.21448593
-1.7079769	a f	-0.24469067
-1.7006078	g f	-0.24469067
-1.6727852	m f	-0.24469067
-1.3452754	with e	-0.30477995
-1.3595687	letter e	-0.21448593
-1.2279694	add e	-0.42430797
-1.5951529	w e	-0.21448593
-1.3728476	is e	-0.28305578
-1.4709762	consonant e	-0.21263838
-1.5230134	j e	-0.21448593
-1.6021947	p e	-0.24469067
-1.5631793	s e	-0.24469067
-1.585842	b e	-0.24469067
-1.5609093	d e	-0.24469067
-1.5143627	k e	-0.24469067
-1.6417207	e e	-0.24469067
-1.5560973	c e	-0.24469067
-1.6317365	i e	-0.24469067
-1.6106657	u e	-0.24469067
-1.5489388	v e	-0.24469067
-1.5944816	x e	-0.24469067
-1.6317365	n e	-0.24469067
-1.6156298	g e	-0.24469067
-1.5896293	m e	-0.24469067
-1.5813646	h e	-0.21448593
-1.5770268	with c	-0.3161466
-1.4099357	letter c	-0.24469067
-1.5235608	add c	-0.60039926
-1.4248759	is c	-0.24829365
-1.5796739	j c	-0.24469067
-1.6203948	d c	-0.24469067
-1.6152077	y c	-0.24469067
-1.6152077	vowel c	-0.24469067
-1.696332	i c	-0.24469067
-1.6438961	r c	-0.24469067
-1.6658375	u c	-0.21448593
-1.6009672	v c	-0.24469067
-1.6867454	a c	-0.21448593
-1.696332	n c	-0.20245922
-1.6397488	l c	-0.24469067
-1.6519833	o c	-0.24469067
-1.4627118	with t	-0.3657391
-1.3289684	letter t	-0.24469067
-1.4540293	add t	-0.37855047
-1.5655103	w t	-0.20245922
-1.3413309	is t	-0.43460375
-1.6051326	consonant t	-0.20245922
-1.4889699	j t	-0.24469067
-1.5681512	p t	-0.21448593
-1.5526061	b t	-0.24469067
-1.525345	d t	-0.32739797
-1.5316626	y t	-0.21448593
-1.4857218	k t	-0.42430797
-1.5219699	f t	-0.24469067
-1.5212783	c t	-0.20245922
-1.6373187	t t	-0.24469067
-1.5316626	vowel t	-0.2243226
-1.5448003	r t	-0.21448593
-1.5774297	u t	-0.24469067
-1.5651952	q t	-0.24469067
-1.5174221	v t	-0.24469067
-1.5938289	a t	-0.24469067
-1.5934598	n t	-0.24469067
-1.5468323	l t	-0.24469067
-1.5786585	g t	-0.24469067
-1.5590668	o t	-0.24469067
-1.5517219	h t	-0.21448593
-1.4390774	with vowel	-1.052697
-1.4568881	letter vowel	-1.0370919
-1.4735671	is vowel	-0.7910956
-1.5534569	consonant vowel	-0.9156697
-1.677063	d vowel	-0.24469067
-1.6693565	c vowel	-0.24469067
-1.7890368	t vowel	-0.24469067
-1.6638988	vowel vowel	-0.628428
-1.7586331	i vowel	-0.24469067
-1.703456	r vowel	-0.24469067
-1.6949105	l vowel	-0.2243226
-1.5161189	with i	-0.28347957
-1.3675679	letter i	-0.24469067
-1.2318041	add i	-0.37855047
-1.6028908	w i	-0.20245922
-1.3810976	is i	-0.42349172
-1.4778597	consonant i	-0.42430797
-1.6111395	p i	-0.21448593
-1.5945643	b i	-0.24469067
-1.5702748	d i	-0.24469067
-1.5714293	y i	-0.24469067
-1.5628551	f i	-0.24469067
-1.6518413	e i	-0.21448593
-1.5652562	c i	-0.24469067
-1.5915279	r i	-0.24469067
-1.6071534	q i	-0.24469067
-1.5571887	v i	-0.24469067
-1.6029724	x i	-0.20245922
-1.641857	n i	-0.21448593
-1.6253861	g i	-0.24469067
-1.5991938	m i	-0.24469067
-1.5891026	h i	-0.21448593
-1.5641426	with r	-0.33508635
-1.5160848	add r	-0.35335806
-1.41576	is r	-0.35335806
-1.6981226	consonant r	-0.21448593
-1.5697021	j r	-0.21448593
-1.6488835	p r	-0.24469067
-1.6060917	s r	-0.24469067
-1.6098974	d r	-0.24469067
-1.6060917	y r	-0.24469067
-1.5530432	k r	-0.21448593
-1.5985825	f r	-0.24469067
-1.6060917	vowel r	-0.24469067
-1.6848766	i r	-0.21448593
-1.6329051	r r	-0.21448593
-1.6439072	q r	-0.24469067
-1.6765065	a r	-0.24469067
-1.6215115	h r	-0.24469067
-1.5276362	with u	-0.3215336
-1.4943994	add u	-0.20245922
-1.3895073	is u	-0.20543483
-1.664864	consonant u	-0.2243226
-1.5410912	j u	-0.24469067
-1.5798467	d u	-0.21448593
-1.5294241	k u	-0.21448593
-1.6622033	e u	-0.21448593
-1.6918205	t u	-0.20245922
-1.652219	i u	-0.20245922
-1.6015085	r u	-0.24469067
-1.6282889	u u	-0.24469067
-1.6160544	q u	-0.24469067
-1.5655985	v u	-0.24469067
-1.6471634	a u	-0.24469067
-1.6116325	x u	-0.24469067
-1.652219	n u	-0.24469067
-1.6001668	l u	-0.24469067
-1.6353667	g u	-0.21448593
-1.6124012	o u	-0.24469067
-1.5641426	with q	-0.34635815
-1.3199883	add q	-0.5034892
-1.6352997	w q	-0.24469067
-1.5697021	j q	-0.21448593
-1.6488835	p q	-0.24469067
-1.6313181	b q	-0.21448593
-1.6098974	d q	-0.20245922
-1.5985825	f q	-0.24469067
-1.6948608	e q	-0.24469067
-1.7218711	t q	-0.21448593
-1.6848766	i q	-0.21448593
-1.6329051	r q	-0.24469067
-1.6561418	u q	-0.24469067
-1.5918514	v q	-0.21448593
-1.6386998	x q	-0.24469067
-1.6848766	n q	-0.24469067
-1.62951	l q	-0.24469067
-1.6040018	with v	-0.34078884
-1.6942807	add v	-0.28641126
-1.6612992	w v	-0.24469067
-1.6795131	p v	-0.24469067
-1.6274495	f v	-0.24469067
-1.7301751	e v	-0.24469067
-1.6354263	c v	-0.21448593
-1.7201909	i v	-0.24469067
-1.6667495	r v	-0.24469067
-1.6736695	q v	-0.21448593
-1.6197938	v v	-0.24469067
-1.7079769	a v	-0.24469067
-1.6675668	x v	-0.24469067
-1.7201909	n v	-0.24469067
-1.504899	with a	-0.32918513
-1.3595687	letter a	-0.2243226
-1.3791456	add a	-0.41135
-1.5951529	w a	-0.24469067
-1.3728476	is a	-0.22036117
-1.6440272	consonant a	-0.21448593
-1.5230134	j a	-0.24469067
-1.6021947	p a	-0.24469067
-1.585842	b a	-0.32739797
-1.5631793	y a	-0.21448593
-1.5143627	k a	-0.24469067
-1.6417207	e a	-0.21448593
-1.6317365	i a	-0.24469067
-1.5817715	r a	-0.24469067
-1.6106657	u a	-0.21448593
-1.5984312	q a	-0.24469067
-1.5489388	v a	-0.24469067
-1.5944816	x a	-0.24469067
-1.6317365	n a	-0.21448593
-1.5816513	l a	-0.20245922
-1.6156298	g a	-0.21448593
-1.5896293	m a	-0.21448593
-1.5641426	with x	-0.30815232
-1.5160848	add x	-0.5034892
-1.6352997	w x	-0.21448593
-1.5697021	j x	-0.21448593
-1.6488835	p x	-0.24469067
-1.6098974	d x	-0.24469067
-1.5985825	f x	-0.24469067
-1.6948608	e x	-0.21448593
-1.7218711	t x	-0.21448593
-1.6848766	i x	-0.24469067
-1.6329051	r x	-0.24469067
-1.6439072	q x	-0.24469067
-1.6765065	a x	-0.24469067
-1.6386998	x x	-0.24469067
-1.6667633	g x	-0.24469067
-1.6397085	m x	-0.21448593
-1.6215115	h x	-0.21448593
-1.3608917	with n	-0.4039099
-1.3757173	letter n	-0.24469067
-1.4943994	add n	-0.42430797
-1.3895073	is n	-0.36932626
-1.5410912	j n	-0.24469067
-1.6202724	p n	-0.24469067
-1.579839	s n	-0.24469067
-1.6034653	b n	-0.24469067
-1.5294241	k n	-0.24469067
-1.5715152	f n	-0.21448593
-1.6622033	e n	-0.24469067
-1.6918205	t n	-0.24469067
-1.652219	i n	-0.24469067
-1.6015085	r n	-0.24469067
-1.6160544	q n	-0.24469067
-1.652219	n n	-0.24469067
-1.6001668	l n	-0.21448593
-1.6353667	g n	-0.24469067
-1.6089737	m n	-0.24469067
-1.5969809	h n	-0.21448593
-1.5516298	with l	-0.3865051
-1.3924896	letter l	-0.32739797
-1.3152949	add l	-0.570436
-1.6269679	w l	-0.21448593
-1.4068316	is l	-0.2065023
-1.686751	consonant l	-0.21263838
-1.5599543	j l	-0.24469067
-1.6218339	b l	-0.24469067
-1.5450265	k l	-0.24469067
-1.6836998	e l	-0.24469067
-1.7116215	t l	-0.21448593
-1.5971633	vowel l	-0.24469067
-1.6737156	i l	-0.24469067
-1.634423	q l	-0.24469067
-1.6294886	x l	-0.20245922
-1.6560436	g l	-0.20245922
-1.6317415	o l	-0.24469067
-1.62922	m l	-0.24469067
-1.3608917	with g	-0.2956344
-1.3757173	letter g	-0.20245922
-1.4943994	add g	-0.45567644
-1.3895073	is g	-0.37855047
-1.664864	consonant g	-0.24469067
-1.5410912	j g	-0.24469067
-1.6202724	p g	-0.24469067
-1.6034653	b g	-0.24469067
-1.5798467	d g	-0.24469067
-1.579839	y g	-0.24469067
-1.5294241	k g	-0.24469067
-1.5746127	c g	-0.24469067
-1.5655985	v g	-0.20245922
-1.6471634	a g	-0.24469067
-1.6116325	x g	-0.21448593
-1.652219	n g	-0.21448593
-1.6001668	l g	-0.24469067
-1.6353667	g g	-0.24469067
-1.6124012	o g	-0.24469067
-1.5969809	h g	-0.21448593
-1.5394673	with o	-0.36614916
-1.3840225	letter o	-0.20723005
-1.5015082	add o	-0.51366836
-1.618793	w o	-0.24469067
-1.3980831	is o	-0.38965246
-1.4919629	consonant o	-0.30954838
-1.5504203	j o	-0.24469067
-1.6296016	p o	-0.24469067
-1.5896344	d o	-0.24469067
-1.5884148	y o	-0.24469067
-1.5803516	f o	-0.24469067
-1.6728185	e o	-0.21448593
-1.6628344	i o	-0.21448593
-1.6251416	q o	-0.21448593
-1.5741744	v o	-0.24469067
-1.6567259	a o	-0.24469067
-1.6204689	x o	-0.24469067
-1.6628344	n o	-0.24469067
-1.6455822	g o	-0.24469067
-1.5095388	letter remove	-0.21448593
-1.8479836	consonant remove	-0.24469067
-1.2893095	s remove	-0.20245922
-1.2893095	vowel remove	-0.20245922
-1.7703466	o remove	-0.24469067
-1.7757261	m remove	-0.24469067
-1.5641426	with m	-0.32867518
-1.4011251	letter m	-0.24469067
-1.3199883	add m	-0.5034892
-1.41576	is m	-0.2243226
-1.6488835	p m	-0.24469067
-1.6060917	y m	-0.24469067
-1.5985825	f m	-0.24469067
-1.6039559	c m	-0.24469067
-1.7218711	t m	-0.21448593
-1.6848766	i m	-0.24469067
-1.6329051	r m	-0.24469067
-1.6765065	a m	-0.24469067
-1.6386998	x m	-0.24469067
-1.6848766	n m	-0.24469067
-1.62951	l m	-0.24469067
-1.6667633	g m	-0.24469067
-1.6417445	o m	-0.24469067
-1.5516298	with h	-0.32746294
-1.5087354	add h	-0.269406
-1.4068316	is h	-0.30954838
-1.5599543	j h	-0.21448593
-1.6218339	b h	-0.24469067
-1.5971633	y h	-0.24469067
-1.5893714	f h	-0.24469067
-1.6836998	e h	-0.24469067
-1.6737156	i h	-0.24469067
-1.6466575	u h	-0.24469067
-1.634423	q h	-0.24469067
-1.5829229	v h	-0.21448593
-1.6294886	x h	-0.24469067
-1.6737156	n h	-0.24469067
-1.6195071	l h	-0.24469067
-1.6560436	g h	-0.24469067
-1.62922	m h	-0.24469067
-1.6131797	h h	-0.21448593

\3-grams:
-0.3213093	with w </s>
-0.15964542	w w </s>
-0.14687239	j w </s>
-0.14687239	b w </s>
-0.16509719	y w </s>
-0.15964542	f w </s>
-0.14687239	c w </s>
-0.14687239	t w </s>
-0.15964542	r w </s>
-0.14687239	q w </s>
-0.16509719	a w </s>
-0.14687239	x w </s>
-0.15964542	n w </s>
-0.14687239	l w </s>
-0.14687239	o w </s>
-0.14687239	m w </s>
-0.14687239	h w </s>
-0.003362655	after that </s>
-0.0034208596	before that </s>
-0.027183967	double that </s>
-0.037506703	remove that </s>
-0.35783646	with j </s>
-0.22111937	j j </s>
-0.22111937	b j </s>
-0.22111937	f j </s>
-0.22111937	r j </s>
-0.22111937	q j </s>
-0.242398	v j </s>
-0.242398	x j </s>
-0.242398	o j </s>
-0.22111937	m j </s>
-0.35612607	with p </s>
-0.17554411	w p </s>
-0.19141133	j p </s>
-0.19141133	p p </s>
-0.17554411	f p </s>
-0.17554411	i p </s>
-0.17554411	r p </s>
-0.17554411	u p </s>
-0.17554411	v p </s>
-0.17554411	a p </s>
-0.19821858	x p </s>
-0.17554411	n p </s>
-0.17554411	l p </s>
-0.19141133	o p </s>
-0.17554411	m p </s>
-0.17554411	h p </s>
-0.41561157	with s </s>
-0.21271947	y s </s>
-0.23295231	k s </s>
-0.21271947	f s </s>
-0.2363331	e s </s>
-0.24169593	i s </s>
-0.21271947	x s </s>
-0.21271947	l s </s>
-0.21271947	o s </s>
-0.21271947	m s </s>
-0.21271947	h s </s>
-0.34070766	with b </s>
-0.17760491	w b </s>
-0.19370332	j b </s>
-0.17760491	p b </s>
-0.17760491	s b </s>
-0.17760491	d b </s>
-0.17760491	y b </s>
-0.10899758	k b </s>
-0.17760491	c b </s>
-0.17760491	u b </s>
-0.17760491	q b </s>
-0.17760491	a b </s>
-0.17760491	n b </s>
-0.17760491	g b </s>
-0.17760491	m b </s>
-0.581347	with d </s>
-0.21101782	d d </s>
-0.21101782	k d </s>
-0.23104154	e d </s>
-0.23104154	c d </s>
-0.21101782	t d </s>
-0.21101782	i d </s>
-0.21101782	r d </s>
-0.21101782	q d </s>
-0.21101782	v d </s>
-0.21101782	g d </s>
-0.21101782	m d </s>
-0.2631943	with y </s>
-0.17533045	p y </s>
-0.19117376	b y </s>
-0.17533045	y y </s>
-0.19117376	f y </s>
-0.19797048	e y </s>
-0.19797048	c y </s>
-0.17533045	t y </s>
-0.17533045	i y </s>
-0.17533045	r y </s>
-0.17533045	u y </s>
-0.17533045	q y </s>
-0.19797048	o y </s>
-0.19797048	m y </s>
-0.42448133	with k </s>
-0.1750348	w k </s>
-0.1750348	b k </s>
-0.1750348	d k </s>
-0.1750348	y k </s>
-0.1750348	c k </s>
-0.1750348	t k </s>
-0.1750348	u k </s>
-0.1750348	v k </s>
-0.19762719	n k </s>
-0.1750348	g k </s>
-0.1750348	m k </s>
-0.3049779	with f </s>
-0.18718679	j f </s>
-0.20437665	p f </s>
-0.18718679	b f </s>
-0.18718679	d f </s>
-0.18718679	y f </s>
-0.18718679	k f </s>
-0.20437665	f f </s>
-0.18718679	u f </s>
-0.20437665	q f </s>
-0.18718679	a f </s>
-0.18718679	g f </s>
-0.18718679	m f </s>
-0.42030892	with e </s>
-0.20282848	w e </s>
-0.20282848	j e </s>
-0.18579842	p e </s>
-0.18579842	s e </s>
-0.18579842	b e </s>
-0.18579842	d e </s>
-0.18579842	k e </s>
-0.18579842	e e </s>
-0.18579842	c e </s>
-0.18579842	i e </s>
-0.18579842	u e </s>
-0.18579842	v e </s>
-0.18579842	x e </s>
-0.18579842	n e </s>
-0.18579842	g e </s>
-0.18579842	m e </s>
-0.20282848	h e </s>
-0.39191806	with c </s>
-0.20733868	j c </s>
-0.20733868	d c </s>
-0.20733868	y c </s>
-0.20733868	i c </s>
-0.20733868	r c </s>
-0.22691351	u c </s>
-0.20733868	v c </s>
-0.22691351	a c </s>
-0.23536341	n c </s>
-0.20733868	l c </s>
-0.20733868	o c </s>
-0.28267318	with t </s>
-0.1817823	w t </s>
-0.16135268	j t </s>
-0.17566012	p t </s>
-0.16135268	b t </s>
-0.12872447	d t </s>
-0.17566012	y t </s>
-0.09974622	k t </s>
-0.16135268	f t </s>
-0.1817823	c t </s>
-0.16135268	t t </s>
-0.17566012	r t </s>
-0.16135268	u t </s>
-0.16135268	q t </s>
-0.16135268	v t </s>
-0.16135268	a t </s>
-0.16135268	n t </s>
-0.16135268	l t </s>
-0.16135268	g t </s>
-0.16135268	o t </s>
-0.17566012	h t </s>
-0.44372395	with i </s>
-0.21648051	w i </s>
-0.20888244	p i </s>
-0.19122458	b i </s>
-0.19122458	d i </s>
-0.19122458	y i </s>
-0.19122458	f i </s>
-0.20888244	e i </s>
-0.19122458	c i </s>
-0.19122458	r i </s>
-0.19122458	q i </s>
-0.19122458	v i </s>
-0.21648051	x i </s>
-0.20888244	n i </s>
-0.19122458	g i </s>
-0.19122458	m i </s>
-0.20888244	h i </s>
-0.39272624	with r </s>
-0.2301974	j r </s>
-0.21026577	p r </s>
-0.21026577	s r </s>
-0.21026577	d r </s>
-0.21026577	y r </s>
-0.2301974	k r </s>
-0.21026577	f r </s>
-0.2301974	i r </s>
-0.2301974	r r </s>
-0.21026577	q r </s>
-0.21026577	a r </s>
-0.21026577	h r </s>
-0.34193984	with u </s>
-0.16558273	j u </s>
-0.18034919	d u </s>
-0.18034919	k u </s>
-0.18034919	e u </s>
-0.1866726	t u </s>
-0.1866726	i u </s>
-0.16558273	r u </s>
-0.16558273	u u </s>
-0.16558273	q u </s>
-0.16558273	v u </s>
-0.16558273	a u </s>
-0.16558273	x u </s>
-0.16558273	n u </s>
-0.16558273	l u </s>
-0.18034919	g u </s>
-0.16558273	o u </s>
-0.33439028	with q </s>
-0.17138053	w q </s>
-0.18678425	j q </s>
-0.17138053	p q </s>
-0.18678425	b q </s>
-0.19338755	d q </s>
-0.17138053	f q </s>
-0.17138053	e q </s>
-0.18678425	t q </s>
-0.18678425	i q </s>
-0.17138053	r q </s>
-0.17138053	u q </s>
-0.18678425	v q </s>
-0.17138053	x q </s>
-0.17138053	n q </s>
-0.17138053	l q </s>
-0.34510228	with v </s>
-0.18259105	w v </s>
-0.18259105	p v </s>
-0.18259105	f v </s>
-0.18259105	e v </s>
-0.19925408	c v </s>
-0.18259105	i v </s>
-0.18259105	r v </s>
-0.19925408	q v </s>
-0.18259105	v v </s>
-0.18259105	a v </s>
-0.18259105	x v </s>
-0.18259105	n v </s>
-0.33809248	with a </s>
-0.16826627	w a </s>
-0.16826627	j a </s>
-0.16826627	p a </s>
-0.13401571	b a </s>
-0.1833265	y a </s>
-0.16826627	k a </s>
-0.1833265	e a </s>
-0.16826627	i a </s>
-0.16826627	r a </s>
-0.1833265	u a </s>
-0.16826627	q a </s>
-0.16826627	v a </s>
-0.16826627	x a </s>
-0.1833265	n a </s>
-0.1897789	l a </s>
-0.1833265	g a </s>
-0.1833265	m a </s>
-0.36481085	with x </s>
-0.18193813	w x </s>
-0.18193813	j x </s>
-0.16701508	p x </s>
-0.16701508	d x </s>
-0.16701508	f x </s>
-0.18193813	e x </s>
-0.18193813	t x </s>
-0.16701508	i x </s>
-0.16701508	r x </s>
-0.16701508	q x </s>
-0.16701508	a x </s>
-0.16701508	x x </s>
-0.16701508	g x </s>
-0.18193813	m x </s>
-0.18193813	h x </s>
-0.2890329	with n </s>
-0.19122458	j n </s>
-0.19122458	p n </s>
-0.19122458	s n </s>
-0.19122458	b n </s>
-0.19122458	k n </s>
-0.20888244	f n </s>
-0.19122458	e n </s>
-0.19122458	t n </s>
-0.19122458	i n </s>
-0.19122458	r n </s>
-0.19122458	q n </s>
-0.19122458	n n </s>
-0.20888244	l n </s>
-0.19122458	g n </s>
-0.19122458	m n </s>
-0.20888244	h n </s>
-0.30855373	with l </s>
-0.22267312	w l </s>
-0.20355558	j l </s>
-0.20355558	b l </s>
-0.20355558	k l </s>
-0.20355558	e l </s>
-0.22267312	t l </s>
-0.20355558	i l </s>
-0.20355558	q l </s>
-0.23091936	x l </s>
-0.23091936	g l </s>
-0.20355558	o l </s>
-0.20355558	m l </s>
-0.4279143	with g </s>
-0.1904393	j g </s>
-0.1904393	p g </s>
-0.1904393	b g </s>
-0.1904393	d g </s>
-0.1904393	y g </s>
-0.1904393	k g </s>
-0.1904393	c g </s>
-0.21556334	v g </s>
-0.1904393	a g </s>
-0.20800576	x g </s>
-0.20800576	n g </s>
-0.1904393	l g </s>
-0.1904393	g g </s>
-0.1904393	o g </s>
-0.20800576	h g </s>
-0.30802932	with o </s>
-0.18573934	w o </s>
-0.18573934	j o </s>
-0.18573934	p o </s>
-0.18573934	d o </s>
-0.18573934	y o </s>
-0.18573934	f o </s>
-0.20276257	e o </s>
-0.20276257	i o </s>
-0.20276257	q o </s>
-0.18573934	v o </s>
-0.18573934	a o </s>
-0.18573934	x o </s>
-0.18573934	n o </s>
-0.18573934	g o </s>
-0.3864493	with m </s>
-0.19977337	p m </s>
-0.19977337	y m </s>
-0.19977337	f m </s>
-0.19977337	c m </s>
-0.21843828	t m </s>
-0.19977337	i m </s>
-0.19977337	r m </s>
-0.19977337	a m </s>
-0.19977337	x m </s>
-0.19977337	n m </s>
-0.19977337	l m </s>
-0.19977337	g m </s>
-0.19977337	o m </s>
-0.31042212	with h </s>
-0.16591433	j h </s>
-0.15254672	b h </s>
-0.15254672	y h </s>
-0.15254672	f h </s>
-0.15254672	e h </s>
-0.15254672	i h </s>
-0.15254672	u h </s>
-0.15254672	q h </s>
-0.16591433	v h </s>
-0.15254672	x h </s>
-0.15254672	n h </s>
-0.15254672	l h </s>
-0.15254672	g h </s>
-0.15254672	m h </s>
-0.16591433	h h </s>
-0.30363443	<s> if the
-0.0008342253	if the word
-0.43873203	the word ends
-0.0022791203	word ends with
-0.0010181228	replace that with
-0.0013145095	word starts with
-0.4634446	ends with any
-0.35038167	starts with any
-0.98972505	any letter any
-0.6414512	there is any
-0.7117312	with consonant any
-0.9263379	is consonant any
-1.1260386	is s any
-0.91553515	is b any
-1.3462332	with e any
-1.1168854	is e any
-1.102322	is c any
-1.2381885	is t any
-0.507392	with vowel any
-0.9758311	is vowel any
-1.0279012	is i any
-1.0449603	is r any
-0.8139458	is u any
-1.6472716	with n any
-1.0009545	is n any
-0.8983583	is l any
-1.1292484	is o any
-0.8428757	is m any
-0.00035444586	with any letter
-0.0014124584	letter any letter
-0.0006369251	is any letter
-0.0014124584	consonant any letter
-0.024660107	s any letter
-0.022315258	b any letter
-0.01462744	e any letter
-0.023967672	c any letter
-0.024660107	t any letter
-0.0018479908	vowel any letter
-0.024660107	i any letter
-0.024660107	r any letter
-0.024660107	u any letter
-0.018362582	n any letter
-0.024660107	l any letter
-0.023967672	o any letter
-0.023967672	m any letter
-0.81402564	any letter add
-1.2404164	with consonant add
-0.67071426	letter consonant add
-1.0528361	is consonant add
-0.4993289	consonant consonant add
-0.51855445	e consonant add
-0.5237246	vowel consonant add
-0.4999867	a consonant add
-0.4999867	n consonant add
-0.4999867	o consonant add
-0.91791135	is p add
-0.9009489	with s add
-1.0045224	is s add
-0.6731334	consonant s add
-0.6765817	vowel s add
-0.9122833	is b add
-1.0703919	is d add
-1.1122396	is e add
-0.89282453	consonant e add
-0.60593194	letter c add
-0.6806293	is c add
-0.3342766	vowel c add
-0.6200011	letter t add
-1.2902184	is t add
-0.7714217	vowel t add
-1.1680106	with vowel add
-0.5006666	letter vowel add
-0.8370067	is vowel add
-0.5397594	consonant vowel add
-0.25500387	d vowel add
-0.5706707	t vowel add
-0.7349678	vowel vowel add
-0.4678466	r vowel add
-0.6295437	letter i add
-1.3380021	is i add
-1.138094	is r add
-0.3442049	vowel r add
-0.8023852	consonant u add
-0.80403364	letter a add
-1.3700812	is n add
-1.1703019	is l add
-0.87998897	consonant l add
-1.4005337	with g add
-0.84060425	is g add
-0.61478144	consonant g add
-0.74554	letter o add
-1.2881038	is o add
-0.8398528	is m add
-1.0063444	is h add
-1.3896137	that with w
-1.517036	letter add w
-1.6185558	consonant add w
-1.4756458	vowel add w
-0.9838386	g add w
-1.4270921	with w w
-1.6414765	with j w
-1.5999388	with b w
-1.3708831	with y w
-1.4656496	with f w
-1.5297434	with c w
-1.6243002	with t w
-1.4103571	with r w
-1.6053641	with q w
-1.246605	with a w
-1.6091205	with x w
-1.5837133	with n w
-1.5779109	with l w
-1.5641818	with o w
-1.5871832	with m w
-1.5619649	with h w
-0.9093547	add w after
-0.7525119	add j after
-0.48887283	add p after
-0.83907974	add s after
-0.7582638	add b after
-0.45776397	add d after
-0.23761849	add y after
-0.32699224	add k after
-1.0141833	add f after
-0.3757543	add e after
-0.4576742	add c after
-0.44870168	add t after
-0.4474963	add i after
-0.9074918	add r after
-0.6933668	add u after
-0.3616459	add q after
-0.43367553	add v after
-0.9701034	add a after
-0.4539569	add x after
-0.37553403	add n after
-0.42823887	add l after
-1.1512822	add g after
-0.18841022	add o after
-0.285322	add m after
-0.49840337	add h after
-0.016074179	w after that
-0.016534247	j after that
-0.008188443	p after that
-0.016074179	s after that
-0.016534247	b after that
-0.007009178	d after that
-0.007009178	y after that
-0.008188443	k after that
-0.016074179	f after that
-0.008188443	e after that
-0.007009178	c after that
-0.009844801	t after that
-0.009844801	i after that
-0.016074179	r after that
-0.016534247	u after that
-0.007009178	q after that
-0.012341297	v after that
-0.016074179	a after that
-0.008188443	x after that
-0.008188443	n after that
-0.007009178	l after that
-0.014975383	g after that
-0.007009178	o after that
-0.0061268387	m after that
-0.012341297	h after that
-0.0002611903	letter replace that
-0.0002968582	consonant replace that
-0.008779278	p replace that
-0.002653194	s replace that
-0.020187423	b replace that
-0.010259906	d replace that
-0.0061268127	e replace that
-0.020768018	c replace that
-0.0033930996	t replace that
-0.00046114443	vowel replace that
-0.0043674684	i replace that
-0.0068129185	r replace that
-0.012341297	u replace that
-0.010259906	a replace that
-0.007672124	n replace that
-0.0055662636	l replace that
-0.0061268127	g replace that
-0.0043674684	o replace that
-0.020187423	m replace that
-0.015482194	h replace that
-0.009844801	w before that
-0.012341297	j before that
-0.007009178	p before that
-0.012341297	s before that
-0.012341297	b before that
-0.0061268387	d before that
-0.016074179	y before that
-0.016534247	k before that
-0.007009178	f before that
-0.012341297	e before that
-0.0061268387	c before that
-0.012341297	t before that
-0.012341297	i before that
-0.009844801	r before that
-0.016534247	u before that
-0.009844801	q before that
-0.016074179	v before that
-0.008188443	a before that
-0.008188443	x before that
-0.012341297	n before that
-0.007009178	l before that
-0.008188443	g before that
-0.014975383	o before that
-0.012341297	m before that
-0.016534247	h before that
-0.02557	letter double that
-0.062188257	consonant double that
-0.056036476	d double that
-0.056036476	c double that
-0.056036476	vowel double that
-0.056036476	a double that
-0.056036476	n double that
-0.0712961	letter remove that
-0.066121385	consonant remove that
-0.07347722	s remove that
-0.07347722	vowel remove that
-0.066121385	o remove that
-0.066121385	m remove that
-0.30008966	<s> if there
-0.0008274302	if there is
-0.3922749	ends with consonant
-0.46063137	starts with consonant
-0.9905292	any letter consonant
-0.6576456	there is consonant
-0.79246175	with consonant consonant
-0.8653955	is consonant consonant
-1.4731218	is s consonant
-1.5861236	with e consonant
-0.99424565	is e consonant
-1.3130256	is c consonant
-1.3794533	is t consonant
-0.71430415	with vowel consonant
-1.1379805	is vowel consonant
-0.9587081	is u consonant
-0.7762574	is a consonant
-1.1683365	is n consonant
-1.1343488	is o consonant
-0.32494769	any letter replace
-0.33598292	with consonant replace
-0.13732392	letter consonant replace
-0.54109	is consonant replace
-0.20709299	consonant consonant replace
-0.46383816	e consonant replace
-0.2444614	c consonant replace
-0.26876867	t consonant replace
-0.20988326	vowel consonant replace
-0.26876867	u consonant replace
-0.45076615	a consonant replace
-0.45076615	n consonant replace
-0.45076615	o consonant replace
-0.28332403	is p replace
-0.64881134	with s replace
-0.33268166	letter s replace
-0.2818942	is s replace
-0.52296066	consonant s replace
-0.6382687	vowel s replace
-0.67867726	is b replace
-1.3209158	with d replace
-0.6071412	letter d replace
-0.41904825	is d replace
-0.37997422	letter e replace
-0.5800126	is e replace
-0.5132539	consonant e replace
-0.9658289	is c replace
-0.597188	letter t replace
-0.31507835	is t replace
-0.38312608	consonant t replace
-0.52421963	vowel t replace
-0.4106951	with vowel replace
-0.19669475	letter vowel replace
-0.40905505	is vowel replace
-0.18888175	consonant vowel replace
-0.4450367	c vowel replace
-0.5419648	t vowel replace
-0.16009462	vowel vowel replace
-0.24088955	i vowel replace
-0.38696244	l vowel replace
-0.61746323	letter i replace
-0.31178293	is i replace
-0.19334392	consonant i replace
-0.417206	is r replace
-0.38377267	consonant r replace
-0.78768945	is u replace
-0.5495136	consonant u replace
-0.5397514	letter a replace
-0.7330617	is a replace
-0.37764052	consonant a replace
-0.6295437	letter n replace
-0.38916734	is n replace
-0.24553132	letter l replace
-0.78805774	is l replace
-0.48166627	consonant l replace
-0.32096806	vowel l replace
-0.39489198	letter g replace
-0.3208663	is g replace
-0.61478144	consonant g replace
-0.5918467	letter o replace
-0.3489521	is o replace
-0.34760746	consonant o replace
-0.34443796	letter m replace
-1.0244231	is m replace
-0.36054873	is h replace
-1.2767427	that with j
-1.8205198	letter add j
-1.3373485	consonant add j
-1.577316	vowel add j
-1.6777866	with j j
-1.6276478	with b j
-1.6556123	with f j
-1.6102245	with r j
-1.6339505	with q j
-1.4412297	with v j
-1.4753586	with x j
-1.4020158	with o j
-1.6192304	with m j
-1.4046224	that with p
-1.2808921	letter add p
-1.2071073	consonant add p
-0.76668966	p add p
-1.3636273	vowel add p
-0.9442718	g add p
-0.33886442	h add p
-1.5887433	with w p
-1.7108903	there is p
-1.4979419	with j p
-1.4243525	with p p
-1.6260284	with f p
-1.6032652	with i p
-1.5781081	with r p
-1.5048523	with u p
-1.5804013	with v p
-1.5521084	with a p
-1.3427787	with x p
-1.7410558	with n p
-1.5779109	with l p
-1.384808	with o p
-1.5871832	with m p
-1.5619649	with h p
-1.2720908	ends with s
-1.7787225	that with s
-2.4091575	any letter s
-1.7842404	letter add s
-1.7258172	consonant add s
-1.257666	vowel add s
-1.4744949	there is s
-2.1852062	with consonant s
-1.758393	is consonant s
-1.6581957	with y s
-1.4327154	with k s
-1.6342773	with f s
-1.1480527	with e s
-1.3071212	is e s
-1.4223586	is vowel s
-1.3322257	with i s
-1.6177609	with x s
-1.5853546	with l s
-1.5715292	with o s
-1.5961008	with m s
-1.5689216	with h s
-1.4051958	that with b
-1.363504	letter add b
-1.6236627	consonant add b
-1.5844373	vowel add b
-0.79336953	r add b
-1.5924147	with w b
-2.1410275	there is b
-1.5015324	with j b
-1.5955867	with p b
-1.5548015	with s b
-1.5131043	with d b
-1.6543134	with y b
-0.9485555	with k b
-1.5338819	with c b
-1.5080923	with u b
-1.6093345	with q b
-1.555684	with a b
-1.7461622	with n b
-1.5802417	with g b
-1.5916191	with m b
-2.3129537	ends with d
-1.4786881	that with d
-2.4144657	any letter d
-1.3262571	letter add d
-1.2477744	consonant add d
-1.0292104	c add d
-0.888098	t add d
-1.0695307	vowel add d
-1.9522481	there is d
-1.5222958	with d d
-1.594335	with k d
-1.5228802	with e d
-1.3701932	with c d
-1.6351411	with t d
-1.61815	with i d
-1.5915825	with r d
-1.6173857	with q d
-1.5925971	with v d
-1.5893402	with g d
-1.6006292	with m d
-1.3357481	that with y
-1.5291675	letter add y
-1.2477744	consonant add y
-0.888098	t add y
-0.34443256	a add y
-0.78176516	o add y
-1.6038402	with p y
-1.4379159	with b y
-1.6621131	with y y
-1.4742055	with f y
-1.4100122	with e y
-1.2504776	with c y
-1.6351411	with t y
-1.61815	with i y
-1.5915825	with r y
-1.5146457	with u y
-1.6173857	with q y
-1.2670041	with o y
-1.3118052	with m y
-1.3777916	that with k
-1.4756522	letter add k
-1.4204322	consonant add k
-0.3402695	b add k
-1.0094249	c add k
-1.3786476	vowel add k
-0.617202	i add k
-1.6074189	with w k
-1.6195489	with b k
-1.5316863	with d k
-1.6700554	with y k
-1.5508422	with c k
-1.6425217	with t k
-1.5212995	with u k
-1.6009222	with v k
-1.4853566	with n k
-1.5986334	with g k
-1.6098301	with m k
-0.33983916	add w before
-0.4953124	add j before
-0.39646843	add p before
-0.43426287	add s before
-0.4984843	add b before
-0.3817496	add d before
-1.015171	add y before
-0.8612161	add k before
-0.23745349	add f before
-0.655677	add e before
-0.3816743	add c before
-0.6112514	add t before
-0.6095	add i before
-0.3393364	add r before
-0.6933668	add u before
-0.5715445	add q before
-0.8375895	add v before
-0.2803223	add a before
-0.4539569	add x before
-0.65525746	add n before
-0.42823887	add l before
-0.2237997	add g before
-1.2066444	add o before
-0.7326354	add m before
-0.75811654	add h before
-1.9098284	any letter double
-2.2931724	with consonant double
-1.9360949	letter consonant double
-1.9006225	consonant consonant double
-0.64587253	letter d double
-0.64543283	letter c double
-0.80886155	l vowel double
-1.0182983	is a double
-0.6496163	letter n double
-0.19926001	the word starts
-1.3494835	that with f
-1.1909664	letter add f
-1.6170971	consonant add f
-0.35433167	u add f
-1.661852	with j f
-1.4355184	with p f
-1.6155554	with b f
-1.5269657	with d f
-1.666066	with y f
-1.5981673	with k f
-1.4770952	with f f
-1.5179598	with u f
-1.4493796	with q f
-1.5665907	with a f
-1.593962	with g f
-1.6052053	with m f
-1.8345679	ends with e
-1.3239697	that with e
-2.378604	any letter e
-1.3499525	letter add e
-1.3446902	consonant add e
-1.1240543	s add e
-0.751394	e add e
-0.97688013	c add e
-0.6037163	i add e
-0.3330898	n add e
-1.4171283	with w e
-1.5885947	there is e
-2.1697605	with consonant e
-1.8213911	is consonant e
-1.4838693	with j e
-1.575614	with p e
-1.5402484	with s e
-1.5848643	with b e
-1.4909419	with d e
-1.5684153	with k e
-1.6450034	with e e
-1.5135726	with c e
-1.5841805	with i e
-1.4921287	with u e
-1.5646552	with v e
-1.5923387	with x e
-1.7212104	with n e
-1.558296	with g e
-1.5698792	with m e
-1.3850431	with h e
-1.4717889	that with c
-2.4091575	any letter c
-1.0834879	letter add c
-1.2831624	consonant add c
-1.2412213	s add c
-1.4005216	vowel add c
-1.6309042	there is c
-1.6515448	with j c
-1.5176758	with d c
-1.6581957	with y c
-2.0652146	is vowel c
-1.6131315	with i c
-1.5870445	with r c
-1.3241001	with u c
-1.5884937	with v c
-1.3755295	with a c
-1.4769852	with n c
-1.5853546	with l c
-1.5715292	with o c
-1.4154431	that with t
-2.3593671	any letter t
-1.4879336	letter add t
-1.4917395	consonant add t
-0.7862377	e add t
-1.3695108	vowel add t
-1.2974231	with w t
-1.3537295	there is t
-1.7936547	is consonant t
-1.6033869	with j t
-1.402847	with p t
-1.5702956	with b t
-0.995432	with d t
-1.4659938	with y t
-0.9408612	with k t
-1.5945156	with f t
-1.2272896	with c t
-1.5966483	with t t
-1.7719547	is vowel t
-1.3869549	with r t
-1.4797673	with u t
-1.5748439	with q t
-1.5494602	with v t
-1.5245167	with a t
-1.7022322	with n t
-1.5493503	with l t
-1.5415045	with g t
-1.5359759	with o t
-1.3759547	with h t
-0.9002389	ends with vowel
-0.71813667	starts with vowel
-1.0875473	any letter vowel
-0.73198193	there is vowel
-1.1322155	with consonant vowel
-0.86619127	is consonant vowel
-1.084177	is d vowel
-1.113257	is c vowel
-1.2457654	is t vowel
-0.80420524	is vowel vowel
-1.4011147	is i vowel
-1.1907699	is r vowel
-0.9054241	is l vowel
-1.3735032	that with i
-2.3835492	any letter i
-1.3983955	letter add i
-1.4086503	consonant add i
-0.33336672	d add i
-0.97810096	c add i
-0.850575	t add i
-1.3089865	vowel add i
-0.75211996	r add i
-1.3068718	with w i
-1.5896213	there is i
-2.317	with consonant i
-1.5647817	is consonant i
-1.4161627	with p i
-1.5885842	with b i
-1.4952848	with d i
-1.6391222	with y i
-1.6139417	with f i
-1.5008202	with e i
-1.5175592	with c i
-1.5650392	with r i
-1.5936662	with q i
-1.5685385	with v i
-1.3358839	with x i
-1.5732398	with n i
-1.5625973	with g i
-1.574141	with m i
-1.3873452	with h i
-1.4207628	that with r
-1.675667	letter add r
-1.4506018	consonant add r
-1.4794841	vowel add r
-0.79336953	o add r
-1.5604903	there is r
-1.9260955	is consonant r
-1.5015324	with j r
-1.5955867	with p r
-1.5548015	with s r
-1.5131043	with d r
-1.6543134	with y r
-1.4300934	with k r
-1.6301334	with f r
-2.0610344	is vowel r
-1.4449005	with i r
-1.4133731	with r r
-1.6093345	with q r
-1.555684	with a r
-1.5654293	with h r
-1.5464853	that with u
-1.5095756	letter add u
-1.6085186	consonant add u
-1.0456346	c add u
-0.98136806	g add u
-1.8090104	there is u
-1.8143605	is consonant u
-1.6316364	with j u
-1.3410702	with d u
-1.4223212	with k u
-1.5044199	with e u
-1.3126429	with t u
-1.3218969	with i u
-1.5693519	with r u
-1.4984438	with u u
-1.5975306	with q u
-1.572457	with v u
-1.5450444	with a u
-1.6006485	with x u
-1.7310197	with n u
-1.5705928	with l u
-1.4027374	with g u
-1.5569568	with o u
-1.3901676	that with q
-1.283082	letter add q
-1.4789178	consonant add q
-1.1530006	vowel add q
-0.76744163	r add q
-0.61507696	l add q
-0.9454042	g add q
-1.5924147	with w q
-1.5015324	with j q
-1.5955867	with p q
-1.4326664	with b q
-1.235332	with d q
-1.6301334	with f q
-1.6707326	with e q
-1.443555	with t q
-1.4449005	with i q
-1.5825533	with r q
-1.5080923	with u q
-1.4241138	with v q
-1.6134192	with x q
-1.7461622	with n q
-1.5816168	with l q
-1.3918337	that with v
-1.6029603	letter add v
-1.7390144	consonant add v
-1.5630639	vowel add v
-1.603619	with w v
-1.6080266	with p v
-1.642686	with f v
-1.6869352	with e v
-1.3730552	with c v
-1.6232272	with i v
-1.5961685	with r v
-1.4493796	with q v
-1.5967398	with v v
-1.5665907	with a v
-1.6265769	with x v
-1.7618518	with n v
-1.4858254	that with a
-2.312365	any letter a
-1.5028951	letter add a
-1.3814974	consonant add a
-1.1899585	s add a
-0.95890075	g add a
-0.6213328	m add a
-1.5743603	with w a
-2.019538	there is a
-1.9038187	is consonant a
-1.6220142	with j a
-1.575614	with p a
-1.0747668	with b a
-1.4761317	with y a
-1.5684153	with k a
-1.4972501	with e a
-1.5841805	with i a
-1.5607687	with r a
-1.3115104	with u a
-1.5898359	with q a
-1.5646552	with v a
-1.5923387	with x a
-1.569804	with n a
-1.2695916	with l a
-1.3967952	with g a
-1.4095107	with m a
-1.347972	that with x
-1.2482692	letter add x
-1.5272768	consonant add x
-0.92023957	s add x
-1.4794841	vowel add x
-1.4296191	with w x
-1.5015324	with j x
-1.5955867	with p x
-1.5131043	with d x
-1.6301334	with f x
-1.5154017	with e x
-1.443555	with t x
-1.6081704	with i x
-1.5825533	with r x
-1.6093345	with q x
-1.555684	with a x
-1.6134192	with x x
-1.5802417	with g x
-1.4244214	with m x
-1.3966777	with h x
-2.2913868	ends with n
-1.2233791	that with n
-2.3885515	any letter n
-1.3556495	letter add n
-1.4403771	consonant add n
-1.0456346	c add n
-1.4680692	vowel add n
-1.5906504	there is n
-1.6316364	with j n
-1.5834932	with p n
-1.5460113	with s n
-1.592336	with b n
-1.5756644	with k n
-1.460038	with f n
-1.655113	with e n
-1.6172205	with t n
-1.593618	with i n
-1.5693519	with r n
-1.5975306	with q n
-1.7310197	with n n
-1.394784	with l n
-1.5669417	with g n
-1.578445	with m n
-1.3896596	with h n
-1.4530367	that with l
-2.1727316	any letter l
-1.4065461	letter add l
-1.102259	consonant add l
-0.99869806	s add l
-0.76668966	e add l
-1.3636273	vowel add l
-0.6145473	m add l
-1.4270921	with w l
-1.7108903	there is l
-1.6151421	is consonant l
-1.6414765	with j l
-1.5999388	with b l
-1.5830365	with k l
-1.6654634	with e l
-1.4412075	with t l
-2.0568943	is vowel l
-1.6032652	with i l
-1.6053641	with q l
-1.3427787	with x l
-1.2915883	with g l
-1.5641818	with o l
-1.5871832	with m l
-2.2913868	ends with g
-1.4244857	that with g
-2.3208916	any letter g
-1.6597004	letter add g
-1.515105	consonant add g
-0.8999032	t add g
-1.3878504	vowel add g
-1.7556759	there is g
-1.9125928	is consonant g
-1.6316364	with j g
-1.5834932	with p g
-1.592336	with b g
-1.4996716	with d g
-1.6428705	with y g
-1.5756644	with k g
-1.5215827	with c g
-1.3039409	with v g
-1.5450444	with a g
-1.4479493	with x g
-1.576703	with n g
-1.5705928	with l g
-1.5669417	with g g
-1.5569568	with o g
-1.3896596	with h g
-1.4697869	that with o
-2.0553963	any letter o
-1.5132898	letter add o
-1.5191245	consonant add o
-0.7917745	p add o
-1.4718409	vowel add o
-1.5851027	with w o
-1.6275262	there is o
-2.324158	with consonant o
-1.5687791	is consonant o
-1.6365285	with j o
-1.587487	with p o
-1.5041032	with d o
-1.6466514	with y o
-1.6219621	with f o
-1.5080497	with e o
-1.4381784	with i o
-1.4357957	with q o
-1.5764109	with v o
-1.548562	with a o
-1.6048639	with x o
-1.7360088	with n o
-1.57133	with g o
-2.4654045	any letter remove
-0.35771346	s consonant remove
-1.4237088	with s remove
-0.9533747	e s remove
-0.9315368	vowel s remove
-0.61152154	c vowel remove
-0.76240075	t vowel remove
-0.61152154	r vowel remove
-1.0247153	consonant o remove
-1.0873042	is m remove
-1.4051958	that with m
-2.4901135	any letter m
-1.4621813	letter add m
-1.3483242	consonant add m
-0.76744163	p add m
-0.88358676	s add m
-1.3665901	vowel add m
-0.61507696	l add m
-1.9475356	there is m
-1.5955867	with p m
-1.6543134	with y m
-1.6301334	with f m
-1.5338819	with c m
-1.443555	with t m
-1.6081704	with i m
-1.5825533	with r m
-1.555684	with a m
-1.6134192	with x m
-1.7461622	with n m
-1.5816168	with l m
-1.5802417	with g m
-1.5678399	with o m
-1.4362917	that with h
-1.517036	letter add h
-1.6185558	consonant add h
-1.4756458	vowel add h
-0.7925713	o add h
-2.030746	there is h
-1.4979419	with j h
-1.5999388	with b h
-1.6504655	with y h
-1.6260284	with f h
-1.6654634	with e h
-1.6032652	with i h
-1.5048523	with u h
-1.6053641	with q h
-1.4213256	with v h
-1.6091205	with x h
-1.7410558	with n h
-1.5779109	with l h
-1.575763	with g h
-1.5871832	with m h
-1.3943257	with h h

\end\
