a #(lambda^(logo_forLoop^9^(lambda^($1^(#(lambda^(lambda^(lambda^(logo_forLoop^$2^(lambda^(lambda^(logo_FWRT^$2^$3^$0)))))))^5^logo_epsA^logo_ZL))))) 0.0917431
space #(lambda^(logo_forLoop^9^(lambda^($1^(#(lambda^(lambda^(lambda^(logo_forLoop^$2^(lambda^(lambda^(logo_FWRT^$2^$3^$0)))))))^5^logo_epsA^logo_ZL))))) 0.0183486
line #(lambda^(logo_forLoop^9^(lambda^($1^(#(lambda^(lambda^(lambda^(logo_forLoop^$2^(lambda^(lambda^(logo_FWRT^$2^$3^$0)))))))^5^logo_epsA^logo_ZL))))) 0.0183486
8 #(lambda^(logo_forLoop^9^(lambda^($1^(#(lambda^(lambda^(lambda^(logo_forLoop^$2^(lambda^(lambda^(logo_FWRT^$2^$3^$0)))))))^5^logo_epsA^logo_ZL))))) 0.1009174
sided #(lambda^(logo_forLoop^9^(lambda^($1^(#(lambda^(lambda^(lambda^(logo_forLoop^$2^(lambda^(lambda^(logo_FWRT^$2^$3^$0)))))))^5^logo_epsA^logo_ZL))))) 0.1284404
5 #(lambda^(logo_forLoop^9^(lambda^($1^(#(lambda^(lambda^(lambda^(logo_forLoop^$2^(lambda^(lambda^(logo_FWRT^$2^$3^$0)))))))^5^logo_epsA^logo_ZL))))) 0.0183486
short #(lambda^(logo_forLoop^9^(lambda^($1^(#(lambda^(lambda^(lambda^(logo_forLoop^$2^(lambda^(lambda^(logo_FWRT^$2^$3^$0)))))))^5^logo_epsA^logo_ZL))))) 0.0550459
and #(lambda^(logo_forLoop^9^(lambda^($1^(#(lambda^(lambda^(lambda^(logo_forLoop^$2^(lambda^(lambda^(logo_FWRT^$2^$3^$0)))))))^5^logo_epsA^logo_ZL))))) 0.0550459
snowflake #(lambda^(logo_forLoop^9^(lambda^($1^(#(lambda^(lambda^(lambda^(logo_forLoop^$2^(lambda^(lambda^(logo_FWRT^$2^$3^$0)))))))^5^logo_epsA^logo_ZL))))) 0.1284404
with #(lambda^(logo_forLoop^9^(lambda^($1^(#(lambda^(lambda^(lambda^(logo_forLoop^$2^(lambda^(lambda^(logo_FWRT^$2^$3^$0)))))))^5^logo_epsA^logo_ZL))))) 0.1284404
small #(lambda^(logo_forLoop^9^(lambda^($1^(#(lambda^(lambda^(lambda^(logo_forLoop^$2^(lambda^(lambda^(logo_FWRT^$2^$3^$0)))))))^5^logo_epsA^logo_ZL))))) 0.0183486
arms #(lambda^(logo_forLoop^9^(lambda^($1^(#(lambda^(lambda^(lambda^(logo_forLoop^$2^(lambda^(lambda^(logo_FWRT^$2^$3^$0)))))))^5^logo_epsA^logo_ZL))))) 0.1100917
as #(lambda^(logo_forLoop^9^(lambda^($1^(#(lambda^(lambda^(lambda^(logo_forLoop^$2^(lambda^(lambda^(logo_FWRT^$2^$3^$0)))))))^5^logo_epsA^logo_ZL))))) 0.1100917
zigzag #(lambda^(logo_forLoop^9^(lambda^($1^(#(lambda^(lambda^(lambda^(logo_forLoop^$2^(lambda^(lambda^(logo_FWRT^$2^$3^$0)))))))^5^logo_epsA^logo_ZL))))) 0.0183486
line logo_ZL 0.0162602
a logo_ZL 0.6341463
space logo_ZL 0.0162602
sided logo_ZL 0.0162602
big logo_ZL 0.0162602
5 logo_ZL 0.0162602
6 logo_ZL 0.0243902
circle logo_ZL 0.0162602
with logo_ZL 0.0162602
small logo_ZL 0.0162602
snowflake logo_ZL 0.0162602
short logo_ZL 0.0487805
and logo_ZL 0.0487805
arms logo_ZL 0.0162602
as logo_ZL 0.0813008
arms logo_GETSET 0.0131579
greek logo_GETSET 0.0394737
as logo_GETSET 0.0131579
and logo_GETSET 0.0394737
staircase logo_GETSET 0.0394737
small logo_GETSET 0.0131579
with logo_GETSET 0.0131579
circle logo_GETSET 0.0131579
medium logo_GETSET 0.0197368
line logo_GETSET 0.0131579
semicircle logo_GETSET 0.1315789
short logo_GETSET 0.0394737
snowflake logo_GETSET 0.0197368
sided logo_GETSET 0.0131579
5 logo_GETSET 0.0131579
s logo_GETSET 0.0263158
space logo_GETSET 0.0131579
a logo_GETSET 0.5263158
gon SIX 0.0391061
6 SIX 0.6759777
sided SIX 0.0111732
5 SIX 0.0111732
space SIX 0.0111732
a SIX 0.0782123
concentric SIX 0.0279330
snowflake SIX 0.0111732
short SIX 0.0335196
medium SIX 0.0111732
line SIX 0.0111732
arms SIX 0.0111732
as SIX 0.0111732
and SIX 0.0335196
small SIX 0.0111732
with SIX 0.0111732
concentric NINE 0.0086957
space NINE 0.0057971
a NINE 0.2666667
5 NINE 0.0057971
sided NINE 0.0057971
big NINE 0.0231884
8 NINE 0.0318841
gon NINE 0.1507246
from NINE 0.0086957
to NINE 0.0057971
9 NINE 0.2840580
separated NINE 0.0144928
short NINE 0.0173913
snowflake NINE 0.0057971
spiral NINE 0.0115942
square NINE 0.0028986
line NINE 0.0057971
medium NINE 0.0028986
connected NINE 0.0347826
with NINE 0.0057971
small NINE 0.0173913
by NINE 0.0550725
and NINE 0.0173913
as NINE 0.0057971
arms NINE 0.0057971
with #(lambda^(lambda^(lambda^(lambda^($3^(lambda^(lambda^(logo_FWRT^logo_ZL^(logo_DIVA^logo_UA^$4)^($3^$0))))^$0))))) 0.0500000
small #(lambda^(lambda^(lambda^(lambda^($3^(lambda^(lambda^(logo_FWRT^logo_ZL^(logo_DIVA^logo_UA^$4)^($3^$0))))^$0))))) 0.0500000
snowflake #(lambda^(lambda^(lambda^(lambda^($3^(lambda^(lambda^(logo_FWRT^logo_ZL^(logo_DIVA^logo_UA^$4)^($3^$0))))^$0))))) 0.0500000
short #(lambda^(lambda^(lambda^(lambda^($3^(lambda^(lambda^(logo_FWRT^logo_ZL^(logo_DIVA^logo_UA^$4)^($3^$0))))^$0))))) 0.1500000
and #(lambda^(lambda^(lambda^(lambda^($3^(lambda^(lambda^(logo_FWRT^logo_ZL^(logo_DIVA^logo_UA^$4)^($3^$0))))^$0))))) 0.1500000
arms #(lambda^(lambda^(lambda^(lambda^($3^(lambda^(lambda^(logo_FWRT^logo_ZL^(logo_DIVA^logo_UA^$4)^($3^$0))))^$0))))) 0.0500000
as #(lambda^(lambda^(lambda^(lambda^($3^(lambda^(lambda^(logo_FWRT^logo_ZL^(logo_DIVA^logo_UA^$4)^($3^$0))))^$0))))) 0.0500000
line #(lambda^(lambda^(lambda^(lambda^($3^(lambda^(lambda^(logo_FWRT^logo_ZL^(logo_DIVA^logo_UA^$4)^($3^$0))))^$0))))) 0.0500000
a #(lambda^(lambda^(lambda^(lambda^($3^(lambda^(lambda^(logo_FWRT^logo_ZL^(logo_DIVA^logo_UA^$4)^($3^$0))))^$0))))) 0.2500000
space #(lambda^(lambda^(lambda^(lambda^($3^(lambda^(lambda^(logo_FWRT^logo_ZL^(logo_DIVA^logo_UA^$4)^($3^$0))))^$0))))) 0.0500000
sided #(lambda^(lambda^(lambda^(lambda^($3^(lambda^(lambda^(logo_FWRT^logo_ZL^(logo_DIVA^logo_UA^$4)^($3^$0))))^$0))))) 0.0500000
5 #(lambda^(lambda^(lambda^(lambda^($3^(lambda^(lambda^(logo_FWRT^logo_ZL^(logo_DIVA^logo_UA^$4)^($3^$0))))^$0))))) 0.0500000
sided #(lambda^(lambda^(lambda^(lambda^($3^(lambda^(lambda^(logo_FWRT^logo_ZL^(logo_DIVA^logo_UA^$3)^($4^$0))))^$0))))) 0.0500000
5 #(lambda^(lambda^(lambda^(lambda^($3^(lambda^(lambda^(logo_FWRT^logo_ZL^(logo_DIVA^logo_UA^$3)^($4^$0))))^$0))))) 0.0500000
space #(lambda^(lambda^(lambda^(lambda^($3^(lambda^(lambda^(logo_FWRT^logo_ZL^(logo_DIVA^logo_UA^$3)^($4^$0))))^$0))))) 0.0500000
a #(lambda^(lambda^(lambda^(lambda^($3^(lambda^(lambda^(logo_FWRT^logo_ZL^(logo_DIVA^logo_UA^$3)^($4^$0))))^$0))))) 0.2500000
line #(lambda^(lambda^(lambda^(lambda^($3^(lambda^(lambda^(logo_FWRT^logo_ZL^(logo_DIVA^logo_UA^$3)^($4^$0))))^$0))))) 0.0500000
arms #(lambda^(lambda^(lambda^(lambda^($3^(lambda^(lambda^(logo_FWRT^logo_ZL^(logo_DIVA^logo_UA^$3)^($4^$0))))^$0))))) 0.0500000
as #(lambda^(lambda^(lambda^(lambda^($3^(lambda^(lambda^(logo_FWRT^logo_ZL^(logo_DIVA^logo_UA^$3)^($4^$0))))^$0))))) 0.0500000
short #(lambda^(lambda^(lambda^(lambda^($3^(lambda^(lambda^(logo_FWRT^logo_ZL^(logo_DIVA^logo_UA^$3)^($4^$0))))^$0))))) 0.1500000
and #(lambda^(lambda^(lambda^(lambda^($3^(lambda^(lambda^(logo_FWRT^logo_ZL^(logo_DIVA^logo_UA^$3)^($4^$0))))^$0))))) 0.1500000
snowflake #(lambda^(lambda^(lambda^(lambda^($3^(lambda^(lambda^(logo_FWRT^logo_ZL^(logo_DIVA^logo_UA^$3)^($4^$0))))^$0))))) 0.0500000
small #(lambda^(lambda^(lambda^(lambda^($3^(lambda^(lambda^(logo_FWRT^logo_ZL^(logo_DIVA^logo_UA^$3)^($4^$0))))^$0))))) 0.0500000
with #(lambda^(lambda^(lambda^(lambda^($3^(lambda^(lambda^(logo_FWRT^logo_ZL^(logo_DIVA^logo_UA^$3)^($4^$0))))^$0))))) 0.0500000
arms #(lambda^(lambda^(lambda^(#(lambda^(lambda^(lambda^(lambda^(#(lambda^(lambda^(#(lambda^(lambda^(lambda^(#(lambda^(lambda^(lambda^(logo_forLoop^$2^(lambda^(lambda^(logo_FWRT^$2^$3^$0)))))))^$2^(logo_DIVA^logo_UA^$1)^logo_UL^$0))))^$1^$1^$0)))^$1^(#(lambda^(logo_PT^(lambda^(#(lambda^(logo_forLoop^$0^(lambda^(lambda^(#(lambda^(#(lambda^(lambda^(lambda^(logo_forLoop^$2^(lambda^(lambda^(logo_FWRT^$2^$3^$0)))))))^$0^(logo_DIVA^logo_UA^5)^logo_UL))^5^(logo_FWRT^logo_UL^logo_UA^$0))))))^$1^$0))))^$2^($3^$0)))))))^(lambda^($3^$0))^2^$1^$0)))) 0.0178571
next #(lambda^(lambda^(lambda^(#(lambda^(lambda^(lambda^(lambda^(#(lambda^(lambda^(#(lambda^(lambda^(lambda^(#(lambda^(lambda^(lambda^(logo_forLoop^$2^(lambda^(lambda^(logo_FWRT^$2^$3^$0)))))))^$2^(logo_DIVA^logo_UA^$1)^logo_UL^$0))))^$1^$1^$0)))^$1^(#(lambda^(logo_PT^(lambda^(#(lambda^(logo_forLoop^$0^(lambda^(lambda^(#(lambda^(#(lambda^(lambda^(lambda^(logo_forLoop^$2^(lambda^(lambda^(logo_FWRT^$2^$3^$0)))))))^$0^(logo_DIVA^logo_UA^5)^logo_UL))^5^(logo_FWRT^logo_UL^logo_UA^$0))))))^$1^$0))))^$2^($3^$0)))))))^(lambda^($3^$0))^2^$1^$0)))) 0.1607143
as #(lambda^(lambda^(lambda^(#(lambda^(lambda^(lambda^(lambda^(#(lambda^(lambda^(#(lambda^(lambda^(lambda^(#(lambda^(lambda^(lambda^(logo_forLoop^$2^(lambda^(lambda^(logo_FWRT^$2^$3^$0)))))))^$2^(logo_DIVA^logo_UA^$1)^logo_UL^$0))))^$1^$1^$0)))^$1^(#(lambda^(logo_PT^(lambda^(#(lambda^(logo_forLoop^$0^(lambda^(lambda^(#(lambda^(#(lambda^(lambda^(lambda^(logo_forLoop^$2^(lambda^(lambda^(logo_FWRT^$2^$3^$0)))))))^$0^(logo_DIVA^logo_UA^5)^logo_UL))^5^(logo_FWRT^logo_UL^logo_UA^$0))))))^$1^$0))))^$2^($3^$0)))))))^(lambda^($3^$0))^2^$1^$0)))) 0.0178571
with #(lambda^(lambda^(lambda^(#(lambda^(lambda^(lambda^(lambda^(#(lambda^(lambda^(#(lambda^(lambda^(lambda^(#(lambda^(lambda^(lambda^(logo_forLoop^$2^(lambda^(lambda^(logo_FWRT^$2^$3^$0)))))))^$2^(logo_DIVA^logo_UA^$1)^logo_UL^$0))))^$1^$1^$0)))^$1^(#(lambda^(logo_PT^(lambda^(#(lambda^(logo_forLoop^$0^(lambda^(lambda^(#(lambda^(#(lambda^(lambda^(lambda^(logo_forLoop^$2^(lambda^(lambda^(logo_FWRT^$2^$3^$0)))))))^$0^(logo_DIVA^logo_UA^5)^logo_UL))^5^(logo_FWRT^logo_UL^logo_UA^$0))))))^$1^$0))))^$2^($3^$0)))))))^(lambda^($3^$0))^2^$1^$0)))) 0.0178571
small #(lambda^(lambda^(lambda^(#(lambda^(lambda^(lambda^(lambda^(#(lambda^(lambda^(#(lambda^(lambda^(lambda^(#(lambda^(lambda^(lambda^(logo_forLoop^$2^(lambda^(lambda^(logo_FWRT^$2^$3^$0)))))))^$2^(logo_DIVA^logo_UA^$1)^logo_UL^$0))))^$1^$1^$0)))^$1^(#(lambda^(logo_PT^(lambda^(#(lambda^(logo_forLoop^$0^(lambda^(lambda^(#(lambda^(#(lambda^(lambda^(lambda^(logo_forLoop^$2^(lambda^(lambda^(logo_FWRT^$2^$3^$0)))))))^$0^(logo_DIVA^logo_UA^5)^logo_UL))^5^(logo_FWRT^logo_UL^logo_UA^$0))))))^$1^$0))))^$2^($3^$0)))))))^(lambda^($3^$0))^2^$1^$0)))) 0.1071429
to #(lambda^(lambda^(lambda^(#(lambda^(lambda^(lambda^(lambda^(#(lambda^(lambda^(#(lambda^(lambda^(lambda^(#(lambda^(lambda^(lambda^(logo_forLoop^$2^(lambda^(lambda^(logo_FWRT^$2^$3^$0)))))))^$2^(logo_DIVA^logo_UA^$1)^logo_UL^$0))))^$1^$1^$0)))^$1^(#(lambda^(logo_PT^(lambda^(#(lambda^(logo_forLoop^$0^(lambda^(lambda^(#(lambda^(#(lambda^(lambda^(lambda^(logo_forLoop^$2^(lambda^(lambda^(logo_FWRT^$2^$3^$0)))))))^$0^(logo_DIVA^logo_UA^5)^logo_UL))^5^(logo_FWRT^logo_UL^logo_UA^$0))))))^$1^$0))))^$2^($3^$0)))))))^(lambda^($3^$0))^2^$1^$0)))) 0.1785714
and #(lambda^(lambda^(lambda^(#(lambda^(lambda^(lambda^(lambda^(#(lambda^(lambda^(#(lambda^(lambda^(lambda^(#(lambda^(lambda^(lambda^(logo_forLoop^$2^(lambda^(lambda^(logo_FWRT^$2^$3^$0)))))))^$2^(logo_DIVA^logo_UA^$1)^logo_UL^$0))))^$1^$1^$0)))^$1^(#(lambda^(logo_PT^(lambda^(#(lambda^(logo_forLoop^$0^(lambda^(lambda^(#(lambda^(#(lambda^(lambda^(lambda^(logo_forLoop^$2^(lambda^(lambda^(logo_FWRT^$2^$3^$0)))))))^$0^(logo_DIVA^logo_UA^5)^logo_UL))^5^(logo_FWRT^logo_UL^logo_UA^$0))))))^$1^$0))))^$2^($3^$0)))))))^(lambda^($3^$0))^2^$1^$0)))) 0.0535714
short #(lambda^(lambda^(lambda^(#(lambda^(lambda^(lambda^(lambda^(#(lambda^(lambda^(#(lambda^(lambda^(lambda^(#(lambda^(lambda^(lambda^(logo_forLoop^$2^(lambda^(lambda^(logo_FWRT^$2^$3^$0)))))))^$2^(logo_DIVA^logo_UA^$1)^logo_UL^$0))))^$1^$1^$0)))^$1^(#(lambda^(logo_PT^(lambda^(#(lambda^(logo_forLoop^$0^(lambda^(lambda^(#(lambda^(#(lambda^(lambda^(lambda^(logo_forLoop^$2^(lambda^(lambda^(logo_FWRT^$2^$3^$0)))))))^$0^(logo_DIVA^logo_UA^5)^logo_UL))^5^(logo_FWRT^logo_UL^logo_UA^$0))))))^$1^$0))))^$2^($3^$0)))))))^(lambda^($3^$0))^2^$1^$0)))) 0.0535714
snowflake #(lambda^(lambda^(lambda^(#(lambda^(lambda^(lambda^(lambda^(#(lambda^(lambda^(#(lambda^(lambda^(lambda^(#(lambda^(lambda^(lambda^(logo_forLoop^$2^(lambda^(lambda^(logo_FWRT^$2^$3^$0)))))))^$2^(logo_DIVA^logo_UA^$1)^logo_UL^$0))))^$1^$1^$0)))^$1^(#(lambda^(logo_PT^(lambda^(#(lambda^(logo_forLoop^$0^(lambda^(lambda^(#(lambda^(#(lambda^(lambda^(lambda^(logo_forLoop^$2^(lambda^(lambda^(logo_FWRT^$2^$3^$0)))))))^$0^(logo_DIVA^logo_UA^5)^logo_UL))^5^(logo_FWRT^logo_UL^logo_UA^$0))))))^$1^$0))))^$2^($3^$0)))))))^(lambda^($3^$0))^2^$1^$0)))) 0.0178571
sided #(lambda^(lambda^(lambda^(#(lambda^(lambda^(lambda^(lambda^(#(lambda^(lambda^(#(lambda^(lambda^(lambda^(#(lambda^(lambda^(lambda^(logo_forLoop^$2^(lambda^(lambda^(logo_FWRT^$2^$3^$0)))))))^$2^(logo_DIVA^logo_UA^$1)^logo_UL^$0))))^$1^$1^$0)))^$1^(#(lambda^(logo_PT^(lambda^(#(lambda^(logo_forLoop^$0^(lambda^(lambda^(#(lambda^(#(lambda^(lambda^(lambda^(logo_forLoop^$2^(lambda^(lambda^(logo_FWRT^$2^$3^$0)))))))^$0^(logo_DIVA^logo_UA^5)^logo_UL))^5^(logo_FWRT^logo_UL^logo_UA^$0))))))^$1^$0))))^$2^($3^$0)))))))^(lambda^($3^$0))^2^$1^$0)))) 0.0178571
5 #(lambda^(lambda^(lambda^(#(lambda^(lambda^(lambda^(lambda^(#(lambda^(lambda^(#(lambda^(lambda^(lambda^(#(lambda^(lambda^(lambda^(logo_forLoop^$2^(lambda^(lambda^(logo_FWRT^$2^$3^$0)))))))^$2^(logo_DIVA^logo_UA^$1)^logo_UL^$0))))^$1^$1^$0)))^$1^(#(lambda^(logo_PT^(lambda^(#(lambda^(logo_forLoop^$0^(lambda^(lambda^(#(lambda^(#(lambda^(lambda^(lambda^(logo_forLoop^$2^(lambda^(lambda^(logo_FWRT^$2^$3^$0)))))))^$0^(logo_DIVA^logo_UA^5)^logo_UL))^5^(logo_FWRT^logo_UL^logo_UA^$0))))))^$1^$0))))^$2^($3^$0)))))))^(lambda^($3^$0))^2^$1^$0)))) 0.0178571
gon #(lambda^(lambda^(lambda^(#(lambda^(lambda^(lambda^(lambda^(#(lambda^(lambda^(#(lambda^(lambda^(lambda^(#(lambda^(lambda^(lambda^(logo_forLoop^$2^(lambda^(lambda^(logo_FWRT^$2^$3^$0)))))))^$2^(logo_DIVA^logo_UA^$1)^logo_UL^$0))))^$1^$1^$0)))^$1^(#(lambda^(logo_PT^(lambda^(#(lambda^(logo_forLoop^$0^(lambda^(lambda^(#(lambda^(#(lambda^(lambda^(lambda^(logo_forLoop^$2^(lambda^(lambda^(logo_FWRT^$2^$3^$0)))))))^$0^(logo_DIVA^logo_UA^5)^logo_UL))^5^(logo_FWRT^logo_UL^logo_UA^$0))))))^$1^$0))))^$2^($3^$0)))))))^(lambda^($3^$0))^2^$1^$0)))) 0.2321429
line #(lambda^(lambda^(lambda^(#(lambda^(lambda^(lambda^(lambda^(#(lambda^(lambda^(#(lambda^(lambda^(lambda^(#(lambda^(lambda^(lambda^(logo_forLoop^$2^(lambda^(lambda^(logo_FWRT^$2^$3^$0)))))))^$2^(logo_DIVA^logo_UA^$1)^logo_UL^$0))))^$1^$1^$0)))^$1^(#(lambda^(logo_PT^(lambda^(#(lambda^(logo_forLoop^$0^(lambda^(lambda^(#(lambda^(#(lambda^(lambda^(lambda^(logo_forLoop^$2^(lambda^(lambda^(logo_FWRT^$2^$3^$0)))))))^$0^(logo_DIVA^logo_UA^5)^logo_UL))^5^(logo_FWRT^logo_UL^logo_UA^$0))))))^$1^$0))))^$2^($3^$0)))))))^(lambda^($3^$0))^2^$1^$0)))) 0.0178571
space #(lambda^(lambda^(lambda^(#(lambda^(lambda^(lambda^(lambda^(#(lambda^(lambda^(#(lambda^(lambda^(lambda^(#(lambda^(lambda^(lambda^(logo_forLoop^$2^(lambda^(lambda^(logo_FWRT^$2^$3^$0)))))))^$2^(logo_DIVA^logo_UA^$1)^logo_UL^$0))))^$1^$1^$0)))^$1^(#(lambda^(logo_PT^(lambda^(#(lambda^(logo_forLoop^$0^(lambda^(lambda^(#(lambda^(#(lambda^(lambda^(lambda^(logo_forLoop^$2^(lambda^(lambda^(logo_FWRT^$2^$3^$0)))))))^$0^(logo_DIVA^logo_UA^5)^logo_UL))^5^(logo_FWRT^logo_UL^logo_UA^$0))))))^$1^$0))))^$2^($3^$0)))))))^(lambda^($3^$0))^2^$1^$0)))) 0.0267857
a #(lambda^(lambda^(lambda^(#(lambda^(lambda^(lambda^(lambda^(#(lambda^(lambda^(#(lambda^(lambda^(lambda^(#(lambda^(lambda^(lambda^(logo_forLoop^$2^(lambda^(lambda^(logo_FWRT^$2^$3^$0)))))))^$2^(logo_DIVA^logo_UA^$1)^logo_UL^$0))))^$1^$1^$0)))^$1^(#(lambda^(logo_PT^(lambda^(#(lambda^(logo_forLoop^$0^(lambda^(lambda^(#(lambda^(#(lambda^(lambda^(lambda^(logo_forLoop^$2^(lambda^(lambda^(logo_FWRT^$2^$3^$0)))))))^$0^(logo_DIVA^logo_UA^5)^logo_UL))^5^(logo_FWRT^logo_UL^logo_UA^$0))))))^$1^$0))))^$2^($3^$0)))))))^(lambda^($3^$0))^2^$1^$0)))) 0.0625000
snowflake logo_forLoop 0.0166667
short logo_forLoop 0.0500000
5 logo_forLoop 0.0166667
sided logo_forLoop 0.0166667
concentric logo_forLoop 0.0250000
s logo_forLoop 0.1583333
space logo_forLoop 0.0166667
a logo_forLoop 0.0833333
triangle logo_forLoop 0.0083333
as logo_forLoop 0.0166667
arms logo_forLoop 0.0166667
row logo_forLoop 0.1583333
with logo_forLoop 0.0166667
small logo_forLoop 0.0166667
and logo_forLoop 0.0500000
in logo_forLoop 0.1500000
circle logo_forLoop 0.0416667
semicircle logo_forLoop 0.0333333
medium logo_forLoop 0.0916667
line logo_forLoop 0.0166667
line #(lambda^(lambda^(lambda^(lambda^($1^(lambda^(lambda^(logo_FWRT^logo_ZL^(logo_DIVA^logo_UA^$4)^($5^$0))))^$0))))) 0.0500000
space #(lambda^(lambda^(lambda^(lambda^($1^(lambda^(lambda^(logo_FWRT^logo_ZL^(logo_DIVA^logo_UA^$4)^($5^$0))))^$0))))) 0.0500000
a #(lambda^(lambda^(lambda^(lambda^($1^(lambda^(lambda^(logo_FWRT^logo_ZL^(logo_DIVA^logo_UA^$4)^($5^$0))))^$0))))) 0.2500000
sided #(lambda^(lambda^(lambda^(lambda^($1^(lambda^(lambda^(logo_FWRT^logo_ZL^(logo_DIVA^logo_UA^$4)^($5^$0))))^$0))))) 0.0500000
5 #(lambda^(lambda^(lambda^(lambda^($1^(lambda^(lambda^(logo_FWRT^logo_ZL^(logo_DIVA^logo_UA^$4)^($5^$0))))^$0))))) 0.0500000
small #(lambda^(lambda^(lambda^(lambda^($1^(lambda^(lambda^(logo_FWRT^logo_ZL^(logo_DIVA^logo_UA^$4)^($5^$0))))^$0))))) 0.0500000
with #(lambda^(lambda^(lambda^(lambda^($1^(lambda^(lambda^(logo_FWRT^logo_ZL^(logo_DIVA^logo_UA^$4)^($5^$0))))^$0))))) 0.0500000
and #(lambda^(lambda^(lambda^(lambda^($1^(lambda^(lambda^(logo_FWRT^logo_ZL^(logo_DIVA^logo_UA^$4)^($5^$0))))^$0))))) 0.1500000
short #(lambda^(lambda^(lambda^(lambda^($1^(lambda^(lambda^(logo_FWRT^logo_ZL^(logo_DIVA^logo_UA^$4)^($5^$0))))^$0))))) 0.1500000
snowflake #(lambda^(lambda^(lambda^(lambda^($1^(lambda^(lambda^(logo_FWRT^logo_ZL^(logo_DIVA^logo_UA^$4)^($5^$0))))^$0))))) 0.0500000
arms #(lambda^(lambda^(lambda^(lambda^($1^(lambda^(lambda^(logo_FWRT^logo_ZL^(logo_DIVA^logo_UA^$4)^($5^$0))))^$0))))) 0.0500000
as #(lambda^(lambda^(lambda^(lambda^($1^(lambda^(lambda^(logo_FWRT^logo_ZL^(logo_DIVA^logo_UA^$4)^($5^$0))))^$0))))) 0.0500000
arms #(lambda^(lambda^(#(lambda^(lambda^(lambda^(lambda^(logo_forLoop^$2^(lambda^(lambda^(logo_GETSET^(lambda^(#(lambda^(lambda^(lambda^(logo_forLoop^$2^(lambda^(lambda^(logo_FWRT^$2^$3^$0)))))))^$4^(logo_DIVA^logo_UA^$6)^(logo_MULL^logo_UL^$2)^$0))^$0)))^$0)))))^$1^5^$1^$0))) 0.0384615
as #(lambda^(lambda^(#(lambda^(lambda^(lambda^(lambda^(logo_forLoop^$2^(lambda^(lambda^(logo_GETSET^(lambda^(#(lambda^(lambda^(lambda^(logo_forLoop^$2^(lambda^(lambda^(logo_FWRT^$2^$3^$0)))))))^$4^(logo_DIVA^logo_UA^$6)^(logo_MULL^logo_UL^$2)^$0))^$0)))^$0)))))^$1^5^$1^$0))) 0.0384615
small #(lambda^(lambda^(#(lambda^(lambda^(lambda^(lambda^(logo_forLoop^$2^(lambda^(lambda^(logo_GETSET^(lambda^(#(lambda^(lambda^(lambda^(logo_forLoop^$2^(lambda^(lambda^(logo_FWRT^$2^$3^$0)))))))^$4^(logo_DIVA^logo_UA^$6)^(logo_MULL^logo_UL^$2)^$0))^$0)))^$0)))))^$1^5^$1^$0))) 0.0384615
with #(lambda^(lambda^(#(lambda^(lambda^(lambda^(lambda^(logo_forLoop^$2^(lambda^(lambda^(logo_GETSET^(lambda^(#(lambda^(lambda^(lambda^(logo_forLoop^$2^(lambda^(lambda^(logo_FWRT^$2^$3^$0)))))))^$4^(logo_DIVA^logo_UA^$6)^(logo_MULL^logo_UL^$2)^$0))^$0)))^$0)))))^$1^5^$1^$0))) 0.0384615
and #(lambda^(lambda^(#(lambda^(lambda^(lambda^(lambda^(logo_forLoop^$2^(lambda^(lambda^(logo_GETSET^(lambda^(#(lambda^(lambda^(lambda^(logo_forLoop^$2^(lambda^(lambda^(logo_FWRT^$2^$3^$0)))))))^$4^(logo_DIVA^logo_UA^$6)^(logo_MULL^logo_UL^$2)^$0))^$0)))^$0)))))^$1^5^$1^$0))) 0.1153846
short #(lambda^(lambda^(#(lambda^(lambda^(lambda^(lambda^(logo_forLoop^$2^(lambda^(lambda^(logo_GETSET^(lambda^(#(lambda^(lambda^(lambda^(logo_forLoop^$2^(lambda^(lambda^(logo_FWRT^$2^$3^$0)))))))^$4^(logo_DIVA^logo_UA^$6)^(logo_MULL^logo_UL^$2)^$0))^$0)))^$0)))))^$1^5^$1^$0))) 0.1153846
snowflake #(lambda^(lambda^(#(lambda^(lambda^(lambda^(lambda^(logo_forLoop^$2^(lambda^(lambda^(logo_GETSET^(lambda^(#(lambda^(lambda^(lambda^(logo_forLoop^$2^(lambda^(lambda^(logo_FWRT^$2^$3^$0)))))))^$4^(logo_DIVA^logo_UA^$6)^(logo_MULL^logo_UL^$2)^$0))^$0)))^$0)))))^$1^5^$1^$0))) 0.0384615
sided #(lambda^(lambda^(#(lambda^(lambda^(lambda^(lambda^(logo_forLoop^$2^(lambda^(lambda^(logo_GETSET^(lambda^(#(lambda^(lambda^(lambda^(logo_forLoop^$2^(lambda^(lambda^(logo_FWRT^$2^$3^$0)))))))^$4^(logo_DIVA^logo_UA^$6)^(logo_MULL^logo_UL^$2)^$0))^$0)))^$0)))))^$1^5^$1^$0))) 0.0384615
5 #(lambda^(lambda^(#(lambda^(lambda^(lambda^(lambda^(logo_forLoop^$2^(lambda^(lambda^(logo_GETSET^(lambda^(#(lambda^(lambda^(lambda^(logo_forLoop^$2^(lambda^(lambda^(logo_FWRT^$2^$3^$0)))))))^$4^(logo_DIVA^logo_UA^$6)^(logo_MULL^logo_UL^$2)^$0))^$0)))^$0)))))^$1^5^$1^$0))) 0.0384615
line #(lambda^(lambda^(#(lambda^(lambda^(lambda^(lambda^(logo_forLoop^$2^(lambda^(lambda^(logo_GETSET^(lambda^(#(lambda^(lambda^(lambda^(logo_forLoop^$2^(lambda^(lambda^(logo_FWRT^$2^$3^$0)))))))^$4^(logo_DIVA^logo_UA^$6)^(logo_MULL^logo_UL^$2)^$0))^$0)))^$0)))))^$1^5^$1^$0))) 0.0384615
concentric #(lambda^(lambda^(#(lambda^(lambda^(lambda^(lambda^(logo_forLoop^$2^(lambda^(lambda^(logo_GETSET^(lambda^(#(lambda^(lambda^(lambda^(logo_forLoop^$2^(lambda^(lambda^(logo_FWRT^$2^$3^$0)))))))^$4^(logo_DIVA^logo_UA^$6)^(logo_MULL^logo_UL^$2)^$0))^$0)))^$0)))))^$1^5^$1^$0))) 0.1153846
s #(lambda^(lambda^(#(lambda^(lambda^(lambda^(lambda^(logo_forLoop^$2^(lambda^(lambda^(logo_GETSET^(lambda^(#(lambda^(lambda^(lambda^(logo_forLoop^$2^(lambda^(lambda^(logo_FWRT^$2^$3^$0)))))))^$4^(logo_DIVA^logo_UA^$6)^(logo_MULL^logo_UL^$2)^$0))^$0)))^$0)))))^$1^5^$1^$0))) 0.1153846
space #(lambda^(lambda^(#(lambda^(lambda^(lambda^(lambda^(logo_forLoop^$2^(lambda^(lambda^(logo_GETSET^(lambda^(#(lambda^(lambda^(lambda^(logo_forLoop^$2^(lambda^(lambda^(logo_FWRT^$2^$3^$0)))))))^$4^(logo_DIVA^logo_UA^$6)^(logo_MULL^logo_UL^$2)^$0))^$0)))^$0)))))^$1^5^$1^$0))) 0.0384615
a #(lambda^(lambda^(#(lambda^(lambda^(lambda^(lambda^(logo_forLoop^$2^(lambda^(lambda^(logo_GETSET^(lambda^(#(lambda^(lambda^(lambda^(logo_forLoop^$2^(lambda^(lambda^(logo_FWRT^$2^$3^$0)))))))^$4^(logo_DIVA^logo_UA^$6)^(logo_MULL^logo_UL^$2)^$0))^$0)))^$0)))))^$1^5^$1^$0))) 0.1923077
sided #(lambda^(lambda^(#(lambda^(lambda^(lambda^(#(lambda^(lambda^(#(lambda^(logo_forLoop^9^(lambda^($1^(#(lambda^(lambda^(lambda^(logo_forLoop^$2^(lambda^(lambda^(logo_FWRT^$2^$3^$0)))))))^5^logo_epsA^logo_ZL)))))^(lambda^(lambda^(#(lambda^(lambda^(lambda^(lambda^(logo_FWRT^$2^(logo_DIVA^logo_UA^$1)^($3^$0))))))^$2^logo_ZL^$3^$0))))))^$0^(lambda^(logo_GETSET^(lambda^(#(lambda^(logo_PT^(lambda^(#(lambda^(logo_forLoop^$0^(lambda^(lambda^(#(lambda^(#(lambda^(lambda^(lambda^(logo_forLoop^$2^(lambda^(lambda^(logo_FWRT^$2^$3^$0)))))))^$0^(logo_DIVA^logo_UA^5)^logo_UL))^5^(logo_FWRT^logo_UL^logo_UA^$0))))))^$1^$0))))^$3^($4^$0)))^$0))))))^(lambda^(#(lambda^(lambda^(#(lambda^(lambda^(lambda^(#(lambda^(lambda^(lambda^(logo_forLoop^$2^(lambda^(lambda^(logo_FWRT^$2^$3^$0)))))))^$2^(logo_DIVA^logo_UA^$1)^logo_UL^$0))))^$1^$1^$0)))^$2^($1^$0)))))) 0.0158730
5 #(lambda^(lambda^(#(lambda^(lambda^(lambda^(#(lambda^(lambda^(#(lambda^(logo_forLoop^9^(lambda^($1^(#(lambda^(lambda^(lambda^(logo_forLoop^$2^(lambda^(lambda^(logo_FWRT^$2^$3^$0)))))))^5^logo_epsA^logo_ZL)))))^(lambda^(lambda^(#(lambda^(lambda^(lambda^(lambda^(logo_FWRT^$2^(logo_DIVA^logo_UA^$1)^($3^$0))))))^$2^logo_ZL^$3^$0))))))^$0^(lambda^(logo_GETSET^(lambda^(#(lambda^(logo_PT^(lambda^(#(lambda^(logo_forLoop^$0^(lambda^(lambda^(#(lambda^(#(lambda^(lambda^(lambda^(logo_forLoop^$2^(lambda^(lambda^(logo_FWRT^$2^$3^$0)))))))^$0^(logo_DIVA^logo_UA^5)^logo_UL))^5^(logo_FWRT^logo_UL^logo_UA^$0))))))^$1^$0))))^$3^($4^$0)))^$0))))))^(lambda^(#(lambda^(lambda^(#(lambda^(lambda^(lambda^(#(lambda^(lambda^(lambda^(logo_forLoop^$2^(lambda^(lambda^(logo_FWRT^$2^$3^$0)))))))^$2^(logo_DIVA^logo_UA^$1)^logo_UL^$0))))^$1^$1^$0)))^$2^($1^$0)))))) 0.0158730
a #(lambda^(lambda^(#(lambda^(lambda^(lambda^(#(lambda^(lambda^(#(lambda^(logo_forLoop^9^(lambda^($1^(#(lambda^(lambda^(lambda^(logo_forLoop^$2^(lambda^(lambda^(logo_FWRT^$2^$3^$0)))))))^5^logo_epsA^logo_ZL)))))^(lambda^(lambda^(#(lambda^(lambda^(lambda^(lambda^(logo_FWRT^$2^(logo_DIVA^logo_UA^$1)^($3^$0))))))^$2^logo_ZL^$3^$0))))))^$0^(lambda^(logo_GETSET^(lambda^(#(lambda^(logo_PT^(lambda^(#(lambda^(logo_forLoop^$0^(lambda^(lambda^(#(lambda^(#(lambda^(lambda^(lambda^(logo_forLoop^$2^(lambda^(lambda^(logo_FWRT^$2^$3^$0)))))))^$0^(logo_DIVA^logo_UA^5)^logo_UL))^5^(logo_FWRT^logo_UL^logo_UA^$0))))))^$1^$0))))^$3^($4^$0)))^$0))))))^(lambda^(#(lambda^(lambda^(#(lambda^(lambda^(lambda^(#(lambda^(lambda^(lambda^(logo_forLoop^$2^(lambda^(lambda^(logo_FWRT^$2^$3^$0)))))))^$2^(logo_DIVA^logo_UA^$1)^logo_UL^$0))))^$1^$1^$0)))^$2^($1^$0)))))) 0.0793651
space #(lambda^(lambda^(#(lambda^(lambda^(lambda^(#(lambda^(lambda^(#(lambda^(logo_forLoop^9^(lambda^($1^(#(lambda^(lambda^(lambda^(logo_forLoop^$2^(lambda^(lambda^(logo_FWRT^$2^$3^$0)))))))^5^logo_epsA^logo_ZL)))))^(lambda^(lambda^(#(lambda^(lambda^(lambda^(lambda^(logo_FWRT^$2^(logo_DIVA^logo_UA^$1)^($3^$0))))))^$2^logo_ZL^$3^$0))))))^$0^(lambda^(logo_GETSET^(lambda^(#(lambda^(logo_PT^(lambda^(#(lambda^(logo_forLoop^$0^(lambda^(lambda^(#(lambda^(#(lambda^(lambda^(lambda^(logo_forLoop^$2^(lambda^(lambda^(logo_FWRT^$2^$3^$0)))))))^$0^(logo_DIVA^logo_UA^5)^logo_UL))^5^(logo_FWRT^logo_UL^logo_UA^$0))))))^$1^$0))))^$3^($4^$0)))^$0))))))^(lambda^(#(lambda^(lambda^(#(lambda^(lambda^(lambda^(#(lambda^(lambda^(lambda^(logo_forLoop^$2^(lambda^(lambda^(logo_FWRT^$2^$3^$0)))))))^$2^(logo_DIVA^logo_UA^$1)^logo_UL^$0))))^$1^$1^$0)))^$2^($1^$0)))))) 0.0158730
line #(lambda^(lambda^(#(lambda^(lambda^(lambda^(#(lambda^(lambda^(#(lambda^(logo_forLoop^9^(lambda^($1^(#(lambda^(lambda^(lambda^(logo_forLoop^$2^(lambda^(lambda^(logo_FWRT^$2^$3^$0)))))))^5^logo_epsA^logo_ZL)))))^(lambda^(lambda^(#(lambda^(lambda^(lambda^(lambda^(logo_FWRT^$2^(logo_DIVA^logo_UA^$1)^($3^$0))))))^$2^logo_ZL^$3^$0))))))^$0^(lambda^(logo_GETSET^(lambda^(#(lambda^(logo_PT^(lambda^(#(lambda^(logo_forLoop^$0^(lambda^(lambda^(#(lambda^(#(lambda^(lambda^(lambda^(logo_forLoop^$2^(lambda^(lambda^(logo_FWRT^$2^$3^$0)))))))^$0^(logo_DIVA^logo_UA^5)^logo_UL))^5^(logo_FWRT^logo_UL^logo_UA^$0))))))^$1^$0))))^$3^($4^$0)))^$0))))))^(lambda^(#(lambda^(lambda^(#(lambda^(lambda^(lambda^(#(lambda^(lambda^(lambda^(logo_forLoop^$2^(lambda^(lambda^(logo_FWRT^$2^$3^$0)))))))^$2^(logo_DIVA^logo_UA^$1)^logo_UL^$0))))^$1^$1^$0)))^$2^($1^$0)))))) 0.0158730
arms #(lambda^(lambda^(#(lambda^(lambda^(lambda^(#(lambda^(lambda^(#(lambda^(logo_forLoop^9^(lambda^($1^(#(lambda^(lambda^(lambda^(logo_forLoop^$2^(lambda^(lambda^(logo_FWRT^$2^$3^$0)))))))^5^logo_epsA^logo_ZL)))))^(lambda^(lambda^(#(lambda^(lambda^(lambda^(lambda^(logo_FWRT^$2^(logo_DIVA^logo_UA^$1)^($3^$0))))))^$2^logo_ZL^$3^$0))))))^$0^(lambda^(logo_GETSET^(lambda^(#(lambda^(logo_PT^(lambda^(#(lambda^(logo_forLoop^$0^(lambda^(lambda^(#(lambda^(#(lambda^(lambda^(lambda^(logo_forLoop^$2^(lambda^(lambda^(logo_FWRT^$2^$3^$0)))))))^$0^(logo_DIVA^logo_UA^5)^logo_UL))^5^(logo_FWRT^logo_UL^logo_UA^$0))))))^$1^$0))))^$3^($4^$0)))^$0))))))^(lambda^(#(lambda^(lambda^(#(lambda^(lambda^(lambda^(#(lambda^(lambda^(lambda^(logo_forLoop^$2^(lambda^(lambda^(logo_FWRT^$2^$3^$0)))))))^$2^(logo_DIVA^logo_UA^$1)^logo_UL^$0))))^$1^$1^$0)))^$2^($1^$0)))))) 0.3650794
next #(lambda^(lambda^(#(lambda^(lambda^(lambda^(#(lambda^(lambda^(#(lambda^(logo_forLoop^9^(lambda^($1^(#(lambda^(lambda^(lambda^(logo_forLoop^$2^(lambda^(lambda^(logo_FWRT^$2^$3^$0)))))))^5^logo_epsA^logo_ZL)))))^(lambda^(lambda^(#(lambda^(lambda^(lambda^(lambda^(logo_FWRT^$2^(logo_DIVA^logo_UA^$1)^($3^$0))))))^$2^logo_ZL^$3^$0))))))^$0^(lambda^(logo_GETSET^(lambda^(#(lambda^(logo_PT^(lambda^(#(lambda^(logo_forLoop^$0^(lambda^(lambda^(#(lambda^(#(lambda^(lambda^(lambda^(logo_forLoop^$2^(lambda^(lambda^(logo_FWRT^$2^$3^$0)))))))^$0^(logo_DIVA^logo_UA^5)^logo_UL))^5^(logo_FWRT^logo_UL^logo_UA^$0))))))^$1^$0))))^$3^($4^$0)))^$0))))))^(lambda^(#(lambda^(lambda^(#(lambda^(lambda^(lambda^(#(lambda^(lambda^(lambda^(logo_forLoop^$2^(lambda^(lambda^(logo_FWRT^$2^$3^$0)))))))^$2^(logo_DIVA^logo_UA^$1)^logo_UL^$0))))^$1^$1^$0)))^$2^($1^$0)))))) 0.0079365
as #(lambda^(lambda^(#(lambda^(lambda^(lambda^(#(lambda^(lambda^(#(lambda^(logo_forLoop^9^(lambda^($1^(#(lambda^(lambda^(lambda^(logo_forLoop^$2^(lambda^(lambda^(logo_FWRT^$2^$3^$0)))))))^5^logo_epsA^logo_ZL)))))^(lambda^(lambda^(#(lambda^(lambda^(lambda^(lambda^(logo_FWRT^$2^(logo_DIVA^logo_UA^$1)^($3^$0))))))^$2^logo_ZL^$3^$0))))))^$0^(lambda^(logo_GETSET^(lambda^(#(lambda^(logo_PT^(lambda^(#(lambda^(logo_forLoop^$0^(lambda^(lambda^(#(lambda^(#(lambda^(lambda^(lambda^(logo_forLoop^$2^(lambda^(lambda^(logo_FWRT^$2^$3^$0)))))))^$0^(logo_DIVA^logo_UA^5)^logo_UL))^5^(logo_FWRT^logo_UL^logo_UA^$0))))))^$1^$0))))^$3^($4^$0)))^$0))))))^(lambda^(#(lambda^(lambda^(#(lambda^(lambda^(lambda^(#(lambda^(lambda^(lambda^(logo_forLoop^$2^(lambda^(lambda^(logo_FWRT^$2^$3^$0)))))))^$2^(logo_DIVA^logo_UA^$1)^logo_UL^$0))))^$1^$1^$0)))^$2^($1^$0)))))) 0.3412698
and #(lambda^(lambda^(#(lambda^(lambda^(lambda^(#(lambda^(lambda^(#(lambda^(logo_forLoop^9^(lambda^($1^(#(lambda^(lambda^(lambda^(logo_forLoop^$2^(lambda^(lambda^(logo_FWRT^$2^$3^$0)))))))^5^logo_epsA^logo_ZL)))))^(lambda^(lambda^(#(lambda^(lambda^(lambda^(lambda^(logo_FWRT^$2^(logo_DIVA^logo_UA^$1)^($3^$0))))))^$2^logo_ZL^$3^$0))))))^$0^(lambda^(logo_GETSET^(lambda^(#(lambda^(logo_PT^(lambda^(#(lambda^(logo_forLoop^$0^(lambda^(lambda^(#(lambda^(#(lambda^(lambda^(lambda^(logo_forLoop^$2^(lambda^(lambda^(logo_FWRT^$2^$3^$0)))))))^$0^(logo_DIVA^logo_UA^5)^logo_UL))^5^(logo_FWRT^logo_UL^logo_UA^$0))))))^$1^$0))))^$3^($4^$0)))^$0))))))^(lambda^(#(lambda^(lambda^(#(lambda^(lambda^(lambda^(#(lambda^(lambda^(lambda^(logo_forLoop^$2^(lambda^(lambda^(logo_FWRT^$2^$3^$0)))))))^$2^(logo_DIVA^logo_UA^$1)^logo_UL^$0))))^$1^$1^$0)))^$2^($1^$0)))))) 0.0476190
short #(lambda^(lambda^(#(lambda^(lambda^(lambda^(#(lambda^(lambda^(#(lambda^(logo_forLoop^9^(lambda^($1^(#(lambda^(lambda^(lambda^(logo_forLoop^$2^(lambda^(lambda^(logo_FWRT^$2^$3^$0)))))))^5^logo_epsA^logo_ZL)))))^(lambda^(lambda^(#(lambda^(lambda^(lambda^(lambda^(logo_FWRT^$2^(logo_DIVA^logo_UA^$1)^($3^$0))))))^$2^logo_ZL^$3^$0))))))^$0^(lambda^(logo_GETSET^(lambda^(#(lambda^(logo_PT^(lambda^(#(lambda^(logo_forLoop^$0^(lambda^(lambda^(#(lambda^(#(lambda^(lambda^(lambda^(logo_forLoop^$2^(lambda^(lambda^(logo_FWRT^$2^$3^$0)))))))^$0^(logo_DIVA^logo_UA^5)^logo_UL))^5^(logo_FWRT^logo_UL^logo_UA^$0))))))^$1^$0))))^$3^($4^$0)))^$0))))))^(lambda^(#(lambda^(lambda^(#(lambda^(lambda^(lambda^(#(lambda^(lambda^(lambda^(logo_forLoop^$2^(lambda^(lambda^(logo_FWRT^$2^$3^$0)))))))^$2^(logo_DIVA^logo_UA^$1)^logo_UL^$0))))^$1^$1^$0)))^$2^($1^$0)))))) 0.0476190
snowflake #(lambda^(lambda^(#(lambda^(lambda^(lambda^(#(lambda^(lambda^(#(lambda^(logo_forLoop^9^(lambda^($1^(#(lambda^(lambda^(lambda^(logo_forLoop^$2^(lambda^(lambda^(logo_FWRT^$2^$3^$0)))))))^5^logo_epsA^logo_ZL)))))^(lambda^(lambda^(#(lambda^(lambda^(lambda^(lambda^(logo_FWRT^$2^(logo_DIVA^logo_UA^$1)^($3^$0))))))^$2^logo_ZL^$3^$0))))))^$0^(lambda^(logo_GETSET^(lambda^(#(lambda^(logo_PT^(lambda^(#(lambda^(logo_forLoop^$0^(lambda^(lambda^(#(lambda^(#(lambda^(lambda^(lambda^(logo_forLoop^$2^(lambda^(lambda^(logo_FWRT^$2^$3^$0)))))))^$0^(logo_DIVA^logo_UA^5)^logo_UL))^5^(logo_FWRT^logo_UL^logo_UA^$0))))))^$1^$0))))^$3^($4^$0)))^$0))))))^(lambda^(#(lambda^(lambda^(#(lambda^(lambda^(lambda^(#(lambda^(lambda^(lambda^(logo_forLoop^$2^(lambda^(lambda^(logo_FWRT^$2^$3^$0)))))))^$2^(logo_DIVA^logo_UA^$1)^logo_UL^$0))))^$1^$1^$0)))^$2^($1^$0)))))) 0.0158730
with #(lambda^(lambda^(#(lambda^(lambda^(lambda^(#(lambda^(lambda^(#(lambda^(logo_forLoop^9^(lambda^($1^(#(lambda^(lambda^(lambda^(logo_forLoop^$2^(lambda^(lambda^(logo_FWRT^$2^$3^$0)))))))^5^logo_epsA^logo_ZL)))))^(lambda^(lambda^(#(lambda^(lambda^(lambda^(lambda^(logo_FWRT^$2^(logo_DIVA^logo_UA^$1)^($3^$0))))))^$2^logo_ZL^$3^$0))))))^$0^(lambda^(logo_GETSET^(lambda^(#(lambda^(logo_PT^(lambda^(#(lambda^(logo_forLoop^$0^(lambda^(lambda^(#(lambda^(#(lambda^(lambda^(lambda^(logo_forLoop^$2^(lambda^(lambda^(logo_FWRT^$2^$3^$0)))))))^$0^(logo_DIVA^logo_UA^5)^logo_UL))^5^(logo_FWRT^logo_UL^logo_UA^$0))))))^$1^$0))))^$3^($4^$0)))^$0))))))^(lambda^(#(lambda^(lambda^(#(lambda^(lambda^(lambda^(#(lambda^(lambda^(lambda^(logo_forLoop^$2^(lambda^(lambda^(logo_FWRT^$2^$3^$0)))))))^$2^(logo_DIVA^logo_UA^$1)^logo_UL^$0))))^$1^$1^$0)))^$2^($1^$0)))))) 0.0158730
small #(lambda^(lambda^(#(lambda^(lambda^(lambda^(#(lambda^(lambda^(#(lambda^(logo_forLoop^9^(lambda^($1^(#(lambda^(lambda^(lambda^(logo_forLoop^$2^(lambda^(lambda^(logo_FWRT^$2^$3^$0)))))))^5^logo_epsA^logo_ZL)))))^(lambda^(lambda^(#(lambda^(lambda^(lambda^(lambda^(logo_FWRT^$2^(logo_DIVA^logo_UA^$1)^($3^$0))))))^$2^logo_ZL^$3^$0))))))^$0^(lambda^(logo_GETSET^(lambda^(#(lambda^(logo_PT^(lambda^(#(lambda^(logo_forLoop^$0^(lambda^(lambda^(#(lambda^(#(lambda^(lambda^(lambda^(logo_forLoop^$2^(lambda^(lambda^(logo_FWRT^$2^$3^$0)))))))^$0^(logo_DIVA^logo_UA^5)^logo_UL))^5^(logo_FWRT^logo_UL^logo_UA^$0))))))^$1^$0))))^$3^($4^$0)))^$0))))))^(lambda^(#(lambda^(lambda^(#(lambda^(lambda^(lambda^(#(lambda^(lambda^(lambda^(logo_forLoop^$2^(lambda^(lambda^(logo_FWRT^$2^$3^$0)))))))^$2^(logo_DIVA^logo_UA^$1)^logo_UL^$0))))^$1^$1^$0)))^$2^($1^$0)))))) 0.0158730
big #(lambda^(logo_PT^(lambda^(#(lambda^(logo_forLoop^$0^(lambda^(lambda^(#(lambda^(#(lambda^(lambda^(lambda^(logo_forLoop^$2^(lambda^(lambda^(logo_FWRT^$2^$3^$0)))))))^$0^(logo_DIVA^logo_UA^5)^logo_UL))^5^(logo_FWRT^logo_UL^logo_UA^$0))))))^$1^$0)))) 0.0833333
sided #(lambda^(logo_PT^(lambda^(#(lambda^(logo_forLoop^$0^(lambda^(lambda^(#(lambda^(#(lambda^(lambda^(lambda^(logo_forLoop^$2^(lambda^(lambda^(logo_FWRT^$2^$3^$0)))))))^$0^(logo_DIVA^logo_UA^5)^logo_UL))^5^(logo_FWRT^logo_UL^logo_UA^$0))))))^$1^$0)))) 0.0092593
5 #(lambda^(logo_PT^(lambda^(#(lambda^(logo_forLoop^$0^(lambda^(lambda^(#(lambda^(#(lambda^(lambda^(lambda^(logo_forLoop^$2^(lambda^(lambda^(logo_FWRT^$2^$3^$0)))))))^$0^(logo_DIVA^logo_UA^5)^logo_UL))^5^(logo_FWRT^logo_UL^logo_UA^$0))))))^$1^$0)))) 0.0092593
a #(lambda^(logo_PT^(lambda^(#(lambda^(logo_forLoop^$0^(lambda^(lambda^(#(lambda^(#(lambda^(lambda^(lambda^(logo_forLoop^$2^(lambda^(lambda^(logo_FWRT^$2^$3^$0)))))))^$0^(logo_DIVA^logo_UA^5)^logo_UL))^5^(logo_FWRT^logo_UL^logo_UA^$0))))))^$1^$0)))) 0.0277778
s #(lambda^(logo_PT^(lambda^(#(lambda^(logo_forLoop^$0^(lambda^(lambda^(#(lambda^(#(lambda^(lambda^(lambda^(logo_forLoop^$2^(lambda^(lambda^(logo_FWRT^$2^$3^$0)))))))^$0^(logo_DIVA^logo_UA^5)^logo_UL))^5^(logo_FWRT^logo_UL^logo_UA^$0))))))^$1^$0)))) 0.0601852
space #(lambda^(logo_PT^(lambda^(#(lambda^(logo_forLoop^$0^(lambda^(lambda^(#(lambda^(#(lambda^(lambda^(lambda^(logo_forLoop^$2^(lambda^(lambda^(logo_FWRT^$2^$3^$0)))))))^$0^(logo_DIVA^logo_UA^5)^logo_UL))^5^(logo_FWRT^logo_UL^logo_UA^$0))))))^$1^$0)))) 0.1018519
snowflake #(lambda^(logo_PT^(lambda^(#(lambda^(logo_forLoop^$0^(lambda^(lambda^(#(lambda^(#(lambda^(lambda^(lambda^(logo_forLoop^$2^(lambda^(lambda^(logo_FWRT^$2^$3^$0)))))))^$0^(logo_DIVA^logo_UA^5)^logo_UL))^5^(logo_FWRT^logo_UL^logo_UA^$0))))))^$1^$0)))) 0.0092593
short #(lambda^(logo_PT^(lambda^(#(lambda^(logo_forLoop^$0^(lambda^(lambda^(#(lambda^(#(lambda^(lambda^(lambda^(logo_forLoop^$2^(lambda^(lambda^(logo_FWRT^$2^$3^$0)))))))^$0^(logo_DIVA^logo_UA^5)^logo_UL))^5^(logo_FWRT^logo_UL^logo_UA^$0))))))^$1^$0)))) 0.0277778
separated #(lambda^(logo_PT^(lambda^(#(lambda^(logo_forLoop^$0^(lambda^(lambda^(#(lambda^(#(lambda^(lambda^(lambda^(logo_forLoop^$2^(lambda^(lambda^(logo_FWRT^$2^$3^$0)))))))^$0^(logo_DIVA^logo_UA^5)^logo_UL))^5^(logo_FWRT^logo_UL^logo_UA^$0))))))^$1^$0)))) 0.0833333
from #(lambda^(logo_PT^(lambda^(#(lambda^(logo_forLoop^$0^(lambda^(lambda^(#(lambda^(#(lambda^(lambda^(lambda^(logo_forLoop^$2^(lambda^(lambda^(logo_FWRT^$2^$3^$0)))))))^$0^(logo_DIVA^logo_UA^5)^logo_UL))^5^(logo_FWRT^logo_UL^logo_UA^$0))))))^$1^$0)))) 0.0833333
circle #(lambda^(logo_PT^(lambda^(#(lambda^(logo_forLoop^$0^(lambda^(lambda^(#(lambda^(#(lambda^(lambda^(lambda^(logo_forLoop^$2^(lambda^(lambda^(logo_FWRT^$2^$3^$0)))))))^$0^(logo_DIVA^logo_UA^5)^logo_UL))^5^(logo_FWRT^logo_UL^logo_UA^$0))))))^$1^$0)))) 0.1018519
medium #(lambda^(logo_PT^(lambda^(#(lambda^(logo_forLoop^$0^(lambda^(lambda^(#(lambda^(#(lambda^(lambda^(lambda^(logo_forLoop^$2^(lambda^(lambda^(logo_FWRT^$2^$3^$0)))))))^$0^(logo_DIVA^logo_UA^5)^logo_UL))^5^(logo_FWRT^logo_UL^logo_UA^$0))))))^$1^$0)))) 0.0370370
line #(lambda^(logo_PT^(lambda^(#(lambda^(logo_forLoop^$0^(lambda^(lambda^(#(lambda^(#(lambda^(lambda^(lambda^(logo_forLoop^$2^(lambda^(lambda^(logo_FWRT^$2^$3^$0)))))))^$0^(logo_DIVA^logo_UA^5)^logo_UL))^5^(logo_FWRT^logo_UL^logo_UA^$0))))))^$1^$0)))) 0.0787037
semicircle #(lambda^(logo_PT^(lambda^(#(lambda^(logo_forLoop^$0^(lambda^(lambda^(#(lambda^(#(lambda^(lambda^(lambda^(logo_forLoop^$2^(lambda^(lambda^(logo_FWRT^$2^$3^$0)))))))^$0^(logo_DIVA^logo_UA^5)^logo_UL))^5^(logo_FWRT^logo_UL^logo_UA^$0))))))^$1^$0)))) 0.0740741
next #(lambda^(logo_PT^(lambda^(#(lambda^(logo_forLoop^$0^(lambda^(lambda^(#(lambda^(#(lambda^(lambda^(lambda^(logo_forLoop^$2^(lambda^(lambda^(logo_FWRT^$2^$3^$0)))))))^$0^(logo_DIVA^logo_UA^5)^logo_UL))^5^(logo_FWRT^logo_UL^logo_UA^$0))))))^$1^$0)))) 0.0509259
arms #(lambda^(logo_PT^(lambda^(#(lambda^(logo_forLoop^$0^(lambda^(lambda^(#(lambda^(#(lambda^(lambda^(lambda^(logo_forLoop^$2^(lambda^(lambda^(logo_FWRT^$2^$3^$0)))))))^$0^(logo_DIVA^logo_UA^5)^logo_UL))^5^(logo_FWRT^logo_UL^logo_UA^$0))))))^$1^$0)))) 0.0092593
NULL #(lambda^(logo_PT^(lambda^(#(lambda^(logo_forLoop^$0^(lambda^(lambda^(#(lambda^(#(lambda^(lambda^(lambda^(logo_forLoop^$2^(lambda^(lambda^(logo_FWRT^$2^$3^$0)))))))^$0^(logo_DIVA^logo_UA^5)^logo_UL))^5^(logo_FWRT^logo_UL^logo_UA^$0))))))^$1^$0)))) 0.0046296
as #(lambda^(logo_PT^(lambda^(#(lambda^(logo_forLoop^$0^(lambda^(lambda^(#(lambda^(#(lambda^(lambda^(lambda^(logo_forLoop^$2^(lambda^(lambda^(logo_FWRT^$2^$3^$0)))))))^$0^(logo_DIVA^logo_UA^5)^logo_UL))^5^(logo_FWRT^logo_UL^logo_UA^$0))))))^$1^$0)))) 0.0092593
and #(lambda^(logo_PT^(lambda^(#(lambda^(logo_forLoop^$0^(lambda^(lambda^(#(lambda^(#(lambda^(lambda^(lambda^(logo_forLoop^$2^(lambda^(lambda^(logo_FWRT^$2^$3^$0)))))))^$0^(logo_DIVA^logo_UA^5)^logo_UL))^5^(logo_FWRT^logo_UL^logo_UA^$0))))))^$1^$0)))) 0.0185185
4 #(lambda^(logo_PT^(lambda^(#(lambda^(logo_forLoop^$0^(lambda^(lambda^(#(lambda^(#(lambda^(lambda^(lambda^(logo_forLoop^$2^(lambda^(lambda^(logo_FWRT^$2^$3^$0)))))))^$0^(logo_DIVA^logo_UA^5)^logo_UL))^5^(logo_FWRT^logo_UL^logo_UA^$0))))))^$1^$0)))) 0.0092593
staircase #(lambda^(logo_PT^(lambda^(#(lambda^(logo_forLoop^$0^(lambda^(lambda^(#(lambda^(#(lambda^(lambda^(lambda^(logo_forLoop^$2^(lambda^(lambda^(logo_FWRT^$2^$3^$0)))))))^$0^(logo_DIVA^logo_UA^5)^logo_UL))^5^(logo_FWRT^logo_UL^logo_UA^$0))))))^$1^$0)))) 0.0092593
by #(lambda^(logo_PT^(lambda^(#(lambda^(logo_forLoop^$0^(lambda^(lambda^(#(lambda^(#(lambda^(lambda^(lambda^(logo_forLoop^$2^(lambda^(lambda^(logo_FWRT^$2^$3^$0)))))))^$0^(logo_DIVA^logo_UA^5)^logo_UL))^5^(logo_FWRT^logo_UL^logo_UA^$0))))))^$1^$0)))) 0.0833333
with #(lambda^(logo_PT^(lambda^(#(lambda^(logo_forLoop^$0^(lambda^(lambda^(#(lambda^(#(lambda^(lambda^(lambda^(logo_forLoop^$2^(lambda^(lambda^(logo_FWRT^$2^$3^$0)))))))^$0^(logo_DIVA^logo_UA^5)^logo_UL))^5^(logo_FWRT^logo_UL^logo_UA^$0))))))^$1^$0)))) 0.0092593
small #(lambda^(logo_PT^(lambda^(#(lambda^(logo_forLoop^$0^(lambda^(lambda^(#(lambda^(#(lambda^(lambda^(lambda^(logo_forLoop^$2^(lambda^(lambda^(logo_FWRT^$2^$3^$0)))))))^$0^(logo_DIVA^logo_UA^5)^logo_UL))^5^(logo_FWRT^logo_UL^logo_UA^$0))))))^$1^$0)))) 0.0092593
a #(lambda^(lambda^(lambda^(#(lambda^(lambda^(lambda^(lambda^(#(lambda^(lambda^(lambda^(lambda^(#(lambda^(lambda^(lambda^(lambda^(#(lambda^(lambda^(lambda^(lambda^(#(lambda^(lambda^(lambda^(lambda^(#(lambda^(lambda^(lambda^(#(lambda^(lambda^(lambda^(lambda^(logo_forLoop^$2^(lambda^(lambda^($3^(lambda^($6^$2^(#(#(lambda^(lambda^(lambda^(logo_forLoop^$2^(lambda^(lambda^(logo_FWRT^$2^$3^$0)))))))^logo_IFTY^logo_epsA)^(logo_MULL^logo_epsL^2)^$0)))^$0)))^$0)))))^(lambda^(lambda^($2^$1^$0)))^$1^(lambda^(lambda^($4^(lambda^($2^$0))^$0)))))))^(lambda^(lambda^($4^(lambda^($2^$0))^$0)))^$1^(lambda^(lambda^($5^$1^$0)))^$0)))))^(lambda^(lambda^($4^$1^$0)))^(lambda^(lambda^($3^(lambda^($2^$0))^$0)))^$3^$0)))))^$3^(lambda^(lambda^($3^$1^$0)))^(lambda^(lambda^($4^(lambda^($2^$0))^$0)))^$0)))))^$3^(lambda^(lambda^($4^(lambda^($2^$0))^$0)))^(lambda^(lambda^($3^$1^$0)))^$0)))))^$3^(lambda^(lambda^($4^(lambda^($2^$0))^$0)))^(lambda^(lambda^($3^$1^$0)))^$0)))))^$2^(lambda^(lambda^($3^(lambda^($2^$0))^$0)))^(lambda^(lambda^(#(lambda^(logo_PT^(lambda^(#(lambda^(logo_forLoop^$0^(lambda^(lambda^(#(lambda^(#(lambda^(lambda^(lambda^(logo_forLoop^$2^(lambda^(lambda^(logo_FWRT^$2^$3^$0)))))))^$0^(logo_DIVA^logo_UA^5)^logo_UL))^5^(logo_FWRT^logo_UL^logo_UA^$0))))))^$1^$0))))^$1^$0)))^$0)))) 0.1030928
space #(lambda^(lambda^(lambda^(#(lambda^(lambda^(lambda^(lambda^(#(lambda^(lambda^(lambda^(lambda^(#(lambda^(lambda^(lambda^(lambda^(#(lambda^(lambda^(lambda^(lambda^(#(lambda^(lambda^(lambda^(lambda^(#(lambda^(lambda^(lambda^(#(lambda^(lambda^(lambda^(lambda^(logo_forLoop^$2^(lambda^(lambda^($3^(lambda^($6^$2^(#(#(lambda^(lambda^(lambda^(logo_forLoop^$2^(lambda^(lambda^(logo_FWRT^$2^$3^$0)))))))^logo_IFTY^logo_epsA)^(logo_MULL^logo_epsL^2)^$0)))^$0)))^$0)))))^(lambda^(lambda^($2^$1^$0)))^$1^(lambda^(lambda^($4^(lambda^($2^$0))^$0)))))))^(lambda^(lambda^($4^(lambda^($2^$0))^$0)))^$1^(lambda^(lambda^($5^$1^$0)))^$0)))))^(lambda^(lambda^($4^$1^$0)))^(lambda^(lambda^($3^(lambda^($2^$0))^$0)))^$3^$0)))))^$3^(lambda^(lambda^($3^$1^$0)))^(lambda^(lambda^($4^(lambda^($2^$0))^$0)))^$0)))))^$3^(lambda^(lambda^($4^(lambda^($2^$0))^$0)))^(lambda^(lambda^($3^$1^$0)))^$0)))))^$3^(lambda^(lambda^($4^(lambda^($2^$0))^$0)))^(lambda^(lambda^($3^$1^$0)))^$0)))))^$2^(lambda^(lambda^($3^(lambda^($2^$0))^$0)))^(lambda^(lambda^(#(lambda^(logo_PT^(lambda^(#(lambda^(logo_forLoop^$0^(lambda^(lambda^(#(lambda^(#(lambda^(lambda^(lambda^(logo_forLoop^$2^(lambda^(lambda^(logo_FWRT^$2^$3^$0)))))))^$0^(logo_DIVA^logo_UA^5)^logo_UL))^5^(logo_FWRT^logo_UL^logo_UA^$0))))))^$1^$0))))^$1^$0)))^$0)))) 0.0206186
s #(lambda^(lambda^(lambda^(#(lambda^(lambda^(lambda^(lambda^(#(lambda^(lambda^(lambda^(lambda^(#(lambda^(lambda^(lambda^(lambda^(#(lambda^(lambda^(lambda^(lambda^(#(lambda^(lambda^(lambda^(lambda^(#(lambda^(lambda^(lambda^(#(lambda^(lambda^(lambda^(lambda^(logo_forLoop^$2^(lambda^(lambda^($3^(lambda^($6^$2^(#(#(lambda^(lambda^(lambda^(logo_forLoop^$2^(lambda^(lambda^(logo_FWRT^$2^$3^$0)))))))^logo_IFTY^logo_epsA)^(logo_MULL^logo_epsL^2)^$0)))^$0)))^$0)))))^(lambda^(lambda^($2^$1^$0)))^$1^(lambda^(lambda^($4^(lambda^($2^$0))^$0)))))))^(lambda^(lambda^($4^(lambda^($2^$0))^$0)))^$1^(lambda^(lambda^($5^$1^$0)))^$0)))))^(lambda^(lambda^($4^$1^$0)))^(lambda^(lambda^($3^(lambda^($2^$0))^$0)))^$3^$0)))))^$3^(lambda^(lambda^($3^$1^$0)))^(lambda^(lambda^($4^(lambda^($2^$0))^$0)))^$0)))))^$3^(lambda^(lambda^($4^(lambda^($2^$0))^$0)))^(lambda^(lambda^($3^$1^$0)))^$0)))))^$3^(lambda^(lambda^($4^(lambda^($2^$0))^$0)))^(lambda^(lambda^($3^$1^$0)))^$0)))))^$2^(lambda^(lambda^($3^(lambda^($2^$0))^$0)))^(lambda^(lambda^(#(lambda^(logo_PT^(lambda^(#(lambda^(logo_forLoop^$0^(lambda^(lambda^(#(lambda^(#(lambda^(lambda^(lambda^(logo_forLoop^$2^(lambda^(lambda^(logo_FWRT^$2^$3^$0)))))))^$0^(logo_DIVA^logo_UA^5)^logo_UL))^5^(logo_FWRT^logo_UL^logo_UA^$0))))))^$1^$0))))^$1^$0)))^$0)))) 0.1134021
sided #(lambda^(lambda^(lambda^(#(lambda^(lambda^(lambda^(lambda^(#(lambda^(lambda^(lambda^(lambda^(#(lambda^(lambda^(lambda^(lambda^(#(lambda^(lambda^(lambda^(lambda^(#(lambda^(lambda^(lambda^(lambda^(#(lambda^(lambda^(lambda^(#(lambda^(lambda^(lambda^(lambda^(logo_forLoop^$2^(lambda^(lambda^($3^(lambda^($6^$2^(#(#(lambda^(lambda^(lambda^(logo_forLoop^$2^(lambda^(lambda^(logo_FWRT^$2^$3^$0)))))))^logo_IFTY^logo_epsA)^(logo_MULL^logo_epsL^2)^$0)))^$0)))^$0)))))^(lambda^(lambda^($2^$1^$0)))^$1^(lambda^(lambda^($4^(lambda^($2^$0))^$0)))))))^(lambda^(lambda^($4^(lambda^($2^$0))^$0)))^$1^(lambda^(lambda^($5^$1^$0)))^$0)))))^(lambda^(lambda^($4^$1^$0)))^(lambda^(lambda^($3^(lambda^($2^$0))^$0)))^$3^$0)))))^$3^(lambda^(lambda^($3^$1^$0)))^(lambda^(lambda^($4^(lambda^($2^$0))^$0)))^$0)))))^$3^(lambda^(lambda^($4^(lambda^($2^$0))^$0)))^(lambda^(lambda^($3^$1^$0)))^$0)))))^$3^(lambda^(lambda^($4^(lambda^($2^$0))^$0)))^(lambda^(lambda^($3^$1^$0)))^$0)))))^$2^(lambda^(lambda^($3^(lambda^($2^$0))^$0)))^(lambda^(lambda^(#(lambda^(logo_PT^(lambda^(#(lambda^(logo_forLoop^$0^(lambda^(lambda^(#(lambda^(#(lambda^(lambda^(lambda^(logo_forLoop^$2^(lambda^(lambda^(logo_FWRT^$2^$3^$0)))))))^$0^(logo_DIVA^logo_UA^5)^logo_UL))^5^(logo_FWRT^logo_UL^logo_UA^$0))))))^$1^$0))))^$1^$0)))^$0)))) 0.0206186
5 #(lambda^(lambda^(lambda^(#(lambda^(lambda^(lambda^(lambda^(#(lambda^(lambda^(lambda^(lambda^(#(lambda^(lambda^(lambda^(lambda^(#(lambda^(lambda^(lambda^(lambda^(#(lambda^(lambda^(lambda^(lambda^(#(lambda^(lambda^(lambda^(#(lambda^(lambda^(lambda^(lambda^(logo_forLoop^$2^(lambda^(lambda^($3^(lambda^($6^$2^(#(#(lambda^(lambda^(lambda^(logo_forLoop^$2^(lambda^(lambda^(logo_FWRT^$2^$3^$0)))))))^logo_IFTY^logo_epsA)^(logo_MULL^logo_epsL^2)^$0)))^$0)))^$0)))))^(lambda^(lambda^($2^$1^$0)))^$1^(lambda^(lambda^($4^(lambda^($2^$0))^$0)))))))^(lambda^(lambda^($4^(lambda^($2^$0))^$0)))^$1^(lambda^(lambda^($5^$1^$0)))^$0)))))^(lambda^(lambda^($4^$1^$0)))^(lambda^(lambda^($3^(lambda^($2^$0))^$0)))^$3^$0)))))^$3^(lambda^(lambda^($3^$1^$0)))^(lambda^(lambda^($4^(lambda^($2^$0))^$0)))^$0)))))^$3^(lambda^(lambda^($4^(lambda^($2^$0))^$0)))^(lambda^(lambda^($3^$1^$0)))^$0)))))^$3^(lambda^(lambda^($4^(lambda^($2^$0))^$0)))^(lambda^(lambda^($3^$1^$0)))^$0)))))^$2^(lambda^(lambda^($3^(lambda^($2^$0))^$0)))^(lambda^(lambda^(#(lambda^(logo_PT^(lambda^(#(lambda^(logo_forLoop^$0^(lambda^(lambda^(#(lambda^(#(lambda^(lambda^(lambda^(logo_forLoop^$2^(lambda^(lambda^(logo_FWRT^$2^$3^$0)))))))^$0^(logo_DIVA^logo_UA^5)^logo_UL))^5^(logo_FWRT^logo_UL^logo_UA^$0))))))^$1^$0))))^$1^$0)))^$0)))) 0.0206186
short #(lambda^(lambda^(lambda^(#(lambda^(lambda^(lambda^(lambda^(#(lambda^(lambda^(lambda^(lambda^(#(lambda^(lambda^(lambda^(lambda^(#(lambda^(lambda^(lambda^(lambda^(#(lambda^(lambda^(lambda^(lambda^(#(lambda^(lambda^(lambda^(#(lambda^(lambda^(lambda^(lambda^(logo_forLoop^$2^(lambda^(lambda^($3^(lambda^($6^$2^(#(#(lambda^(lambda^(lambda^(logo_forLoop^$2^(lambda^(lambda^(logo_FWRT^$2^$3^$0)))))))^logo_IFTY^logo_epsA)^(logo_MULL^logo_epsL^2)^$0)))^$0)))^$0)))))^(lambda^(lambda^($2^$1^$0)))^$1^(lambda^(lambda^($4^(lambda^($2^$0))^$0)))))))^(lambda^(lambda^($4^(lambda^($2^$0))^$0)))^$1^(lambda^(lambda^($5^$1^$0)))^$0)))))^(lambda^(lambda^($4^$1^$0)))^(lambda^(lambda^($3^(lambda^($2^$0))^$0)))^$3^$0)))))^$3^(lambda^(lambda^($3^$1^$0)))^(lambda^(lambda^($4^(lambda^($2^$0))^$0)))^$0)))))^$3^(lambda^(lambda^($4^(lambda^($2^$0))^$0)))^(lambda^(lambda^($3^$1^$0)))^$0)))))^$3^(lambda^(lambda^($4^(lambda^($2^$0))^$0)))^(lambda^(lambda^($3^$1^$0)))^$0)))))^$2^(lambda^(lambda^($3^(lambda^($2^$0))^$0)))^(lambda^(lambda^(#(lambda^(logo_PT^(lambda^(#(lambda^(logo_forLoop^$0^(lambda^(lambda^(#(lambda^(#(lambda^(lambda^(lambda^(logo_forLoop^$2^(lambda^(lambda^(logo_FWRT^$2^$3^$0)))))))^$0^(logo_DIVA^logo_UA^5)^logo_UL))^5^(logo_FWRT^logo_UL^logo_UA^$0))))))^$1^$0))))^$1^$0)))^$0)))) 0.0618557
snowflake #(lambda^(lambda^(lambda^(#(lambda^(lambda^(lambda^(lambda^(#(lambda^(lambda^(lambda^(lambda^(#(lambda^(lambda^(lambda^(lambda^(#(lambda^(lambda^(lambda^(lambda^(#(lambda^(lambda^(lambda^(lambda^(#(lambda^(lambda^(lambda^(#(lambda^(lambda^(lambda^(lambda^(logo_forLoop^$2^(lambda^(lambda^($3^(lambda^($6^$2^(#(#(lambda^(lambda^(lambda^(logo_forLoop^$2^(lambda^(lambda^(logo_FWRT^$2^$3^$0)))))))^logo_IFTY^logo_epsA)^(logo_MULL^logo_epsL^2)^$0)))^$0)))^$0)))))^(lambda^(lambda^($2^$1^$0)))^$1^(lambda^(lambda^($4^(lambda^($2^$0))^$0)))))))^(lambda^(lambda^($4^(lambda^($2^$0))^$0)))^$1^(lambda^(lambda^($5^$1^$0)))^$0)))))^(lambda^(lambda^($4^$1^$0)))^(lambda^(lambda^($3^(lambda^($2^$0))^$0)))^$3^$0)))))^$3^(lambda^(lambda^($3^$1^$0)))^(lambda^(lambda^($4^(lambda^($2^$0))^$0)))^$0)))))^$3^(lambda^(lambda^($4^(lambda^($2^$0))^$0)))^(lambda^(lambda^($3^$1^$0)))^$0)))))^$3^(lambda^(lambda^($4^(lambda^($2^$0))^$0)))^(lambda^(lambda^($3^$1^$0)))^$0)))))^$2^(lambda^(lambda^($3^(lambda^($2^$0))^$0)))^(lambda^(lambda^(#(lambda^(logo_PT^(lambda^(#(lambda^(logo_forLoop^$0^(lambda^(lambda^(#(lambda^(#(lambda^(lambda^(lambda^(logo_forLoop^$2^(lambda^(lambda^(logo_FWRT^$2^$3^$0)))))))^$0^(logo_DIVA^logo_UA^5)^logo_UL))^5^(logo_FWRT^logo_UL^logo_UA^$0))))))^$1^$0))))^$1^$0)))^$0)))) 0.0206186
line #(lambda^(lambda^(lambda^(#(lambda^(lambda^(lambda^(lambda^(#(lambda^(lambda^(lambda^(lambda^(#(lambda^(lambda^(lambda^(lambda^(#(lambda^(lambda^(lambda^(lambda^(#(lambda^(lambda^(lambda^(lambda^(#(lambda^(lambda^(lambda^(#(lambda^(lambda^(lambda^(lambda^(logo_forLoop^$2^(lambda^(lambda^($3^(lambda^($6^$2^(#(#(lambda^(lambda^(lambda^(logo_forLoop^$2^(lambda^(lambda^(logo_FWRT^$2^$3^$0)))))))^logo_IFTY^logo_epsA)^(logo_MULL^logo_epsL^2)^$0)))^$0)))^$0)))))^(lambda^(lambda^($2^$1^$0)))^$1^(lambda^(lambda^($4^(lambda^($2^$0))^$0)))))))^(lambda^(lambda^($4^(lambda^($2^$0))^$0)))^$1^(lambda^(lambda^($5^$1^$0)))^$0)))))^(lambda^(lambda^($4^$1^$0)))^(lambda^(lambda^($3^(lambda^($2^$0))^$0)))^$3^$0)))))^$3^(lambda^(lambda^($3^$1^$0)))^(lambda^(lambda^($4^(lambda^($2^$0))^$0)))^$0)))))^$3^(lambda^(lambda^($4^(lambda^($2^$0))^$0)))^(lambda^(lambda^($3^$1^$0)))^$0)))))^$3^(lambda^(lambda^($4^(lambda^($2^$0))^$0)))^(lambda^(lambda^($3^$1^$0)))^$0)))))^$2^(lambda^(lambda^($3^(lambda^($2^$0))^$0)))^(lambda^(lambda^(#(lambda^(logo_PT^(lambda^(#(lambda^(logo_forLoop^$0^(lambda^(lambda^(#(lambda^(#(lambda^(lambda^(lambda^(logo_forLoop^$2^(lambda^(lambda^(logo_FWRT^$2^$3^$0)))))))^$0^(logo_DIVA^logo_UA^5)^logo_UL))^5^(logo_FWRT^logo_UL^logo_UA^$0))))))^$1^$0))))^$1^$0)))^$0)))) 0.0206186
medium #(lambda^(lambda^(lambda^(#(lambda^(lambda^(lambda^(lambda^(#(lambda^(lambda^(lambda^(lambda^(#(lambda^(lambda^(lambda^(lambda^(#(lambda^(lambda^(lambda^(lambda^(#(lambda^(lambda^(lambda^(lambda^(#(lambda^(lambda^(lambda^(#(lambda^(lambda^(lambda^(lambda^(logo_forLoop^$2^(lambda^(lambda^($3^(lambda^($6^$2^(#(#(lambda^(lambda^(lambda^(logo_forLoop^$2^(lambda^(lambda^(logo_FWRT^$2^$3^$0)))))))^logo_IFTY^logo_epsA)^(logo_MULL^logo_epsL^2)^$0)))^$0)))^$0)))))^(lambda^(lambda^($2^$1^$0)))^$1^(lambda^(lambda^($4^(lambda^($2^$0))^$0)))))))^(lambda^(lambda^($4^(lambda^($2^$0))^$0)))^$1^(lambda^(lambda^($5^$1^$0)))^$0)))))^(lambda^(lambda^($4^$1^$0)))^(lambda^(lambda^($3^(lambda^($2^$0))^$0)))^$3^$0)))))^$3^(lambda^(lambda^($3^$1^$0)))^(lambda^(lambda^($4^(lambda^($2^$0))^$0)))^$0)))))^$3^(lambda^(lambda^($4^(lambda^($2^$0))^$0)))^(lambda^(lambda^($3^$1^$0)))^$0)))))^$3^(lambda^(lambda^($4^(lambda^($2^$0))^$0)))^(lambda^(lambda^($3^$1^$0)))^$0)))))^$2^(lambda^(lambda^($3^(lambda^($2^$0))^$0)))^(lambda^(lambda^(#(lambda^(logo_PT^(lambda^(#(lambda^(logo_forLoop^$0^(lambda^(lambda^(#(lambda^(#(lambda^(lambda^(lambda^(logo_forLoop^$2^(lambda^(lambda^(logo_FWRT^$2^$3^$0)))))))^$0^(logo_DIVA^logo_UA^5)^logo_UL))^5^(logo_FWRT^logo_UL^logo_UA^$0))))))^$1^$0))))^$1^$0)))^$0)))) 0.1134021
semicircle #(lambda^(lambda^(lambda^(#(lambda^(lambda^(lambda^(lambda^(#(lambda^(lambda^(lambda^(lambda^(#(lambda^(lambda^(lambda^(lambda^(#(lambda^(lambda^(lambda^(lambda^(#(lambda^(lambda^(lambda^(lambda^(#(lambda^(lambda^(lambda^(#(lambda^(lambda^(lambda^(lambda^(logo_forLoop^$2^(lambda^(lambda^($3^(lambda^($6^$2^(#(#(lambda^(lambda^(lambda^(logo_forLoop^$2^(lambda^(lambda^(logo_FWRT^$2^$3^$0)))))))^logo_IFTY^logo_epsA)^(logo_MULL^logo_epsL^2)^$0)))^$0)))^$0)))))^(lambda^(lambda^($2^$1^$0)))^$1^(lambda^(lambda^($4^(lambda^($2^$0))^$0)))))))^(lambda^(lambda^($4^(lambda^($2^$0))^$0)))^$1^(lambda^(lambda^($5^$1^$0)))^$0)))))^(lambda^(lambda^($4^$1^$0)))^(lambda^(lambda^($3^(lambda^($2^$0))^$0)))^$3^$0)))))^$3^(lambda^(lambda^($3^$1^$0)))^(lambda^(lambda^($4^(lambda^($2^$0))^$0)))^$0)))))^$3^(lambda^(lambda^($4^(lambda^($2^$0))^$0)))^(lambda^(lambda^($3^$1^$0)))^$0)))))^$3^(lambda^(lambda^($4^(lambda^($2^$0))^$0)))^(lambda^(lambda^($3^$1^$0)))^$0)))))^$2^(lambda^(lambda^($3^(lambda^($2^$0))^$0)))^(lambda^(lambda^(#(lambda^(logo_PT^(lambda^(#(lambda^(logo_forLoop^$0^(lambda^(lambda^(#(lambda^(#(lambda^(lambda^(lambda^(logo_forLoop^$2^(lambda^(lambda^(logo_FWRT^$2^$3^$0)))))))^$0^(logo_DIVA^logo_UA^5)^logo_UL))^5^(logo_FWRT^logo_UL^logo_UA^$0))))))^$1^$0))))^$1^$0)))^$0)))) 0.1134021
in #(lambda^(lambda^(lambda^(#(lambda^(lambda^(lambda^(lambda^(#(lambda^(lambda^(lambda^(lambda^(#(lambda^(lambda^(lambda^(lambda^(#(lambda^(lambda^(lambda^(lambda^(#(lambda^(lambda^(lambda^(lambda^(#(lambda^(lambda^(lambda^(#(lambda^(lambda^(lambda^(lambda^(logo_forLoop^$2^(lambda^(lambda^($3^(lambda^($6^$2^(#(#(lambda^(lambda^(lambda^(logo_forLoop^$2^(lambda^(lambda^(logo_FWRT^$2^$3^$0)))))))^logo_IFTY^logo_epsA)^(logo_MULL^logo_epsL^2)^$0)))^$0)))^$0)))))^(lambda^(lambda^($2^$1^$0)))^$1^(lambda^(lambda^($4^(lambda^($2^$0))^$0)))))))^(lambda^(lambda^($4^(lambda^($2^$0))^$0)))^$1^(lambda^(lambda^($5^$1^$0)))^$0)))))^(lambda^(lambda^($4^$1^$0)))^(lambda^(lambda^($3^(lambda^($2^$0))^$0)))^$3^$0)))))^$3^(lambda^(lambda^($3^$1^$0)))^(lambda^(lambda^($4^(lambda^($2^$0))^$0)))^$0)))))^$3^(lambda^(lambda^($4^(lambda^($2^$0))^$0)))^(lambda^(lambda^($3^$1^$0)))^$0)))))^$3^(lambda^(lambda^($4^(lambda^($2^$0))^$0)))^(lambda^(lambda^($3^$1^$0)))^$0)))))^$2^(lambda^(lambda^($3^(lambda^($2^$0))^$0)))^(lambda^(lambda^(#(lambda^(logo_PT^(lambda^(#(lambda^(logo_forLoop^$0^(lambda^(lambda^(#(lambda^(#(lambda^(lambda^(lambda^(logo_forLoop^$2^(lambda^(lambda^(logo_FWRT^$2^$3^$0)))))))^$0^(logo_DIVA^logo_UA^5)^logo_UL))^5^(logo_FWRT^logo_UL^logo_UA^$0))))))^$1^$0))))^$1^$0)))^$0)))) 0.1340206
and #(lambda^(lambda^(lambda^(#(lambda^(lambda^(lambda^(lambda^(#(lambda^(lambda^(lambda^(lambda^(#(lambda^(lambda^(lambda^(lambda^(#(lambda^(lambda^(lambda^(lambda^(#(lambda^(lambda^(lambda^(lambda^(#(lambda^(lambda^(lambda^(#(lambda^(lambda^(lambda^(lambda^(logo_forLoop^$2^(lambda^(lambda^($3^(lambda^($6^$2^(#(#(lambda^(lambda^(lambda^(logo_forLoop^$2^(lambda^(lambda^(logo_FWRT^$2^$3^$0)))))))^logo_IFTY^logo_epsA)^(logo_MULL^logo_epsL^2)^$0)))^$0)))^$0)))))^(lambda^(lambda^($2^$1^$0)))^$1^(lambda^(lambda^($4^(lambda^($2^$0))^$0)))))))^(lambda^(lambda^($4^(lambda^($2^$0))^$0)))^$1^(lambda^(lambda^($5^$1^$0)))^$0)))))^(lambda^(lambda^($4^$1^$0)))^(lambda^(lambda^($3^(lambda^($2^$0))^$0)))^$3^$0)))))^$3^(lambda^(lambda^($3^$1^$0)))^(lambda^(lambda^($4^(lambda^($2^$0))^$0)))^$0)))))^$3^(lambda^(lambda^($4^(lambda^($2^$0))^$0)))^(lambda^(lambda^($3^$1^$0)))^$0)))))^$3^(lambda^(lambda^($4^(lambda^($2^$0))^$0)))^(lambda^(lambda^($3^$1^$0)))^$0)))))^$2^(lambda^(lambda^($3^(lambda^($2^$0))^$0)))^(lambda^(lambda^(#(lambda^(logo_PT^(lambda^(#(lambda^(logo_forLoop^$0^(lambda^(lambda^(#(lambda^(#(lambda^(lambda^(lambda^(logo_forLoop^$2^(lambda^(lambda^(logo_FWRT^$2^$3^$0)))))))^$0^(logo_DIVA^logo_UA^5)^logo_UL))^5^(logo_FWRT^logo_UL^logo_UA^$0))))))^$1^$0))))^$1^$0)))^$0)))) 0.0618557
small #(lambda^(lambda^(lambda^(#(lambda^(lambda^(lambda^(lambda^(#(lambda^(lambda^(lambda^(lambda^(#(lambda^(lambda^(lambda^(lambda^(#(lambda^(lambda^(lambda^(lambda^(#(lambda^(lambda^(lambda^(lambda^(#(lambda^(lambda^(lambda^(#(lambda^(lambda^(lambda^(lambda^(logo_forLoop^$2^(lambda^(lambda^($3^(lambda^($6^$2^(#(#(lambda^(lambda^(lambda^(logo_forLoop^$2^(lambda^(lambda^(logo_FWRT^$2^$3^$0)))))))^logo_IFTY^logo_epsA)^(logo_MULL^logo_epsL^2)^$0)))^$0)))^$0)))))^(lambda^(lambda^($2^$1^$0)))^$1^(lambda^(lambda^($4^(lambda^($2^$0))^$0)))))))^(lambda^(lambda^($4^(lambda^($2^$0))^$0)))^$1^(lambda^(lambda^($5^$1^$0)))^$0)))))^(lambda^(lambda^($4^$1^$0)))^(lambda^(lambda^($3^(lambda^($2^$0))^$0)))^$3^$0)))))^$3^(lambda^(lambda^($3^$1^$0)))^(lambda^(lambda^($4^(lambda^($2^$0))^$0)))^$0)))))^$3^(lambda^(lambda^($4^(lambda^($2^$0))^$0)))^(lambda^(lambda^($3^$1^$0)))^$0)))))^$3^(lambda^(lambda^($4^(lambda^($2^$0))^$0)))^(lambda^(lambda^($3^$1^$0)))^$0)))))^$2^(lambda^(lambda^($3^(lambda^($2^$0))^$0)))^(lambda^(lambda^(#(lambda^(logo_PT^(lambda^(#(lambda^(logo_forLoop^$0^(lambda^(lambda^(#(lambda^(#(lambda^(lambda^(lambda^(logo_forLoop^$2^(lambda^(lambda^(logo_FWRT^$2^$3^$0)))))))^$0^(logo_DIVA^logo_UA^5)^logo_UL))^5^(logo_FWRT^logo_UL^logo_UA^$0))))))^$1^$0))))^$1^$0)))^$0)))) 0.0206186
with #(lambda^(lambda^(lambda^(#(lambda^(lambda^(lambda^(lambda^(#(lambda^(lambda^(lambda^(lambda^(#(lambda^(lambda^(lambda^(lambda^(#(lambda^(lambda^(lambda^(lambda^(#(lambda^(lambda^(lambda^(lambda^(#(lambda^(lambda^(lambda^(#(lambda^(lambda^(lambda^(lambda^(logo_forLoop^$2^(lambda^(lambda^($3^(lambda^($6^$2^(#(#(lambda^(lambda^(lambda^(logo_forLoop^$2^(lambda^(lambda^(logo_FWRT^$2^$3^$0)))))))^logo_IFTY^logo_epsA)^(logo_MULL^logo_epsL^2)^$0)))^$0)))^$0)))))^(lambda^(lambda^($2^$1^$0)))^$1^(lambda^(lambda^($4^(lambda^($2^$0))^$0)))))))^(lambda^(lambda^($4^(lambda^($2^$0))^$0)))^$1^(lambda^(lambda^($5^$1^$0)))^$0)))))^(lambda^(lambda^($4^$1^$0)))^(lambda^(lambda^($3^(lambda^($2^$0))^$0)))^$3^$0)))))^$3^(lambda^(lambda^($3^$1^$0)))^(lambda^(lambda^($4^(lambda^($2^$0))^$0)))^$0)))))^$3^(lambda^(lambda^($4^(lambda^($2^$0))^$0)))^(lambda^(lambda^($3^$1^$0)))^$0)))))^$3^(lambda^(lambda^($4^(lambda^($2^$0))^$0)))^(lambda^(lambda^($3^$1^$0)))^$0)))))^$2^(lambda^(lambda^($3^(lambda^($2^$0))^$0)))^(lambda^(lambda^(#(lambda^(logo_PT^(lambda^(#(lambda^(logo_forLoop^$0^(lambda^(lambda^(#(lambda^(#(lambda^(lambda^(lambda^(logo_forLoop^$2^(lambda^(lambda^(logo_FWRT^$2^$3^$0)))))))^$0^(logo_DIVA^logo_UA^5)^logo_UL))^5^(logo_FWRT^logo_UL^logo_UA^$0))))))^$1^$0))))^$1^$0)))^$0)))) 0.0206186
row #(lambda^(lambda^(lambda^(#(lambda^(lambda^(lambda^(lambda^(#(lambda^(lambda^(lambda^(lambda^(#(lambda^(lambda^(lambda^(lambda^(#(lambda^(lambda^(lambda^(lambda^(#(lambda^(lambda^(lambda^(lambda^(#(lambda^(lambda^(lambda^(#(lambda^(lambda^(lambda^(lambda^(logo_forLoop^$2^(lambda^(lambda^($3^(lambda^($6^$2^(#(#(lambda^(lambda^(lambda^(logo_forLoop^$2^(lambda^(lambda^(logo_FWRT^$2^$3^$0)))))))^logo_IFTY^logo_epsA)^(logo_MULL^logo_epsL^2)^$0)))^$0)))^$0)))))^(lambda^(lambda^($2^$1^$0)))^$1^(lambda^(lambda^($4^(lambda^($2^$0))^$0)))))))^(lambda^(lambda^($4^(lambda^($2^$0))^$0)))^$1^(lambda^(lambda^($5^$1^$0)))^$0)))))^(lambda^(lambda^($4^$1^$0)))^(lambda^(lambda^($3^(lambda^($2^$0))^$0)))^$3^$0)))))^$3^(lambda^(lambda^($3^$1^$0)))^(lambda^(lambda^($4^(lambda^($2^$0))^$0)))^$0)))))^$3^(lambda^(lambda^($4^(lambda^($2^$0))^$0)))^(lambda^(lambda^($3^$1^$0)))^$0)))))^$3^(lambda^(lambda^($4^(lambda^($2^$0))^$0)))^(lambda^(lambda^($3^$1^$0)))^$0)))))^$2^(lambda^(lambda^($3^(lambda^($2^$0))^$0)))^(lambda^(lambda^(#(lambda^(logo_PT^(lambda^(#(lambda^(logo_forLoop^$0^(lambda^(lambda^(#(lambda^(#(lambda^(lambda^(lambda^(logo_forLoop^$2^(lambda^(lambda^(logo_FWRT^$2^$3^$0)))))))^$0^(logo_DIVA^logo_UA^5)^logo_UL))^5^(logo_FWRT^logo_UL^logo_UA^$0))))))^$1^$0))))^$1^$0)))^$0)))) 0.1134021
arms #(lambda^(lambda^(lambda^(#(lambda^(lambda^(lambda^(lambda^(#(lambda^(lambda^(lambda^(lambda^(#(lambda^(lambda^(lambda^(lambda^(#(lambda^(lambda^(lambda^(lambda^(#(lambda^(lambda^(lambda^(lambda^(#(lambda^(lambda^(lambda^(#(lambda^(lambda^(lambda^(lambda^(logo_forLoop^$2^(lambda^(lambda^($3^(lambda^($6^$2^(#(#(lambda^(lambda^(lambda^(logo_forLoop^$2^(lambda^(lambda^(logo_FWRT^$2^$3^$0)))))))^logo_IFTY^logo_epsA)^(logo_MULL^logo_epsL^2)^$0)))^$0)))^$0)))))^(lambda^(lambda^($2^$1^$0)))^$1^(lambda^(lambda^($4^(lambda^($2^$0))^$0)))))))^(lambda^(lambda^($4^(lambda^($2^$0))^$0)))^$1^(lambda^(lambda^($5^$1^$0)))^$0)))))^(lambda^(lambda^($4^$1^$0)))^(lambda^(lambda^($3^(lambda^($2^$0))^$0)))^$3^$0)))))^$3^(lambda^(lambda^($3^$1^$0)))^(lambda^(lambda^($4^(lambda^($2^$0))^$0)))^$0)))))^$3^(lambda^(lambda^($4^(lambda^($2^$0))^$0)))^(lambda^(lambda^($3^$1^$0)))^$0)))))^$3^(lambda^(lambda^($4^(lambda^($2^$0))^$0)))^(lambda^(lambda^($3^$1^$0)))^$0)))))^$2^(lambda^(lambda^($3^(lambda^($2^$0))^$0)))^(lambda^(lambda^(#(lambda^(logo_PT^(lambda^(#(lambda^(logo_forLoop^$0^(lambda^(lambda^(#(lambda^(#(lambda^(lambda^(lambda^(logo_forLoop^$2^(lambda^(lambda^(logo_FWRT^$2^$3^$0)))))))^$0^(logo_DIVA^logo_UA^5)^logo_UL))^5^(logo_FWRT^logo_UL^logo_UA^$0))))))^$1^$0))))^$1^$0)))^$0)))) 0.0206186
as #(lambda^(lambda^(lambda^(#(lambda^(lambda^(lambda^(lambda^(#(lambda^(lambda^(lambda^(lambda^(#(lambda^(lambda^(lambda^(lambda^(#(lambda^(lambda^(lambda^(lambda^(#(lambda^(lambda^(lambda^(lambda^(#(lambda^(lambda^(lambda^(#(lambda^(lambda^(lambda^(lambda^(logo_forLoop^$2^(lambda^(lambda^($3^(lambda^($6^$2^(#(#(lambda^(lambda^(lambda^(logo_forLoop^$2^(lambda^(lambda^(logo_FWRT^$2^$3^$0)))))))^logo_IFTY^logo_epsA)^(logo_MULL^logo_epsL^2)^$0)))^$0)))^$0)))))^(lambda^(lambda^($2^$1^$0)))^$1^(lambda^(lambda^($4^(lambda^($2^$0))^$0)))))))^(lambda^(lambda^($4^(lambda^($2^$0))^$0)))^$1^(lambda^(lambda^($5^$1^$0)))^$0)))))^(lambda^(lambda^($4^$1^$0)))^(lambda^(lambda^($3^(lambda^($2^$0))^$0)))^$3^$0)))))^$3^(lambda^(lambda^($3^$1^$0)))^(lambda^(lambda^($4^(lambda^($2^$0))^$0)))^$0)))))^$3^(lambda^(lambda^($4^(lambda^($2^$0))^$0)))^(lambda^(lambda^($3^$1^$0)))^$0)))))^$3^(lambda^(lambda^($4^(lambda^($2^$0))^$0)))^(lambda^(lambda^($3^$1^$0)))^$0)))))^$2^(lambda^(lambda^($3^(lambda^($2^$0))^$0)))^(lambda^(lambda^(#(lambda^(logo_PT^(lambda^(#(lambda^(logo_forLoop^$0^(lambda^(lambda^(#(lambda^(#(lambda^(lambda^(lambda^(logo_forLoop^$2^(lambda^(lambda^(logo_FWRT^$2^$3^$0)))))))^$0^(logo_DIVA^logo_UA^5)^logo_UL))^5^(logo_FWRT^logo_UL^logo_UA^$0))))))^$1^$0))))^$1^$0)))^$0)))) 0.0206186
arms #(lambda^(lambda^(lambda^(lambda^($2^(lambda^(lambda^(logo_FWRT^logo_ZL^(logo_DIVA^logo_UA^$5)^($3^$0))))^$0))))) 0.0500000
as #(lambda^(lambda^(lambda^(lambda^($2^(lambda^(lambda^(logo_FWRT^logo_ZL^(logo_DIVA^logo_UA^$5)^($3^$0))))^$0))))) 0.0500000
and #(lambda^(lambda^(lambda^(lambda^($2^(lambda^(lambda^(logo_FWRT^logo_ZL^(logo_DIVA^logo_UA^$5)^($3^$0))))^$0))))) 0.1500000
short #(lambda^(lambda^(lambda^(lambda^($2^(lambda^(lambda^(logo_FWRT^logo_ZL^(logo_DIVA^logo_UA^$5)^($3^$0))))^$0))))) 0.1500000
snowflake #(lambda^(lambda^(lambda^(lambda^($2^(lambda^(lambda^(logo_FWRT^logo_ZL^(logo_DIVA^logo_UA^$5)^($3^$0))))^$0))))) 0.0500000
small #(lambda^(lambda^(lambda^(lambda^($2^(lambda^(lambda^(logo_FWRT^logo_ZL^(logo_DIVA^logo_UA^$5)^($3^$0))))^$0))))) 0.0500000
with #(lambda^(lambda^(lambda^(lambda^($2^(lambda^(lambda^(logo_FWRT^logo_ZL^(logo_DIVA^logo_UA^$5)^($3^$0))))^$0))))) 0.0500000
sided #(lambda^(lambda^(lambda^(lambda^($2^(lambda^(lambda^(logo_FWRT^logo_ZL^(logo_DIVA^logo_UA^$5)^($3^$0))))^$0))))) 0.0500000
5 #(lambda^(lambda^(lambda^(lambda^($2^(lambda^(lambda^(logo_FWRT^logo_ZL^(logo_DIVA^logo_UA^$5)^($3^$0))))^$0))))) 0.0500000
a #(lambda^(lambda^(lambda^(lambda^($2^(lambda^(lambda^(logo_FWRT^logo_ZL^(logo_DIVA^logo_UA^$5)^($3^$0))))^$0))))) 0.2500000
space #(lambda^(lambda^(lambda^(lambda^($2^(lambda^(lambda^(logo_FWRT^logo_ZL^(logo_DIVA^logo_UA^$5)^($3^$0))))^$0))))) 0.0500000
line #(lambda^(lambda^(lambda^(lambda^($2^(lambda^(lambda^(logo_FWRT^logo_ZL^(logo_DIVA^logo_UA^$5)^($3^$0))))^$0))))) 0.0500000
gon ZERO 0.0031949
sided ZERO 0.2843450
5 ZERO 0.0063898
space ZERO 0.0063898
a ZERO 0.0319489
line ZERO 0.0063898
arms ZERO 0.0063898
next ZERO 0.0159744
as ZERO 0.0063898
zigzag ZERO 0.0031949
short ZERO 0.0191693
snowflake ZERO 0.2875399
and ZERO 0.0191693
with ZERO 0.2971246
small ZERO 0.0063898
medium #(lambda^(lambda^(lambda^($1^1^(#(lambda^(lambda^(#(lambda^(lambda^(lambda^(#(lambda^(lambda^(lambda^(logo_forLoop^$2^(lambda^(lambda^(logo_FWRT^$2^$3^$0)))))))^$2^(logo_DIVA^logo_UA^$1)^logo_UL^$0))))^$1^$1^$0)))^$2^$0))))) 0.0061350
line #(lambda^(lambda^(lambda^($1^1^(#(lambda^(lambda^(#(lambda^(lambda^(lambda^(#(lambda^(lambda^(lambda^(logo_forLoop^$2^(lambda^(lambda^(logo_FWRT^$2^$3^$0)))))))^$2^(logo_DIVA^logo_UA^$1)^logo_UL^$0))))^$1^$1^$0)))^$2^$0))))) 0.1595092
vertical #(lambda^(lambda^(lambda^($1^1^(#(lambda^(lambda^(#(lambda^(lambda^(lambda^(#(lambda^(lambda^(lambda^(logo_forLoop^$2^(lambda^(lambda^(logo_FWRT^$2^$3^$0)))))))^$2^(logo_DIVA^logo_UA^$1)^logo_UL^$0))))^$1^$1^$0)))^$2^$0))))) 0.0122699
as #(lambda^(lambda^(lambda^($1^1^(#(lambda^(lambda^(#(lambda^(lambda^(lambda^(#(lambda^(lambda^(lambda^(logo_forLoop^$2^(lambda^(lambda^(logo_FWRT^$2^$3^$0)))))))^$2^(logo_DIVA^logo_UA^$1)^logo_UL^$0))))^$1^$1^$0)))^$2^$0))))) 0.0122699
next #(lambda^(lambda^(lambda^($1^1^(#(lambda^(lambda^(#(lambda^(lambda^(lambda^(#(lambda^(lambda^(lambda^(logo_forLoop^$2^(lambda^(lambda^(logo_FWRT^$2^$3^$0)))))))^$2^(logo_DIVA^logo_UA^$1)^logo_UL^$0))))^$1^$1^$0)))^$2^$0))))) 0.0245399
arms #(lambda^(lambda^(lambda^($1^1^(#(lambda^(lambda^(#(lambda^(lambda^(lambda^(#(lambda^(lambda^(lambda^(logo_forLoop^$2^(lambda^(lambda^(logo_FWRT^$2^$3^$0)))))))^$2^(logo_DIVA^logo_UA^$1)^logo_UL^$0))))^$1^$1^$0)))^$2^$0))))) 0.0122699
with #(lambda^(lambda^(lambda^($1^1^(#(lambda^(lambda^(#(lambda^(lambda^(lambda^(#(lambda^(lambda^(lambda^(logo_forLoop^$2^(lambda^(lambda^(logo_FWRT^$2^$3^$0)))))))^$2^(logo_DIVA^logo_UA^$1)^logo_UL^$0))))^$1^$1^$0)))^$2^$0))))) 0.0122699
small #(lambda^(lambda^(lambda^($1^1^(#(lambda^(lambda^(#(lambda^(lambda^(lambda^(#(lambda^(lambda^(lambda^(logo_forLoop^$2^(lambda^(lambda^(logo_FWRT^$2^$3^$0)))))))^$2^(logo_DIVA^logo_UA^$1)^logo_UL^$0))))^$1^$1^$0)))^$2^$0))))) 0.2576687
and #(lambda^(lambda^(lambda^($1^1^(#(lambda^(lambda^(#(lambda^(lambda^(lambda^(#(lambda^(lambda^(lambda^(logo_forLoop^$2^(lambda^(lambda^(logo_FWRT^$2^$3^$0)))))))^$2^(logo_DIVA^logo_UA^$1)^logo_UL^$0))))^$1^$1^$0)))^$2^$0))))) 0.0736196
5 #(lambda^(lambda^(lambda^($1^1^(#(lambda^(lambda^(#(lambda^(lambda^(lambda^(#(lambda^(lambda^(lambda^(logo_forLoop^$2^(lambda^(lambda^(logo_FWRT^$2^$3^$0)))))))^$2^(logo_DIVA^logo_UA^$1)^logo_UL^$0))))^$1^$1^$0)))^$2^$0))))) 0.0122699
sided #(lambda^(lambda^(lambda^($1^1^(#(lambda^(lambda^(#(lambda^(lambda^(lambda^(#(lambda^(lambda^(lambda^(logo_forLoop^$2^(lambda^(lambda^(logo_FWRT^$2^$3^$0)))))))^$2^(logo_DIVA^logo_UA^$1)^logo_UL^$0))))^$1^$1^$0)))^$2^$0))))) 0.0122699
gon #(lambda^(lambda^(lambda^($1^1^(#(lambda^(lambda^(#(lambda^(lambda^(lambda^(#(lambda^(lambda^(lambda^(logo_forLoop^$2^(lambda^(lambda^(logo_FWRT^$2^$3^$0)))))))^$2^(logo_DIVA^logo_UA^$1)^logo_UL^$0))))^$1^$1^$0)))^$2^$0))))) 0.1595092
a #(lambda^(lambda^(lambda^($1^1^(#(lambda^(lambda^(#(lambda^(lambda^(lambda^(#(lambda^(lambda^(lambda^(logo_forLoop^$2^(lambda^(lambda^(logo_FWRT^$2^$3^$0)))))))^$2^(logo_DIVA^logo_UA^$1)^logo_UL^$0))))^$1^$1^$0)))^$2^$0))))) 0.0797546
space #(lambda^(lambda^(lambda^($1^1^(#(lambda^(lambda^(#(lambda^(lambda^(lambda^(#(lambda^(lambda^(lambda^(logo_forLoop^$2^(lambda^(lambda^(logo_FWRT^$2^$3^$0)))))))^$2^(logo_DIVA^logo_UA^$1)^logo_UL^$0))))^$1^$1^$0)))^$2^$0))))) 0.0122699
to #(lambda^(lambda^(lambda^($1^1^(#(lambda^(lambda^(#(lambda^(lambda^(lambda^(#(lambda^(lambda^(lambda^(logo_forLoop^$2^(lambda^(lambda^(logo_FWRT^$2^$3^$0)))))))^$2^(logo_DIVA^logo_UA^$1)^logo_UL^$0))))^$1^$1^$0)))^$2^$0))))) 0.1042945
snowflake #(lambda^(lambda^(lambda^($1^1^(#(lambda^(lambda^(#(lambda^(lambda^(lambda^(#(lambda^(lambda^(lambda^(logo_forLoop^$2^(lambda^(lambda^(logo_FWRT^$2^$3^$0)))))))^$2^(logo_DIVA^logo_UA^$1)^logo_UL^$0))))^$1^$1^$0)))^$2^$0))))) 0.0122699
short #(lambda^(lambda^(lambda^($1^1^(#(lambda^(lambda^(#(lambda^(lambda^(lambda^(#(lambda^(lambda^(lambda^(logo_forLoop^$2^(lambda^(lambda^(logo_FWRT^$2^$3^$0)))))))^$2^(logo_DIVA^logo_UA^$1)^logo_UL^$0))))^$1^$1^$0)))^$2^$0))))) 0.0368098
short #(#(lambda^(lambda^(lambda^(logo_forLoop^$2^(lambda^(lambda^(logo_FWRT^$2^$3^$0)))))))^logo_IFTY^logo_epsA^(logo_MULL^logo_epsL^2)) 0.0295567
snowflake #(#(lambda^(lambda^(lambda^(logo_forLoop^$2^(lambda^(lambda^(logo_FWRT^$2^$3^$0)))))))^logo_IFTY^logo_epsA^(logo_MULL^logo_epsL^2)) 0.0098522
to #(#(lambda^(lambda^(lambda^(logo_forLoop^$2^(lambda^(lambda^(logo_FWRT^$2^$3^$0)))))))^logo_IFTY^logo_epsA^(logo_MULL^logo_epsL^2)) 0.0344828
sided #(#(lambda^(lambda^(lambda^(logo_forLoop^$2^(lambda^(lambda^(logo_FWRT^$2^$3^$0)))))))^logo_IFTY^logo_epsA^(logo_MULL^logo_epsL^2)) 0.0098522
5 #(#(lambda^(lambda^(lambda^(logo_forLoop^$2^(lambda^(lambda^(logo_FWRT^$2^$3^$0)))))))^logo_IFTY^logo_epsA^(logo_MULL^logo_epsL^2)) 0.0098522
space #(#(lambda^(lambda^(lambda^(logo_forLoop^$2^(lambda^(lambda^(logo_FWRT^$2^$3^$0)))))))^logo_IFTY^logo_epsA^(logo_MULL^logo_epsL^2)) 0.0098522
a #(#(lambda^(lambda^(lambda^(logo_forLoop^$2^(lambda^(lambda^(logo_FWRT^$2^$3^$0)))))))^logo_IFTY^logo_epsA^(logo_MULL^logo_epsL^2)) 0.0689655
arms #(#(lambda^(lambda^(lambda^(logo_forLoop^$2^(lambda^(lambda^(logo_FWRT^$2^$3^$0)))))))^logo_IFTY^logo_epsA^(logo_MULL^logo_epsL^2)) 0.0098522
next #(#(lambda^(lambda^(lambda^(logo_forLoop^$2^(lambda^(lambda^(logo_FWRT^$2^$3^$0)))))))^logo_IFTY^logo_epsA^(logo_MULL^logo_epsL^2)) 0.0147783
as #(#(lambda^(lambda^(lambda^(logo_forLoop^$2^(lambda^(lambda^(logo_FWRT^$2^$3^$0)))))))^logo_IFTY^logo_epsA^(logo_MULL^logo_epsL^2)) 0.0098522
and #(#(lambda^(lambda^(lambda^(logo_forLoop^$2^(lambda^(lambda^(logo_FWRT^$2^$3^$0)))))))^logo_IFTY^logo_epsA^(logo_MULL^logo_epsL^2)) 0.0295567
by #(#(lambda^(lambda^(lambda^(logo_forLoop^$2^(lambda^(lambda^(logo_FWRT^$2^$3^$0)))))))^logo_IFTY^logo_epsA^(logo_MULL^logo_epsL^2)) 0.0394089
with #(#(lambda^(lambda^(lambda^(logo_forLoop^$2^(lambda^(lambda^(logo_FWRT^$2^$3^$0)))))))^logo_IFTY^logo_epsA^(logo_MULL^logo_epsL^2)) 0.0098522
small #(#(lambda^(lambda^(lambda^(logo_forLoop^$2^(lambda^(lambda^(logo_FWRT^$2^$3^$0)))))))^logo_IFTY^logo_epsA^(logo_MULL^logo_epsL^2)) 0.0098522
circle #(#(lambda^(lambda^(lambda^(logo_forLoop^$2^(lambda^(lambda^(logo_FWRT^$2^$3^$0)))))))^logo_IFTY^logo_epsA^(logo_MULL^logo_epsL^2)) 0.1428571
connected #(#(lambda^(lambda^(lambda^(logo_forLoop^$2^(lambda^(lambda^(logo_FWRT^$2^$3^$0)))))))^logo_IFTY^logo_epsA^(logo_MULL^logo_epsL^2)) 0.0394089
line #(#(lambda^(lambda^(lambda^(logo_forLoop^$2^(lambda^(lambda^(logo_FWRT^$2^$3^$0)))))))^logo_IFTY^logo_epsA^(logo_MULL^logo_epsL^2)) 0.0098522
medium #(#(lambda^(lambda^(lambda^(logo_forLoop^$2^(lambda^(lambda^(logo_FWRT^$2^$3^$0)))))))^logo_IFTY^logo_epsA^(logo_MULL^logo_epsL^2)) 0.2660099
semicircle #(#(lambda^(lambda^(lambda^(logo_forLoop^$2^(lambda^(lambda^(logo_FWRT^$2^$3^$0)))))))^logo_IFTY^logo_epsA^(logo_MULL^logo_epsL^2)) 0.2463054
circle #(lambda^(lambda^(logo_forLoop^$1^(lambda^(lambda^(logo_GETSET^(lambda^(#(lambda^(lambda^(#(lambda^(lambda^(logo_forLoop^7^(lambda^(lambda^(#(#(lambda^(lambda^(lambda^(logo_forLoop^$2^(lambda^(lambda^(logo_FWRT^$2^$3^$0)))))))^logo_IFTY^logo_epsA)^$3^$0)))^$0)))^(logo_MULL^logo_epsL^$1)^$0)))^$2^$0))^$0)))^$0))) 0.1875000
line #(lambda^(lambda^(logo_forLoop^$1^(lambda^(lambda^(logo_GETSET^(lambda^(#(lambda^(lambda^(#(lambda^(lambda^(logo_forLoop^7^(lambda^(lambda^(#(#(lambda^(lambda^(lambda^(logo_forLoop^$2^(lambda^(lambda^(logo_FWRT^$2^$3^$0)))))))^logo_IFTY^logo_epsA)^$3^$0)))^$0)))^(logo_MULL^logo_epsL^$1)^$0)))^$2^$0))^$0)))^$0))) 0.0178571
as #(lambda^(lambda^(logo_forLoop^$1^(lambda^(lambda^(logo_GETSET^(lambda^(#(lambda^(lambda^(#(lambda^(lambda^(logo_forLoop^7^(lambda^(lambda^(#(#(lambda^(lambda^(lambda^(logo_forLoop^$2^(lambda^(lambda^(logo_FWRT^$2^$3^$0)))))))^logo_IFTY^logo_epsA)^$3^$0)))^$0)))^(logo_MULL^logo_epsL^$1)^$0)))^$2^$0))^$0)))^$0))) 0.0178571
arms #(lambda^(lambda^(logo_forLoop^$1^(lambda^(lambda^(logo_GETSET^(lambda^(#(lambda^(lambda^(#(lambda^(lambda^(logo_forLoop^7^(lambda^(lambda^(#(#(lambda^(lambda^(lambda^(logo_forLoop^$2^(lambda^(lambda^(logo_FWRT^$2^$3^$0)))))))^logo_IFTY^logo_epsA)^$3^$0)))^$0)))^(logo_MULL^logo_epsL^$1)^$0)))^$2^$0))^$0)))^$0))) 0.0178571
with #(lambda^(lambda^(logo_forLoop^$1^(lambda^(lambda^(logo_GETSET^(lambda^(#(lambda^(lambda^(#(lambda^(lambda^(logo_forLoop^7^(lambda^(lambda^(#(#(lambda^(lambda^(lambda^(logo_forLoop^$2^(lambda^(lambda^(logo_FWRT^$2^$3^$0)))))))^logo_IFTY^logo_epsA)^$3^$0)))^$0)))^(logo_MULL^logo_epsL^$1)^$0)))^$2^$0))^$0)))^$0))) 0.0178571
small #(lambda^(lambda^(logo_forLoop^$1^(lambda^(lambda^(logo_GETSET^(lambda^(#(lambda^(lambda^(#(lambda^(lambda^(logo_forLoop^7^(lambda^(lambda^(#(#(lambda^(lambda^(lambda^(logo_forLoop^$2^(lambda^(lambda^(logo_FWRT^$2^$3^$0)))))))^logo_IFTY^logo_epsA)^$3^$0)))^$0)))^(logo_MULL^logo_epsL^$1)^$0)))^$2^$0))^$0)))^$0))) 0.0178571
and #(lambda^(lambda^(logo_forLoop^$1^(lambda^(lambda^(logo_GETSET^(lambda^(#(lambda^(lambda^(#(lambda^(lambda^(logo_forLoop^7^(lambda^(lambda^(#(#(lambda^(lambda^(lambda^(logo_forLoop^$2^(lambda^(lambda^(logo_FWRT^$2^$3^$0)))))))^logo_IFTY^logo_epsA)^$3^$0)))^$0)))^(logo_MULL^logo_epsL^$1)^$0)))^$2^$0))^$0)))^$0))) 0.0535714
5 #(lambda^(lambda^(logo_forLoop^$1^(lambda^(lambda^(logo_GETSET^(lambda^(#(lambda^(lambda^(#(lambda^(lambda^(logo_forLoop^7^(lambda^(lambda^(#(#(lambda^(lambda^(lambda^(logo_forLoop^$2^(lambda^(lambda^(logo_FWRT^$2^$3^$0)))))))^logo_IFTY^logo_epsA)^$3^$0)))^$0)))^(logo_MULL^logo_epsL^$1)^$0)))^$2^$0))^$0)))^$0))) 0.0178571
sided #(lambda^(lambda^(logo_forLoop^$1^(lambda^(lambda^(logo_GETSET^(lambda^(#(lambda^(lambda^(#(lambda^(lambda^(logo_forLoop^7^(lambda^(lambda^(#(#(lambda^(lambda^(lambda^(logo_forLoop^$2^(lambda^(lambda^(logo_FWRT^$2^$3^$0)))))))^logo_IFTY^logo_epsA)^$3^$0)))^$0)))^(logo_MULL^logo_epsL^$1)^$0)))^$2^$0))^$0)))^$0))) 0.0178571
8 #(lambda^(lambda^(logo_forLoop^$1^(lambda^(lambda^(logo_GETSET^(lambda^(#(lambda^(lambda^(#(lambda^(lambda^(logo_forLoop^7^(lambda^(lambda^(#(#(lambda^(lambda^(lambda^(logo_forLoop^$2^(lambda^(lambda^(logo_FWRT^$2^$3^$0)))))))^logo_IFTY^logo_epsA)^$3^$0)))^$0)))^(logo_MULL^logo_epsL^$1)^$0)))^$2^$0))^$0)))^$0))) 0.0625000
concentric #(lambda^(lambda^(logo_forLoop^$1^(lambda^(lambda^(logo_GETSET^(lambda^(#(lambda^(lambda^(#(lambda^(lambda^(logo_forLoop^7^(lambda^(lambda^(#(#(lambda^(lambda^(lambda^(logo_forLoop^$2^(lambda^(lambda^(logo_FWRT^$2^$3^$0)))))))^logo_IFTY^logo_epsA)^$3^$0)))^$0)))^(logo_MULL^logo_epsL^$1)^$0)))^$2^$0))^$0)))^$0))) 0.1517857
space #(lambda^(lambda^(logo_forLoop^$1^(lambda^(lambda^(logo_GETSET^(lambda^(#(lambda^(lambda^(#(lambda^(lambda^(logo_forLoop^7^(lambda^(lambda^(#(#(lambda^(lambda^(lambda^(logo_forLoop^$2^(lambda^(lambda^(logo_FWRT^$2^$3^$0)))))))^logo_IFTY^logo_epsA)^$3^$0)))^$0)))^(logo_MULL^logo_epsL^$1)^$0)))^$2^$0))^$0)))^$0))) 0.0178571
s #(lambda^(lambda^(logo_forLoop^$1^(lambda^(lambda^(logo_GETSET^(lambda^(#(lambda^(lambda^(#(lambda^(lambda^(logo_forLoop^7^(lambda^(lambda^(#(#(lambda^(lambda^(lambda^(logo_forLoop^$2^(lambda^(lambda^(logo_FWRT^$2^$3^$0)))))))^logo_IFTY^logo_epsA)^$3^$0)))^$0)))^(logo_MULL^logo_epsL^$1)^$0)))^$2^$0))^$0)))^$0))) 0.1517857
a #(lambda^(lambda^(logo_forLoop^$1^(lambda^(lambda^(logo_GETSET^(lambda^(#(lambda^(lambda^(#(lambda^(lambda^(logo_forLoop^7^(lambda^(lambda^(#(#(lambda^(lambda^(lambda^(logo_forLoop^$2^(lambda^(lambda^(logo_FWRT^$2^$3^$0)))))))^logo_IFTY^logo_epsA)^$3^$0)))^$0)))^(logo_MULL^logo_epsL^$1)^$0)))^$2^$0))^$0)))^$0))) 0.0892857
7 #(lambda^(lambda^(logo_forLoop^$1^(lambda^(lambda^(logo_GETSET^(lambda^(#(lambda^(lambda^(#(lambda^(lambda^(logo_forLoop^7^(lambda^(lambda^(#(#(lambda^(lambda^(lambda^(logo_forLoop^$2^(lambda^(lambda^(logo_FWRT^$2^$3^$0)))))))^logo_IFTY^logo_epsA)^$3^$0)))^$0)))^(logo_MULL^logo_epsL^$1)^$0)))^$2^$0))^$0)))^$0))) 0.0892857
short #(lambda^(lambda^(logo_forLoop^$1^(lambda^(lambda^(logo_GETSET^(lambda^(#(lambda^(lambda^(#(lambda^(lambda^(logo_forLoop^7^(lambda^(lambda^(#(#(lambda^(lambda^(lambda^(logo_forLoop^$2^(lambda^(lambda^(logo_FWRT^$2^$3^$0)))))))^logo_IFTY^logo_epsA)^$3^$0)))^$0)))^(logo_MULL^logo_epsL^$1)^$0)))^$2^$0))^$0)))^$0))) 0.0535714
snowflake #(lambda^(lambda^(logo_forLoop^$1^(lambda^(lambda^(logo_GETSET^(lambda^(#(lambda^(lambda^(#(lambda^(lambda^(logo_forLoop^7^(lambda^(lambda^(#(#(lambda^(lambda^(lambda^(logo_forLoop^$2^(lambda^(lambda^(logo_FWRT^$2^$3^$0)))))))^logo_IFTY^logo_epsA)^$3^$0)))^$0)))^(logo_MULL^logo_epsL^$1)^$0)))^$2^$0))^$0)))^$0))) 0.0178571
line #(lambda^(lambda^(lambda^(lambda^(#(lambda^(lambda^(lambda^(lambda^(#(lambda^(lambda^(lambda^(#(lambda^(lambda^(lambda^(lambda^(logo_forLoop^$2^(lambda^(lambda^($3^(lambda^($6^$2^(#(#(lambda^(lambda^(lambda^(logo_forLoop^$2^(lambda^(lambda^(logo_FWRT^$2^$3^$0)))))))^logo_IFTY^logo_epsA)^(logo_MULL^logo_epsL^2)^$0)))^$0)))^$0)))))^(lambda^(lambda^($2^$1^$0)))^$1^(lambda^(lambda^($4^(lambda^($2^$0))^$0)))))))^(lambda^(lambda^($4^(lambda^($2^$0))^$0)))^$1^(lambda^(lambda^($5^$1^$0)))^$0)))))^(lambda^(lambda^($4^$1^$0)))^(lambda^(lambda^($3^(lambda^($2^$0))^$0)))^$3^$0))))) 0.0500000
space #(lambda^(lambda^(lambda^(lambda^(#(lambda^(lambda^(lambda^(lambda^(#(lambda^(lambda^(lambda^(#(lambda^(lambda^(lambda^(lambda^(logo_forLoop^$2^(lambda^(lambda^($3^(lambda^($6^$2^(#(#(lambda^(lambda^(lambda^(logo_forLoop^$2^(lambda^(lambda^(logo_FWRT^$2^$3^$0)))))))^logo_IFTY^logo_epsA)^(logo_MULL^logo_epsL^2)^$0)))^$0)))^$0)))))^(lambda^(lambda^($2^$1^$0)))^$1^(lambda^(lambda^($4^(lambda^($2^$0))^$0)))))))^(lambda^(lambda^($4^(lambda^($2^$0))^$0)))^$1^(lambda^(lambda^($5^$1^$0)))^$0)))))^(lambda^(lambda^($4^$1^$0)))^(lambda^(lambda^($3^(lambda^($2^$0))^$0)))^$3^$0))))) 0.0500000
a #(lambda^(lambda^(lambda^(lambda^(#(lambda^(lambda^(lambda^(lambda^(#(lambda^(lambda^(lambda^(#(lambda^(lambda^(lambda^(lambda^(logo_forLoop^$2^(lambda^(lambda^($3^(lambda^($6^$2^(#(#(lambda^(lambda^(lambda^(logo_forLoop^$2^(lambda^(lambda^(logo_FWRT^$2^$3^$0)))))))^logo_IFTY^logo_epsA)^(logo_MULL^logo_epsL^2)^$0)))^$0)))^$0)))))^(lambda^(lambda^($2^$1^$0)))^$1^(lambda^(lambda^($4^(lambda^($2^$0))^$0)))))))^(lambda^(lambda^($4^(lambda^($2^$0))^$0)))^$1^(lambda^(lambda^($5^$1^$0)))^$0)))))^(lambda^(lambda^($4^$1^$0)))^(lambda^(lambda^($3^(lambda^($2^$0))^$0)))^$3^$0))))) 0.2500000
sided #(lambda^(lambda^(lambda^(lambda^(#(lambda^(lambda^(lambda^(lambda^(#(lambda^(lambda^(lambda^(#(lambda^(lambda^(lambda^(lambda^(logo_forLoop^$2^(lambda^(lambda^($3^(lambda^($6^$2^(#(#(lambda^(lambda^(lambda^(logo_forLoop^$2^(lambda^(lambda^(logo_FWRT^$2^$3^$0)))))))^logo_IFTY^logo_epsA)^(logo_MULL^logo_epsL^2)^$0)))^$0)))^$0)))))^(lambda^(lambda^($2^$1^$0)))^$1^(lambda^(lambda^($4^(lambda^($2^$0))^$0)))))))^(lambda^(lambda^($4^(lambda^($2^$0))^$0)))^$1^(lambda^(lambda^($5^$1^$0)))^$0)))))^(lambda^(lambda^($4^$1^$0)))^(lambda^(lambda^($3^(lambda^($2^$0))^$0)))^$3^$0))))) 0.0500000
5 #(lambda^(lambda^(lambda^(lambda^(#(lambda^(lambda^(lambda^(lambda^(#(lambda^(lambda^(lambda^(#(lambda^(lambda^(lambda^(lambda^(logo_forLoop^$2^(lambda^(lambda^($3^(lambda^($6^$2^(#(#(lambda^(lambda^(lambda^(logo_forLoop^$2^(lambda^(lambda^(logo_FWRT^$2^$3^$0)))))))^logo_IFTY^logo_epsA)^(logo_MULL^logo_epsL^2)^$0)))^$0)))^$0)))))^(lambda^(lambda^($2^$1^$0)))^$1^(lambda^(lambda^($4^(lambda^($2^$0))^$0)))))))^(lambda^(lambda^($4^(lambda^($2^$0))^$0)))^$1^(lambda^(lambda^($5^$1^$0)))^$0)))))^(lambda^(lambda^($4^$1^$0)))^(lambda^(lambda^($3^(lambda^($2^$0))^$0)))^$3^$0))))) 0.0500000
with #(lambda^(lambda^(lambda^(lambda^(#(lambda^(lambda^(lambda^(lambda^(#(lambda^(lambda^(lambda^(#(lambda^(lambda^(lambda^(lambda^(logo_forLoop^$2^(lambda^(lambda^($3^(lambda^($6^$2^(#(#(lambda^(lambda^(lambda^(logo_forLoop^$2^(lambda^(lambda^(logo_FWRT^$2^$3^$0)))))))^logo_IFTY^logo_epsA)^(logo_MULL^logo_epsL^2)^$0)))^$0)))^$0)))))^(lambda^(lambda^($2^$1^$0)))^$1^(lambda^(lambda^($4^(lambda^($2^$0))^$0)))))))^(lambda^(lambda^($4^(lambda^($2^$0))^$0)))^$1^(lambda^(lambda^($5^$1^$0)))^$0)))))^(lambda^(lambda^($4^$1^$0)))^(lambda^(lambda^($3^(lambda^($2^$0))^$0)))^$3^$0))))) 0.0500000
small #(lambda^(lambda^(lambda^(lambda^(#(lambda^(lambda^(lambda^(lambda^(#(lambda^(lambda^(lambda^(#(lambda^(lambda^(lambda^(lambda^(logo_forLoop^$2^(lambda^(lambda^($3^(lambda^($6^$2^(#(#(lambda^(lambda^(lambda^(logo_forLoop^$2^(lambda^(lambda^(logo_FWRT^$2^$3^$0)))))))^logo_IFTY^logo_epsA)^(logo_MULL^logo_epsL^2)^$0)))^$0)))^$0)))))^(lambda^(lambda^($2^$1^$0)))^$1^(lambda^(lambda^($4^(lambda^($2^$0))^$0)))))))^(lambda^(lambda^($4^(lambda^($2^$0))^$0)))^$1^(lambda^(lambda^($5^$1^$0)))^$0)))))^(lambda^(lambda^($4^$1^$0)))^(lambda^(lambda^($3^(lambda^($2^$0))^$0)))^$3^$0))))) 0.0500000
short #(lambda^(lambda^(lambda^(lambda^(#(lambda^(lambda^(lambda^(lambda^(#(lambda^(lambda^(lambda^(#(lambda^(lambda^(lambda^(lambda^(logo_forLoop^$2^(lambda^(lambda^($3^(lambda^($6^$2^(#(#(lambda^(lambda^(lambda^(logo_forLoop^$2^(lambda^(lambda^(logo_FWRT^$2^$3^$0)))))))^logo_IFTY^logo_epsA)^(logo_MULL^logo_epsL^2)^$0)))^$0)))^$0)))))^(lambda^(lambda^($2^$1^$0)))^$1^(lambda^(lambda^($4^(lambda^($2^$0))^$0)))))))^(lambda^(lambda^($4^(lambda^($2^$0))^$0)))^$1^(lambda^(lambda^($5^$1^$0)))^$0)))))^(lambda^(lambda^($4^$1^$0)))^(lambda^(lambda^($3^(lambda^($2^$0))^$0)))^$3^$0))))) 0.1500000
snowflake #(lambda^(lambda^(lambda^(lambda^(#(lambda^(lambda^(lambda^(lambda^(#(lambda^(lambda^(lambda^(#(lambda^(lambda^(lambda^(lambda^(logo_forLoop^$2^(lambda^(lambda^($3^(lambda^($6^$2^(#(#(lambda^(lambda^(lambda^(logo_forLoop^$2^(lambda^(lambda^(logo_FWRT^$2^$3^$0)))))))^logo_IFTY^logo_epsA)^(logo_MULL^logo_epsL^2)^$0)))^$0)))^$0)))))^(lambda^(lambda^($2^$1^$0)))^$1^(lambda^(lambda^($4^(lambda^($2^$0))^$0)))))))^(lambda^(lambda^($4^(lambda^($2^$0))^$0)))^$1^(lambda^(lambda^($5^$1^$0)))^$0)))))^(lambda^(lambda^($4^$1^$0)))^(lambda^(lambda^($3^(lambda^($2^$0))^$0)))^$3^$0))))) 0.0500000
and #(lambda^(lambda^(lambda^(lambda^(#(lambda^(lambda^(lambda^(lambda^(#(lambda^(lambda^(lambda^(#(lambda^(lambda^(lambda^(lambda^(logo_forLoop^$2^(lambda^(lambda^($3^(lambda^($6^$2^(#(#(lambda^(lambda^(lambda^(logo_forLoop^$2^(lambda^(lambda^(logo_FWRT^$2^$3^$0)))))))^logo_IFTY^logo_epsA)^(logo_MULL^logo_epsL^2)^$0)))^$0)))^$0)))))^(lambda^(lambda^($2^$1^$0)))^$1^(lambda^(lambda^($4^(lambda^($2^$0))^$0)))))))^(lambda^(lambda^($4^(lambda^($2^$0))^$0)))^$1^(lambda^(lambda^($5^$1^$0)))^$0)))))^(lambda^(lambda^($4^$1^$0)))^(lambda^(lambda^($3^(lambda^($2^$0))^$0)))^$3^$0))))) 0.1500000
arms #(lambda^(lambda^(lambda^(lambda^(#(lambda^(lambda^(lambda^(lambda^(#(lambda^(lambda^(lambda^(#(lambda^(lambda^(lambda^(lambda^(logo_forLoop^$2^(lambda^(lambda^($3^(lambda^($6^$2^(#(#(lambda^(lambda^(lambda^(logo_forLoop^$2^(lambda^(lambda^(logo_FWRT^$2^$3^$0)))))))^logo_IFTY^logo_epsA)^(logo_MULL^logo_epsL^2)^$0)))^$0)))^$0)))))^(lambda^(lambda^($2^$1^$0)))^$1^(lambda^(lambda^($4^(lambda^($2^$0))^$0)))))))^(lambda^(lambda^($4^(lambda^($2^$0))^$0)))^$1^(lambda^(lambda^($5^$1^$0)))^$0)))))^(lambda^(lambda^($4^$1^$0)))^(lambda^(lambda^($3^(lambda^($2^$0))^$0)))^$3^$0))))) 0.0500000
as #(lambda^(lambda^(lambda^(lambda^(#(lambda^(lambda^(lambda^(lambda^(#(lambda^(lambda^(lambda^(#(lambda^(lambda^(lambda^(lambda^(logo_forLoop^$2^(lambda^(lambda^($3^(lambda^($6^$2^(#(#(lambda^(lambda^(lambda^(logo_forLoop^$2^(lambda^(lambda^(logo_FWRT^$2^$3^$0)))))))^logo_IFTY^logo_epsA)^(logo_MULL^logo_epsL^2)^$0)))^$0)))^$0)))))^(lambda^(lambda^($2^$1^$0)))^$1^(lambda^(lambda^($4^(lambda^($2^$0))^$0)))))))^(lambda^(lambda^($4^(lambda^($2^$0))^$0)))^$1^(lambda^(lambda^($5^$1^$0)))^$0)))))^(lambda^(lambda^($4^$1^$0)))^(lambda^(lambda^($3^(lambda^($2^$0))^$0)))^$3^$0))))) 0.0500000
small logo_UL 0.0317460
with logo_UL 0.0317460
short logo_UL 0.0952381
snowflake logo_UL 0.0317460
and logo_UL 0.0952381
by logo_UL 0.0317460
arms logo_UL 0.0317460
as logo_UL 0.0317460
line logo_UL 0.2222222
a logo_UL 0.1587302
space logo_UL 0.0317460
big logo_UL 0.0634921
sided logo_UL 0.0317460
pointed logo_UL 0.0793651
5 logo_UL 0.0317460
a #(lambda^(lambda^(lambda^(lambda^(logo_forLoop^$2^(lambda^(lambda^(#(lambda^(lambda^(#(lambda^(lambda^(lambda^(#(lambda^(lambda^(lambda^(logo_forLoop^$2^(lambda^(lambda^(logo_FWRT^$2^$3^$0)))))))^$2^(logo_DIVA^logo_UA^$1)^logo_UL^$0))))^$1^$1^$0)))^$3^(#(lambda^(lambda^(#(lambda^(lambda^(lambda^(#(lambda^(lambda^(lambda^(logo_forLoop^$2^(lambda^(lambda^(logo_FWRT^$2^$3^$0)))))))^$2^(logo_DIVA^logo_UA^$1)^logo_UL^$0))))^$1^$1^$0)))^$5^$0))))^$0))))) 0.0775194
space #(lambda^(lambda^(lambda^(lambda^(logo_forLoop^$2^(lambda^(lambda^(#(lambda^(lambda^(#(lambda^(lambda^(lambda^(#(lambda^(lambda^(lambda^(logo_forLoop^$2^(lambda^(lambda^(logo_FWRT^$2^$3^$0)))))))^$2^(logo_DIVA^logo_UA^$1)^logo_UL^$0))))^$1^$1^$0)))^$3^(#(lambda^(lambda^(#(lambda^(lambda^(lambda^(#(lambda^(lambda^(lambda^(logo_forLoop^$2^(lambda^(lambda^(logo_FWRT^$2^$3^$0)))))))^$2^(logo_DIVA^logo_UA^$1)^logo_UL^$0))))^$1^$1^$0)))^$5^$0))))^$0))))) 0.0155039
s #(lambda^(lambda^(lambda^(lambda^(logo_forLoop^$2^(lambda^(lambda^(#(lambda^(lambda^(#(lambda^(lambda^(lambda^(#(lambda^(lambda^(lambda^(logo_forLoop^$2^(lambda^(lambda^(logo_FWRT^$2^$3^$0)))))))^$2^(logo_DIVA^logo_UA^$1)^logo_UL^$0))))^$1^$1^$0)))^$3^(#(lambda^(lambda^(#(lambda^(lambda^(lambda^(#(lambda^(lambda^(lambda^(logo_forLoop^$2^(lambda^(lambda^(logo_FWRT^$2^$3^$0)))))))^$2^(logo_DIVA^logo_UA^$1)^logo_UL^$0))))^$1^$1^$0)))^$5^$0))))^$0))))) 0.2170543
sided #(lambda^(lambda^(lambda^(lambda^(logo_forLoop^$2^(lambda^(lambda^(#(lambda^(lambda^(#(lambda^(lambda^(lambda^(#(lambda^(lambda^(lambda^(logo_forLoop^$2^(lambda^(lambda^(logo_FWRT^$2^$3^$0)))))))^$2^(logo_DIVA^logo_UA^$1)^logo_UL^$0))))^$1^$1^$0)))^$3^(#(lambda^(lambda^(#(lambda^(lambda^(lambda^(#(lambda^(lambda^(lambda^(logo_forLoop^$2^(lambda^(lambda^(logo_FWRT^$2^$3^$0)))))))^$2^(logo_DIVA^logo_UA^$1)^logo_UL^$0))))^$1^$1^$0)))^$5^$0))))^$0))))) 0.0155039
5 #(lambda^(lambda^(lambda^(lambda^(logo_forLoop^$2^(lambda^(lambda^(#(lambda^(lambda^(#(lambda^(lambda^(lambda^(#(lambda^(lambda^(lambda^(logo_forLoop^$2^(lambda^(lambda^(logo_FWRT^$2^$3^$0)))))))^$2^(logo_DIVA^logo_UA^$1)^logo_UL^$0))))^$1^$1^$0)))^$3^(#(lambda^(lambda^(#(lambda^(lambda^(lambda^(#(lambda^(lambda^(lambda^(logo_forLoop^$2^(lambda^(lambda^(logo_FWRT^$2^$3^$0)))))))^$2^(logo_DIVA^logo_UA^$1)^logo_UL^$0))))^$1^$1^$0)))^$5^$0))))^$0))))) 0.0155039
short #(lambda^(lambda^(lambda^(lambda^(logo_forLoop^$2^(lambda^(lambda^(#(lambda^(lambda^(#(lambda^(lambda^(lambda^(#(lambda^(lambda^(lambda^(logo_forLoop^$2^(lambda^(lambda^(logo_FWRT^$2^$3^$0)))))))^$2^(logo_DIVA^logo_UA^$1)^logo_UL^$0))))^$1^$1^$0)))^$3^(#(lambda^(lambda^(#(lambda^(lambda^(lambda^(#(lambda^(lambda^(lambda^(logo_forLoop^$2^(lambda^(lambda^(logo_FWRT^$2^$3^$0)))))))^$2^(logo_DIVA^logo_UA^$1)^logo_UL^$0))))^$1^$1^$0)))^$5^$0))))^$0))))) 0.0465116
snowflake #(lambda^(lambda^(lambda^(lambda^(logo_forLoop^$2^(lambda^(lambda^(#(lambda^(lambda^(#(lambda^(lambda^(lambda^(#(lambda^(lambda^(lambda^(logo_forLoop^$2^(lambda^(lambda^(logo_FWRT^$2^$3^$0)))))))^$2^(logo_DIVA^logo_UA^$1)^logo_UL^$0))))^$1^$1^$0)))^$3^(#(lambda^(lambda^(#(lambda^(lambda^(lambda^(#(lambda^(lambda^(lambda^(logo_forLoop^$2^(lambda^(lambda^(logo_FWRT^$2^$3^$0)))))))^$2^(logo_DIVA^logo_UA^$1)^logo_UL^$0))))^$1^$1^$0)))^$5^$0))))^$0))))) 0.0155039
connected #(lambda^(lambda^(lambda^(lambda^(logo_forLoop^$2^(lambda^(lambda^(#(lambda^(lambda^(#(lambda^(lambda^(lambda^(#(lambda^(lambda^(lambda^(logo_forLoop^$2^(lambda^(lambda^(logo_FWRT^$2^$3^$0)))))))^$2^(logo_DIVA^logo_UA^$1)^logo_UL^$0))))^$1^$1^$0)))^$3^(#(lambda^(lambda^(#(lambda^(lambda^(lambda^(#(lambda^(lambda^(lambda^(logo_forLoop^$2^(lambda^(lambda^(logo_FWRT^$2^$3^$0)))))))^$2^(logo_DIVA^logo_UA^$1)^logo_UL^$0))))^$1^$1^$0)))^$5^$0))))^$0))))) 0.0232558
line #(lambda^(lambda^(lambda^(lambda^(logo_forLoop^$2^(lambda^(lambda^(#(lambda^(lambda^(#(lambda^(lambda^(lambda^(#(lambda^(lambda^(lambda^(logo_forLoop^$2^(lambda^(lambda^(logo_FWRT^$2^$3^$0)))))))^$2^(logo_DIVA^logo_UA^$1)^logo_UL^$0))))^$1^$1^$0)))^$3^(#(lambda^(lambda^(#(lambda^(lambda^(lambda^(#(lambda^(lambda^(lambda^(logo_forLoop^$2^(lambda^(lambda^(logo_FWRT^$2^$3^$0)))))))^$2^(logo_DIVA^logo_UA^$1)^logo_UL^$0))))^$1^$1^$0)))^$5^$0))))^$0))))) 0.0155039
in #(lambda^(lambda^(lambda^(lambda^(logo_forLoop^$2^(lambda^(lambda^(#(lambda^(lambda^(#(lambda^(lambda^(lambda^(#(lambda^(lambda^(lambda^(logo_forLoop^$2^(lambda^(lambda^(logo_FWRT^$2^$3^$0)))))))^$2^(logo_DIVA^logo_UA^$1)^logo_UL^$0))))^$1^$1^$0)))^$3^(#(lambda^(lambda^(#(lambda^(lambda^(lambda^(#(lambda^(lambda^(lambda^(logo_forLoop^$2^(lambda^(lambda^(logo_FWRT^$2^$3^$0)))))))^$2^(logo_DIVA^logo_UA^$1)^logo_UL^$0))))^$1^$1^$0)))^$5^$0))))^$0))))) 0.2248062
and #(lambda^(lambda^(lambda^(lambda^(logo_forLoop^$2^(lambda^(lambda^(#(lambda^(lambda^(#(lambda^(lambda^(lambda^(#(lambda^(lambda^(lambda^(logo_forLoop^$2^(lambda^(lambda^(logo_FWRT^$2^$3^$0)))))))^$2^(logo_DIVA^logo_UA^$1)^logo_UL^$0))))^$1^$1^$0)))^$3^(#(lambda^(lambda^(#(lambda^(lambda^(lambda^(#(lambda^(lambda^(lambda^(logo_forLoop^$2^(lambda^(lambda^(logo_FWRT^$2^$3^$0)))))))^$2^(logo_DIVA^logo_UA^$1)^logo_UL^$0))))^$1^$1^$0)))^$5^$0))))^$0))))) 0.0465116
with #(lambda^(lambda^(lambda^(lambda^(logo_forLoop^$2^(lambda^(lambda^(#(lambda^(lambda^(#(lambda^(lambda^(lambda^(#(lambda^(lambda^(lambda^(logo_forLoop^$2^(lambda^(lambda^(logo_FWRT^$2^$3^$0)))))))^$2^(logo_DIVA^logo_UA^$1)^logo_UL^$0))))^$1^$1^$0)))^$3^(#(lambda^(lambda^(#(lambda^(lambda^(lambda^(#(lambda^(lambda^(lambda^(logo_forLoop^$2^(lambda^(lambda^(logo_FWRT^$2^$3^$0)))))))^$2^(logo_DIVA^logo_UA^$1)^logo_UL^$0))))^$1^$1^$0)))^$5^$0))))^$0))))) 0.0155039
small #(lambda^(lambda^(lambda^(lambda^(logo_forLoop^$2^(lambda^(lambda^(#(lambda^(lambda^(#(lambda^(lambda^(lambda^(#(lambda^(lambda^(lambda^(logo_forLoop^$2^(lambda^(lambda^(logo_FWRT^$2^$3^$0)))))))^$2^(logo_DIVA^logo_UA^$1)^logo_UL^$0))))^$1^$1^$0)))^$3^(#(lambda^(lambda^(#(lambda^(lambda^(lambda^(#(lambda^(lambda^(lambda^(logo_forLoop^$2^(lambda^(lambda^(logo_FWRT^$2^$3^$0)))))))^$2^(logo_DIVA^logo_UA^$1)^logo_UL^$0))))^$1^$1^$0)))^$5^$0))))^$0))))) 0.0155039
row #(lambda^(lambda^(lambda^(lambda^(logo_forLoop^$2^(lambda^(lambda^(#(lambda^(lambda^(#(lambda^(lambda^(lambda^(#(lambda^(lambda^(lambda^(logo_forLoop^$2^(lambda^(lambda^(logo_FWRT^$2^$3^$0)))))))^$2^(logo_DIVA^logo_UA^$1)^logo_UL^$0))))^$1^$1^$0)))^$3^(#(lambda^(lambda^(#(lambda^(lambda^(lambda^(#(lambda^(lambda^(lambda^(logo_forLoop^$2^(lambda^(lambda^(logo_FWRT^$2^$3^$0)))))))^$2^(logo_DIVA^logo_UA^$1)^logo_UL^$0))))^$1^$1^$0)))^$5^$0))))^$0))))) 0.2248062
arms #(lambda^(lambda^(lambda^(lambda^(logo_forLoop^$2^(lambda^(lambda^(#(lambda^(lambda^(#(lambda^(lambda^(lambda^(#(lambda^(lambda^(lambda^(logo_forLoop^$2^(lambda^(lambda^(logo_FWRT^$2^$3^$0)))))))^$2^(logo_DIVA^logo_UA^$1)^logo_UL^$0))))^$1^$1^$0)))^$3^(#(lambda^(lambda^(#(lambda^(lambda^(lambda^(#(lambda^(lambda^(lambda^(logo_forLoop^$2^(lambda^(lambda^(logo_FWRT^$2^$3^$0)))))))^$2^(logo_DIVA^logo_UA^$1)^logo_UL^$0))))^$1^$1^$0)))^$5^$0))))^$0))))) 0.0155039
as #(lambda^(lambda^(lambda^(lambda^(logo_forLoop^$2^(lambda^(lambda^(#(lambda^(lambda^(#(lambda^(lambda^(lambda^(#(lambda^(lambda^(lambda^(logo_forLoop^$2^(lambda^(lambda^(logo_FWRT^$2^$3^$0)))))))^$2^(logo_DIVA^logo_UA^$1)^logo_UL^$0))))^$1^$1^$0)))^$3^(#(lambda^(lambda^(#(lambda^(lambda^(lambda^(#(lambda^(lambda^(lambda^(logo_forLoop^$2^(lambda^(lambda^(logo_FWRT^$2^$3^$0)))))))^$2^(logo_DIVA^logo_UA^$1)^logo_UL^$0))))^$1^$1^$0)))^$5^$0))))^$0))))) 0.0155039
connected #(lambda^(#(#(lambda^(lambda^(lambda^(logo_forLoop^$2^(lambda^(lambda^(logo_FWRT^$2^$3^$0)))))))^logo_IFTY^logo_epsA)^logo_epsL^$0)) 0.0396825
line #(lambda^(#(#(lambda^(lambda^(lambda^(logo_forLoop^$2^(lambda^(lambda^(logo_FWRT^$2^$3^$0)))))))^logo_IFTY^logo_epsA)^logo_epsL^$0)) 0.0079365
semicircle #(lambda^(#(#(lambda^(lambda^(lambda^(logo_forLoop^$2^(lambda^(lambda^(logo_FWRT^$2^$3^$0)))))))^logo_IFTY^logo_epsA)^logo_epsL^$0)) 0.2301587
2 #(lambda^(#(#(lambda^(lambda^(lambda^(logo_forLoop^$2^(lambda^(lambda^(logo_FWRT^$2^$3^$0)))))))^logo_IFTY^logo_epsA)^logo_epsL^$0)) 0.0158730
circle #(lambda^(#(#(lambda^(lambda^(lambda^(logo_forLoop^$2^(lambda^(lambda^(logo_FWRT^$2^$3^$0)))))))^logo_IFTY^logo_epsA)^logo_epsL^$0)) 0.0992063
and #(lambda^(#(#(lambda^(lambda^(lambda^(logo_forLoop^$2^(lambda^(lambda^(logo_FWRT^$2^$3^$0)))))))^logo_IFTY^logo_epsA)^logo_epsL^$0)) 0.0238095
by #(lambda^(#(#(lambda^(lambda^(lambda^(logo_forLoop^$2^(lambda^(lambda^(logo_FWRT^$2^$3^$0)))))))^logo_IFTY^logo_epsA)^logo_epsL^$0)) 0.0396825
small #(lambda^(#(#(lambda^(lambda^(lambda^(logo_forLoop^$2^(lambda^(lambda^(logo_FWRT^$2^$3^$0)))))))^logo_IFTY^logo_epsA)^logo_epsL^$0)) 0.2261905
with #(lambda^(#(#(lambda^(lambda^(lambda^(logo_forLoop^$2^(lambda^(lambda^(logo_FWRT^$2^$3^$0)))))))^logo_IFTY^logo_epsA)^logo_epsL^$0)) 0.0079365
arms #(lambda^(#(#(lambda^(lambda^(lambda^(logo_forLoop^$2^(lambda^(lambda^(logo_FWRT^$2^$3^$0)))))))^logo_IFTY^logo_epsA)^logo_epsL^$0)) 0.0079365
as #(lambda^(#(#(lambda^(lambda^(lambda^(logo_forLoop^$2^(lambda^(lambda^(logo_FWRT^$2^$3^$0)))))))^logo_IFTY^logo_epsA)^logo_epsL^$0)) 0.0079365
a #(lambda^(#(#(lambda^(lambda^(lambda^(logo_forLoop^$2^(lambda^(lambda^(logo_FWRT^$2^$3^$0)))))))^logo_IFTY^logo_epsA)^logo_epsL^$0)) 0.2261905
space #(lambda^(#(#(lambda^(lambda^(lambda^(logo_forLoop^$2^(lambda^(lambda^(logo_FWRT^$2^$3^$0)))))))^logo_IFTY^logo_epsA)^logo_epsL^$0)) 0.0079365
sided #(lambda^(#(#(lambda^(lambda^(lambda^(logo_forLoop^$2^(lambda^(lambda^(logo_FWRT^$2^$3^$0)))))))^logo_IFTY^logo_epsA)^logo_epsL^$0)) 0.0079365
5 #(lambda^(#(#(lambda^(lambda^(lambda^(logo_forLoop^$2^(lambda^(lambda^(logo_FWRT^$2^$3^$0)))))))^logo_IFTY^logo_epsA)^logo_epsL^$0)) 0.0079365
snowflake #(lambda^(#(#(lambda^(lambda^(lambda^(logo_forLoop^$2^(lambda^(lambda^(logo_FWRT^$2^$3^$0)))))))^logo_IFTY^logo_epsA)^logo_epsL^$0)) 0.0079365
short #(lambda^(#(#(lambda^(lambda^(lambda^(logo_forLoop^$2^(lambda^(lambda^(logo_FWRT^$2^$3^$0)))))))^logo_IFTY^logo_epsA)^logo_epsL^$0)) 0.0238095
to #(lambda^(#(#(lambda^(lambda^(lambda^(logo_forLoop^$2^(lambda^(lambda^(logo_FWRT^$2^$3^$0)))))))^logo_IFTY^logo_epsA)^logo_epsL^$0)) 0.0119048
as #(#(lambda^(lambda^(lambda^(#(lambda^(lambda^(lambda^(logo_forLoop^$2^(lambda^(lambda^(logo_FWRT^$2^$3^$0)))))))^$2^(logo_DIVA^logo_UA^$1)^logo_UL^$0))))^5^1) 0.0060790
arms #(#(lambda^(lambda^(lambda^(#(lambda^(lambda^(lambda^(logo_forLoop^$2^(lambda^(lambda^(logo_FWRT^$2^$3^$0)))))))^$2^(logo_DIVA^logo_UA^$1)^logo_UL^$0))))^5^1) 0.0060790
row #(#(lambda^(lambda^(lambda^(#(lambda^(lambda^(lambda^(logo_forLoop^$2^(lambda^(lambda^(logo_FWRT^$2^$3^$0)))))))^$2^(logo_DIVA^logo_UA^$1)^logo_UL^$0))))^5^1) 0.0091185
small #(#(lambda^(lambda^(lambda^(#(lambda^(lambda^(lambda^(logo_forLoop^$2^(lambda^(lambda^(logo_FWRT^$2^$3^$0)))))))^$2^(logo_DIVA^logo_UA^$1)^logo_UL^$0))))^5^1) 0.0060790
with #(#(lambda^(lambda^(lambda^(#(lambda^(lambda^(lambda^(logo_forLoop^$2^(lambda^(lambda^(logo_FWRT^$2^$3^$0)))))))^$2^(logo_DIVA^logo_UA^$1)^logo_UL^$0))))^5^1) 0.0060790
by #(#(lambda^(lambda^(lambda^(#(lambda^(lambda^(lambda^(logo_forLoop^$2^(lambda^(lambda^(logo_FWRT^$2^$3^$0)))))))^$2^(logo_DIVA^logo_UA^$1)^logo_UL^$0))))^5^1) 0.1702128
and #(#(lambda^(lambda^(lambda^(#(lambda^(lambda^(lambda^(logo_forLoop^$2^(lambda^(lambda^(logo_FWRT^$2^$3^$0)))))))^$2^(logo_DIVA^logo_UA^$1)^logo_UL^$0))))^5^1) 0.0182371
in #(#(lambda^(lambda^(lambda^(#(lambda^(lambda^(lambda^(logo_forLoop^$2^(lambda^(lambda^(logo_FWRT^$2^$3^$0)))))))^$2^(logo_DIVA^logo_UA^$1)^logo_UL^$0))))^5^1) 0.0091185
line #(#(lambda^(lambda^(lambda^(#(lambda^(lambda^(lambda^(logo_forLoop^$2^(lambda^(lambda^(logo_FWRT^$2^$3^$0)))))))^$2^(logo_DIVA^logo_UA^$1)^logo_UL^$0))))^5^1) 0.1823708
connected #(#(lambda^(lambda^(lambda^(#(lambda^(lambda^(lambda^(logo_forLoop^$2^(lambda^(lambda^(logo_FWRT^$2^$3^$0)))))))^$2^(logo_DIVA^logo_UA^$1)^logo_UL^$0))))^5^1) 0.1702128
to #(#(lambda^(lambda^(lambda^(#(lambda^(lambda^(lambda^(logo_forLoop^$2^(lambda^(lambda^(logo_FWRT^$2^$3^$0)))))))^$2^(logo_DIVA^logo_UA^$1)^logo_UL^$0))))^5^1) 0.1641337
snowflake #(#(lambda^(lambda^(lambda^(#(lambda^(lambda^(lambda^(logo_forLoop^$2^(lambda^(lambda^(logo_FWRT^$2^$3^$0)))))))^$2^(logo_DIVA^logo_UA^$1)^logo_UL^$0))))^5^1) 0.0060790
short #(#(lambda^(lambda^(lambda^(#(lambda^(lambda^(lambda^(logo_forLoop^$2^(lambda^(lambda^(logo_FWRT^$2^$3^$0)))))))^$2^(logo_DIVA^logo_UA^$1)^logo_UL^$0))))^5^1) 0.0182371
5 #(#(lambda^(lambda^(lambda^(#(lambda^(lambda^(lambda^(logo_forLoop^$2^(lambda^(lambda^(logo_FWRT^$2^$3^$0)))))))^$2^(logo_DIVA^logo_UA^$1)^logo_UL^$0))))^5^1) 0.0060790
sided #(#(lambda^(lambda^(lambda^(#(lambda^(lambda^(lambda^(logo_forLoop^$2^(lambda^(lambda^(logo_FWRT^$2^$3^$0)))))))^$2^(logo_DIVA^logo_UA^$1)^logo_UL^$0))))^5^1) 0.0060790
big #(#(lambda^(lambda^(lambda^(#(lambda^(lambda^(lambda^(logo_forLoop^$2^(lambda^(lambda^(logo_FWRT^$2^$3^$0)))))))^$2^(logo_DIVA^logo_UA^$1)^logo_UL^$0))))^5^1) 0.1702128
a #(#(lambda^(lambda^(lambda^(#(lambda^(lambda^(lambda^(logo_forLoop^$2^(lambda^(lambda^(logo_FWRT^$2^$3^$0)))))))^$2^(logo_DIVA^logo_UA^$1)^logo_UL^$0))))^5^1) 0.0303951
space #(#(lambda^(lambda^(lambda^(#(lambda^(lambda^(lambda^(logo_forLoop^$2^(lambda^(lambda^(logo_FWRT^$2^$3^$0)))))))^$2^(logo_DIVA^logo_UA^$1)^logo_UL^$0))))^5^1) 0.0060790
s #(#(lambda^(lambda^(lambda^(#(lambda^(lambda^(lambda^(logo_forLoop^$2^(lambda^(lambda^(logo_FWRT^$2^$3^$0)))))))^$2^(logo_DIVA^logo_UA^$1)^logo_UL^$0))))^5^1) 0.0091185
gon #(lambda^(lambda^(lambda^(#(lambda^(lambda^(lambda^(logo_forLoop^$2^(lambda^(lambda^(logo_FWRT^$2^$3^$0)))))))^$2^(logo_DIVA^logo_UA^$1)^logo_UL^$0)))) 0.0076923
sided #(lambda^(lambda^(lambda^(#(lambda^(lambda^(lambda^(logo_forLoop^$2^(lambda^(lambda^(logo_FWRT^$2^$3^$0)))))))^$2^(logo_DIVA^logo_UA^$1)^logo_UL^$0)))) 0.0153846
5 #(lambda^(lambda^(lambda^(#(lambda^(lambda^(lambda^(logo_forLoop^$2^(lambda^(lambda^(logo_FWRT^$2^$3^$0)))))))^$2^(logo_DIVA^logo_UA^$1)^logo_UL^$0)))) 0.0153846
space #(lambda^(lambda^(lambda^(#(lambda^(lambda^(lambda^(logo_forLoop^$2^(lambda^(lambda^(logo_FWRT^$2^$3^$0)))))))^$2^(logo_DIVA^logo_UA^$1)^logo_UL^$0)))) 0.0153846
a #(lambda^(lambda^(lambda^(#(lambda^(lambda^(lambda^(logo_forLoop^$2^(lambda^(lambda^(logo_FWRT^$2^$3^$0)))))))^$2^(logo_DIVA^logo_UA^$1)^logo_UL^$0)))) 0.2153846
snowflake #(lambda^(lambda^(lambda^(#(lambda^(lambda^(lambda^(logo_forLoop^$2^(lambda^(lambda^(logo_FWRT^$2^$3^$0)))))))^$2^(logo_DIVA^logo_UA^$1)^logo_UL^$0)))) 0.0153846
short #(lambda^(lambda^(lambda^(#(lambda^(lambda^(lambda^(logo_forLoop^$2^(lambda^(lambda^(logo_FWRT^$2^$3^$0)))))))^$2^(logo_DIVA^logo_UA^$1)^logo_UL^$0)))) 0.0461538
in #(lambda^(lambda^(lambda^(#(lambda^(lambda^(lambda^(logo_forLoop^$2^(lambda^(lambda^(logo_FWRT^$2^$3^$0)))))))^$2^(logo_DIVA^logo_UA^$1)^logo_UL^$0)))) 0.0230769
connected #(lambda^(lambda^(lambda^(#(lambda^(lambda^(lambda^(logo_forLoop^$2^(lambda^(lambda^(logo_FWRT^$2^$3^$0)))))))^$2^(logo_DIVA^logo_UA^$1)^logo_UL^$0)))) 0.0230769
line #(lambda^(lambda^(lambda^(#(lambda^(lambda^(lambda^(logo_forLoop^$2^(lambda^(lambda^(logo_FWRT^$2^$3^$0)))))))^$2^(logo_DIVA^logo_UA^$1)^logo_UL^$0)))) 0.0153846
arms #(lambda^(lambda^(lambda^(#(lambda^(lambda^(lambda^(logo_forLoop^$2^(lambda^(lambda^(logo_FWRT^$2^$3^$0)))))))^$2^(logo_DIVA^logo_UA^$1)^logo_UL^$0)))) 0.0153846
as #(lambda^(lambda^(lambda^(#(lambda^(lambda^(lambda^(logo_forLoop^$2^(lambda^(lambda^(logo_FWRT^$2^$3^$0)))))))^$2^(logo_DIVA^logo_UA^$1)^logo_UL^$0)))) 0.0153846
and #(lambda^(lambda^(lambda^(#(lambda^(lambda^(lambda^(logo_forLoop^$2^(lambda^(lambda^(logo_FWRT^$2^$3^$0)))))))^$2^(logo_DIVA^logo_UA^$1)^logo_UL^$0)))) 0.0461538
with #(lambda^(lambda^(lambda^(#(lambda^(lambda^(lambda^(logo_forLoop^$2^(lambda^(lambda^(logo_FWRT^$2^$3^$0)))))))^$2^(logo_DIVA^logo_UA^$1)^logo_UL^$0)))) 0.0153846
small #(lambda^(lambda^(lambda^(#(lambda^(lambda^(lambda^(logo_forLoop^$2^(lambda^(lambda^(logo_FWRT^$2^$3^$0)))))))^$2^(logo_DIVA^logo_UA^$1)^logo_UL^$0)))) 0.4923077
row #(lambda^(lambda^(lambda^(#(lambda^(lambda^(lambda^(logo_forLoop^$2^(lambda^(lambda^(logo_FWRT^$2^$3^$0)))))))^$2^(logo_DIVA^logo_UA^$1)^logo_UL^$0)))) 0.0230769
a #(lambda^(lambda^(#(lambda^(lambda^(logo_forLoop^7^(lambda^(lambda^(#(#(lambda^(lambda^(lambda^(logo_forLoop^$2^(lambda^(lambda^(logo_FWRT^$2^$3^$0)))))))^logo_IFTY^logo_epsA)^$3^$0)))^$0)))^(logo_MULL^logo_epsL^$1)^$0))) 0.1190476
space #(lambda^(lambda^(#(lambda^(lambda^(logo_forLoop^7^(lambda^(lambda^(#(#(lambda^(lambda^(lambda^(logo_forLoop^$2^(lambda^(lambda^(logo_FWRT^$2^$3^$0)))))))^logo_IFTY^logo_epsA)^$3^$0)))^$0)))^(logo_MULL^logo_epsL^$1)^$0))) 0.0238095
s #(lambda^(lambda^(#(lambda^(lambda^(logo_forLoop^7^(lambda^(lambda^(#(#(lambda^(lambda^(lambda^(logo_forLoop^$2^(lambda^(lambda^(logo_FWRT^$2^$3^$0)))))))^logo_IFTY^logo_epsA)^$3^$0)))^$0)))^(logo_MULL^logo_epsL^$1)^$0))) 0.0119048
concentric #(lambda^(lambda^(#(lambda^(lambda^(logo_forLoop^7^(lambda^(lambda^(#(#(lambda^(lambda^(lambda^(logo_forLoop^$2^(lambda^(lambda^(logo_FWRT^$2^$3^$0)))))))^logo_IFTY^logo_epsA)^$3^$0)))^$0)))^(logo_MULL^logo_epsL^$1)^$0))) 0.0833333
