#(lambda^(logo_forLoop^9^(lambda^($1^(#(lambda^(lambda^(lambda^(logo_forLoop^$2^(lambda^(lambda^(logo_FWRT^$2^$3^$0)))))))^5^logo_epsA^logo_ZL))))) a 0.0044803
#(lambda^(logo_forLoop^9^(lambda^($1^(#(lambda^(lambda^(lambda^(logo_forLoop^$2^(lambda^(lambda^(logo_FWRT^$2^$3^$0)))))))^5^logo_epsA^logo_ZL))))) space 0.0054795
#(lambda^(logo_forLoop^9^(lambda^($1^(#(lambda^(lambda^(lambda^(logo_forLoop^$2^(lambda^(lambda^(logo_FWRT^$2^$3^$0)))))))^5^logo_epsA^logo_ZL))))) line 0.0037594
#(lambda^(logo_forLoop^9^(lambda^($1^(#(lambda^(lambda^(lambda^(logo_forLoop^$2^(lambda^(lambda^(logo_FWRT^$2^$3^$0)))))))^5^logo_epsA^logo_ZL))))) 8 0.0763889
#(lambda^(logo_forLoop^9^(lambda^($1^(#(lambda^(lambda^(lambda^(logo_forLoop^$2^(lambda^(lambda^(logo_FWRT^$2^$3^$0)))))))^5^logo_epsA^logo_ZL))))) sided 0.0286299
#(lambda^(logo_forLoop^9^(lambda^($1^(#(lambda^(lambda^(lambda^(logo_forLoop^$2^(lambda^(lambda^(logo_FWRT^$2^$3^$0)))))))^5^logo_epsA^logo_ZL))))) 5 0.0054054
#(lambda^(logo_forLoop^9^(lambda^($1^(#(lambda^(lambda^(lambda^(logo_forLoop^$2^(lambda^(lambda^(logo_FWRT^$2^$3^$0)))))))^5^logo_epsA^logo_ZL))))) short 0.0075853
#(lambda^(logo_forLoop^9^(lambda^($1^(#(lambda^(lambda^(lambda^(logo_forLoop^$2^(lambda^(lambda^(logo_FWRT^$2^$3^$0)))))))^5^logo_epsA^logo_ZL))))) and 0.0078637
#(lambda^(logo_forLoop^9^(lambda^($1^(#(lambda^(lambda^(lambda^(logo_forLoop^$2^(lambda^(lambda^(logo_FWRT^$2^$3^$0)))))))^5^logo_epsA^logo_ZL))))) snowflake 0.0280000
#(lambda^(logo_forLoop^9^(lambda^($1^(#(lambda^(lambda^(lambda^(logo_forLoop^$2^(lambda^(lambda^(logo_FWRT^$2^$3^$0)))))))^5^logo_epsA^logo_ZL))))) with 0.0282258
#(lambda^(logo_forLoop^9^(lambda^($1^(#(lambda^(lambda^(lambda^(logo_forLoop^$2^(lambda^(lambda^(logo_FWRT^$2^$3^$0)))))))^5^logo_epsA^logo_ZL))))) small 0.0027624
#(lambda^(logo_forLoop^9^(lambda^($1^(#(lambda^(lambda^(lambda^(logo_forLoop^$2^(lambda^(lambda^(logo_FWRT^$2^$3^$0)))))))^5^logo_epsA^logo_ZL))))) arms 0.0243408
#(lambda^(logo_forLoop^9^(lambda^($1^(#(lambda^(lambda^(lambda^(logo_forLoop^$2^(lambda^(lambda^(logo_FWRT^$2^$3^$0)))))))^5^logo_epsA^logo_ZL))))) as 0.0241935
#(lambda^(logo_forLoop^9^(lambda^($1^(#(lambda^(lambda^(lambda^(logo_forLoop^$2^(lambda^(lambda^(logo_FWRT^$2^$3^$0)))))))^5^logo_epsA^logo_ZL))))) zigzag 0.0714286
logo_ZL line 0.0037594
logo_ZL a 0.0349462
logo_ZL space 0.0054795
logo_ZL sided 0.0040900
logo_ZL big 0.0160000
logo_ZL 5 0.0054054
logo_ZL 6 0.0215827
logo_ZL circle 0.0071942
logo_ZL with 0.0040323
logo_ZL small 0.0027624
logo_ZL snowflake 0.0040000
logo_ZL short 0.0075853
logo_ZL and 0.0078637
logo_ZL arms 0.0040568
logo_ZL as 0.0201613
logo_GETSET arms 0.0040568
logo_GETSET greek 0.3750000
logo_GETSET as 0.0040323
logo_GETSET and 0.0078637
logo_GETSET staircase 0.0952381
logo_GETSET small 0.0027624
logo_GETSET with 0.0040323
logo_GETSET circle 0.0071942
logo_GETSET medium 0.0074074
logo_GETSET line 0.0037594
logo_GETSET semicircle 0.1020408
logo_GETSET short 0.0075853
logo_GETSET snowflake 0.0060000
logo_GETSET sided 0.0040900
logo_GETSET 5 0.0054054
logo_GETSET s 0.0172414
logo_GETSET space 0.0054795
logo_GETSET a 0.0358423
SIX gon 0.0173697
SIX 6 0.8705036
SIX sided 0.0040900
SIX 5 0.0054054
SIX space 0.0054795
SIX a 0.0062724
SIX concentric 0.0476190
SIX snowflake 0.0040000
SIX short 0.0075853
SIX medium 0.0049383
SIX line 0.0037594
SIX arms 0.0040568
SIX as 0.0040323
SIX and 0.0078637
SIX small 0.0027624
SIX with 0.0040323
NINE concentric 0.0285714
NINE space 0.0054795
NINE a 0.0412186
NINE 5 0.0054054
NINE sided 0.0040900
NINE big 0.0640000
NINE 8 0.0763889
NINE gon 0.1290323
NINE from 0.0833333
NINE to 0.0121951
NINE 9 0.9423077
NINE separated 0.1851852
NINE short 0.0075853
NINE snowflake 0.0040000
NINE spiral 0.1428571
NINE square 0.0058140
NINE line 0.0037594
NINE medium 0.0024691
NINE connected 0.1111111
NINE with 0.0040323
NINE small 0.0082873
NINE by 0.1496063
NINE and 0.0078637
NINE as 0.0040323
NINE arms 0.0040568
#(lambda^(lambda^(lambda^(lambda^($3^(lambda^(lambda^(logo_FWRT^logo_ZL^(logo_DIVA^logo_UA^$4)^($3^$0))))^$0))))) with 0.0040323
#(lambda^(lambda^(lambda^(lambda^($3^(lambda^(lambda^(logo_FWRT^logo_ZL^(logo_DIVA^logo_UA^$4)^($3^$0))))^$0))))) small 0.0027624
#(lambda^(lambda^(lambda^(lambda^($3^(lambda^(lambda^(logo_FWRT^logo_ZL^(logo_DIVA^logo_UA^$4)^($3^$0))))^$0))))) snowflake 0.0040000
#(lambda^(lambda^(lambda^(lambda^($3^(lambda^(lambda^(logo_FWRT^logo_ZL^(logo_DIVA^logo_UA^$4)^($3^$0))))^$0))))) short 0.0075853
#(lambda^(lambda^(lambda^(lambda^($3^(lambda^(lambda^(logo_FWRT^logo_ZL^(logo_DIVA^logo_UA^$4)^($3^$0))))^$0))))) and 0.0078637
#(lambda^(lambda^(lambda^(lambda^($3^(lambda^(lambda^(logo_FWRT^logo_ZL^(logo_DIVA^logo_UA^$4)^($3^$0))))^$0))))) arms 0.0040568
#(lambda^(lambda^(lambda^(lambda^($3^(lambda^(lambda^(logo_FWRT^logo_ZL^(logo_DIVA^logo_UA^$4)^($3^$0))))^$0))))) as 0.0040323
#(lambda^(lambda^(lambda^(lambda^($3^(lambda^(lambda^(logo_FWRT^logo_ZL^(logo_DIVA^logo_UA^$4)^($3^$0))))^$0))))) line 0.0037594
#(lambda^(lambda^(lambda^(lambda^($3^(lambda^(lambda^(logo_FWRT^logo_ZL^(logo_DIVA^logo_UA^$4)^($3^$0))))^$0))))) a 0.0044803
#(lambda^(lambda^(lambda^(lambda^($3^(lambda^(lambda^(logo_FWRT^logo_ZL^(logo_DIVA^logo_UA^$4)^($3^$0))))^$0))))) space 0.0054795
#(lambda^(lambda^(lambda^(lambda^($3^(lambda^(lambda^(logo_FWRT^logo_ZL^(logo_DIVA^logo_UA^$4)^($3^$0))))^$0))))) sided 0.0040900
#(lambda^(lambda^(lambda^(lambda^($3^(lambda^(lambda^(logo_FWRT^logo_ZL^(logo_DIVA^logo_UA^$4)^($3^$0))))^$0))))) 5 0.0054054
#(lambda^(lambda^(lambda^(lambda^($3^(lambda^(lambda^(logo_FWRT^logo_ZL^(logo_DIVA^logo_UA^$3)^($4^$0))))^$0))))) sided 0.0040900
#(lambda^(lambda^(lambda^(lambda^($3^(lambda^(lambda^(logo_FWRT^logo_ZL^(logo_DIVA^logo_UA^$3)^($4^$0))))^$0))))) 5 0.0054054
#(lambda^(lambda^(lambda^(lambda^($3^(lambda^(lambda^(logo_FWRT^logo_ZL^(logo_DIVA^logo_UA^$3)^($4^$0))))^$0))))) space 0.0054795
#(lambda^(lambda^(lambda^(lambda^($3^(lambda^(lambda^(logo_FWRT^logo_ZL^(logo_DIVA^logo_UA^$3)^($4^$0))))^$0))))) a 0.0044803
#(lambda^(lambda^(lambda^(lambda^($3^(lambda^(lambda^(logo_FWRT^logo_ZL^(logo_DIVA^logo_UA^$3)^($4^$0))))^$0))))) line 0.0037594
#(lambda^(lambda^(lambda^(lambda^($3^(lambda^(lambda^(logo_FWRT^logo_ZL^(logo_DIVA^logo_UA^$3)^($4^$0))))^$0))))) arms 0.0040568
#(lambda^(lambda^(lambda^(lambda^($3^(lambda^(lambda^(logo_FWRT^logo_ZL^(logo_DIVA^logo_UA^$3)^($4^$0))))^$0))))) as 0.0040323
#(lambda^(lambda^(lambda^(lambda^($3^(lambda^(lambda^(logo_FWRT^logo_ZL^(logo_DIVA^logo_UA^$3)^($4^$0))))^$0))))) short 0.0075853
#(lambda^(lambda^(lambda^(lambda^($3^(lambda^(lambda^(logo_FWRT^logo_ZL^(logo_DIVA^logo_UA^$3)^($4^$0))))^$0))))) and 0.0078637
#(lambda^(lambda^(lambda^(lambda^($3^(lambda^(lambda^(logo_FWRT^logo_ZL^(logo_DIVA^logo_UA^$3)^($4^$0))))^$0))))) snowflake 0.0040000
#(lambda^(lambda^(lambda^(lambda^($3^(lambda^(lambda^(logo_FWRT^logo_ZL^(logo_DIVA^logo_UA^$3)^($4^$0))))^$0))))) small 0.0027624
#(lambda^(lambda^(lambda^(lambda^($3^(lambda^(lambda^(logo_FWRT^logo_ZL^(logo_DIVA^logo_UA^$3)^($4^$0))))^$0))))) with 0.0040323
#(lambda^(lambda^(lambda^(#(lambda^(lambda^(lambda^(lambda^(#(lambda^(lambda^(#(lambda^(lambda^(lambda^(#(lambda^(lambda^(lambda^(logo_forLoop^$2^(lambda^(lambda^(logo_FWRT^$2^$3^$0)))))))^$2^(logo_DIVA^logo_UA^$1)^logo_UL^$0))))^$1^$1^$0)))^$1^(#(lambda^(logo_PT^(lambda^(#(lambda^(logo_forLoop^$0^(lambda^(lambda^(#(lambda^(#(lambda^(lambda^(lambda^(logo_forLoop^$2^(lambda^(lambda^(logo_FWRT^$2^$3^$0)))))))^$0^(logo_DIVA^logo_UA^5)^logo_UL))^5^(logo_FWRT^logo_UL^logo_UA^$0))))))^$1^$0))))^$2^($3^$0)))))))^(lambda^($3^$0))^2^$1^$0)))) arms 0.0040568
#(lambda^(lambda^(lambda^(#(lambda^(lambda^(lambda^(lambda^(#(lambda^(lambda^(#(lambda^(lambda^(lambda^(#(lambda^(lambda^(lambda^(logo_forLoop^$2^(lambda^(lambda^(logo_FWRT^$2^$3^$0)))))))^$2^(logo_DIVA^logo_UA^$1)^logo_UL^$0))))^$1^$1^$0)))^$1^(#(lambda^(logo_PT^(lambda^(#(lambda^(logo_forLoop^$0^(lambda^(lambda^(#(lambda^(#(lambda^(lambda^(lambda^(logo_forLoop^$2^(lambda^(lambda^(logo_FWRT^$2^$3^$0)))))))^$0^(logo_DIVA^logo_UA^5)^logo_UL))^5^(logo_FWRT^logo_UL^logo_UA^$0))))))^$1^$0))))^$2^($3^$0)))))))^(lambda^($3^$0))^2^$1^$0)))) next 0.2400000
#(lambda^(lambda^(lambda^(#(lambda^(lambda^(lambda^(lambda^(#(lambda^(lambda^(#(lambda^(lambda^(lambda^(#(lambda^(lambda^(lambda^(logo_forLoop^$2^(lambda^(lambda^(logo_FWRT^$2^$3^$0)))))))^$2^(logo_DIVA^logo_UA^$1)^logo_UL^$0))))^$1^$1^$0)))^$1^(#(lambda^(logo_PT^(lambda^(#(lambda^(logo_forLoop^$0^(lambda^(lambda^(#(lambda^(#(lambda^(lambda^(lambda^(logo_forLoop^$2^(lambda^(lambda^(logo_FWRT^$2^$3^$0)))))))^$0^(logo_DIVA^logo_UA^5)^logo_UL))^5^(logo_FWRT^logo_UL^logo_UA^$0))))))^$1^$0))))^$2^($3^$0)))))))^(lambda^($3^$0))^2^$1^$0)))) as 0.0040323
#(lambda^(lambda^(lambda^(#(lambda^(lambda^(lambda^(lambda^(#(lambda^(lambda^(#(lambda^(lambda^(lambda^(#(lambda^(lambda^(lambda^(logo_forLoop^$2^(lambda^(lambda^(logo_FWRT^$2^$3^$0)))))))^$2^(logo_DIVA^logo_UA^$1)^logo_UL^$0))))^$1^$1^$0)))^$1^(#(lambda^(logo_PT^(lambda^(#(lambda^(logo_forLoop^$0^(lambda^(lambda^(#(lambda^(#(lambda^(lambda^(lambda^(logo_forLoop^$2^(lambda^(lambda^(logo_FWRT^$2^$3^$0)))))))^$0^(logo_DIVA^logo_UA^5)^logo_UL))^5^(logo_FWRT^logo_UL^logo_UA^$0))))))^$1^$0))))^$2^($3^$0)))))))^(lambda^($3^$0))^2^$1^$0)))) with 0.0040323
#(lambda^(lambda^(lambda^(#(lambda^(lambda^(lambda^(lambda^(#(lambda^(lambda^(#(lambda^(lambda^(lambda^(#(lambda^(lambda^(lambda^(logo_forLoop^$2^(lambda^(lambda^(logo_FWRT^$2^$3^$0)))))))^$2^(logo_DIVA^logo_UA^$1)^logo_UL^$0))))^$1^$1^$0)))^$1^(#(lambda^(logo_PT^(lambda^(#(lambda^(logo_forLoop^$0^(lambda^(lambda^(#(lambda^(#(lambda^(lambda^(lambda^(logo_forLoop^$2^(lambda^(lambda^(logo_FWRT^$2^$3^$0)))))))^$0^(logo_DIVA^logo_UA^5)^logo_UL))^5^(logo_FWRT^logo_UL^logo_UA^$0))))))^$1^$0))))^$2^($3^$0)))))))^(lambda^($3^$0))^2^$1^$0)))) small 0.0165746
#(lambda^(lambda^(lambda^(#(lambda^(lambda^(lambda^(lambda^(#(lambda^(lambda^(#(lambda^(lambda^(lambda^(#(lambda^(lambda^(lambda^(logo_forLoop^$2^(lambda^(lambda^(logo_FWRT^$2^$3^$0)))))))^$2^(logo_DIVA^logo_UA^$1)^logo_UL^$0))))^$1^$1^$0)))^$1^(#(lambda^(logo_PT^(lambda^(#(lambda^(logo_forLoop^$0^(lambda^(lambda^(#(lambda^(#(lambda^(lambda^(lambda^(logo_forLoop^$2^(lambda^(lambda^(logo_FWRT^$2^$3^$0)))))))^$0^(logo_DIVA^logo_UA^5)^logo_UL))^5^(logo_FWRT^logo_UL^logo_UA^$0))))))^$1^$0))))^$2^($3^$0)))))))^(lambda^($3^$0))^2^$1^$0)))) to 0.1219512
#(lambda^(lambda^(lambda^(#(lambda^(lambda^(lambda^(lambda^(#(lambda^(lambda^(#(lambda^(lambda^(lambda^(#(lambda^(lambda^(lambda^(logo_forLoop^$2^(lambda^(lambda^(logo_FWRT^$2^$3^$0)))))))^$2^(logo_DIVA^logo_UA^$1)^logo_UL^$0))))^$1^$1^$0)))^$1^(#(lambda^(logo_PT^(lambda^(#(lambda^(logo_forLoop^$0^(lambda^(lambda^(#(lambda^(#(lambda^(lambda^(lambda^(logo_forLoop^$2^(lambda^(lambda^(logo_FWRT^$2^$3^$0)))))))^$0^(logo_DIVA^logo_UA^5)^logo_UL))^5^(logo_FWRT^logo_UL^logo_UA^$0))))))^$1^$0))))^$2^($3^$0)))))))^(lambda^($3^$0))^2^$1^$0)))) and 0.0078637
#(lambda^(lambda^(lambda^(#(lambda^(lambda^(lambda^(lambda^(#(lambda^(lambda^(#(lambda^(lambda^(lambda^(#(lambda^(lambda^(lambda^(logo_forLoop^$2^(lambda^(lambda^(logo_FWRT^$2^$3^$0)))))))^$2^(logo_DIVA^logo_UA^$1)^logo_UL^$0))))^$1^$1^$0)))^$1^(#(lambda^(logo_PT^(lambda^(#(lambda^(logo_forLoop^$0^(lambda^(lambda^(#(lambda^(#(lambda^(lambda^(lambda^(logo_forLoop^$2^(lambda^(lambda^(logo_FWRT^$2^$3^$0)))))))^$0^(logo_DIVA^logo_UA^5)^logo_UL))^5^(logo_FWRT^logo_UL^logo_UA^$0))))))^$1^$0))))^$2^($3^$0)))))))^(lambda^($3^$0))^2^$1^$0)))) short 0.0075853
#(lambda^(lambda^(lambda^(#(lambda^(lambda^(lambda^(lambda^(#(lambda^(lambda^(#(lambda^(lambda^(lambda^(#(lambda^(lambda^(lambda^(logo_forLoop^$2^(lambda^(lambda^(logo_FWRT^$2^$3^$0)))))))^$2^(logo_DIVA^logo_UA^$1)^logo_UL^$0))))^$1^$1^$0)))^$1^(#(lambda^(logo_PT^(lambda^(#(lambda^(logo_forLoop^$0^(lambda^(lambda^(#(lambda^(#(lambda^(lambda^(lambda^(logo_forLoop^$2^(lambda^(lambda^(logo_FWRT^$2^$3^$0)))))))^$0^(logo_DIVA^logo_UA^5)^logo_UL))^5^(logo_FWRT^logo_UL^logo_UA^$0))))))^$1^$0))))^$2^($3^$0)))))))^(lambda^($3^$0))^2^$1^$0)))) snowflake 0.0040000
#(lambda^(lambda^(lambda^(#(lambda^(lambda^(lambda^(lambda^(#(lambda^(lambda^(#(lambda^(lambda^(lambda^(#(lambda^(lambda^(lambda^(logo_forLoop^$2^(lambda^(lambda^(logo_FWRT^$2^$3^$0)))))))^$2^(logo_DIVA^logo_UA^$1)^logo_UL^$0))))^$1^$1^$0)))^$1^(#(lambda^(logo_PT^(lambda^(#(lambda^(logo_forLoop^$0^(lambda^(lambda^(#(lambda^(#(lambda^(lambda^(lambda^(logo_forLoop^$2^(lambda^(lambda^(logo_FWRT^$2^$3^$0)))))))^$0^(logo_DIVA^logo_UA^5)^logo_UL))^5^(logo_FWRT^logo_UL^logo_UA^$0))))))^$1^$0))))^$2^($3^$0)))))))^(lambda^($3^$0))^2^$1^$0)))) sided 0.0040900
#(lambda^(lambda^(lambda^(#(lambda^(lambda^(lambda^(lambda^(#(lambda^(lambda^(#(lambda^(lambda^(lambda^(#(lambda^(lambda^(lambda^(logo_forLoop^$2^(lambda^(lambda^(logo_FWRT^$2^$3^$0)))))))^$2^(logo_DIVA^logo_UA^$1)^logo_UL^$0))))^$1^$1^$0)))^$1^(#(lambda^(logo_PT^(lambda^(#(lambda^(logo_forLoop^$0^(lambda^(lambda^(#(lambda^(#(lambda^(lambda^(lambda^(logo_forLoop^$2^(lambda^(lambda^(logo_FWRT^$2^$3^$0)))))))^$0^(logo_DIVA^logo_UA^5)^logo_UL))^5^(logo_FWRT^logo_UL^logo_UA^$0))))))^$1^$0))))^$2^($3^$0)))))))^(lambda^($3^$0))^2^$1^$0)))) 5 0.0054054
#(lambda^(lambda^(lambda^(#(lambda^(lambda^(lambda^(lambda^(#(lambda^(lambda^(#(lambda^(lambda^(lambda^(#(lambda^(lambda^(lambda^(logo_forLoop^$2^(lambda^(lambda^(logo_FWRT^$2^$3^$0)))))))^$2^(logo_DIVA^logo_UA^$1)^logo_UL^$0))))^$1^$1^$0)))^$1^(#(lambda^(logo_PT^(lambda^(#(lambda^(logo_forLoop^$0^(lambda^(lambda^(#(lambda^(#(lambda^(lambda^(lambda^(logo_forLoop^$2^(lambda^(lambda^(logo_FWRT^$2^$3^$0)))))))^$0^(logo_DIVA^logo_UA^5)^logo_UL))^5^(logo_FWRT^logo_UL^logo_UA^$0))))))^$1^$0))))^$2^($3^$0)))))))^(lambda^($3^$0))^2^$1^$0)))) gon 0.0645161
#(lambda^(lambda^(lambda^(#(lambda^(lambda^(lambda^(lambda^(#(lambda^(lambda^(#(lambda^(lambda^(lambda^(#(lambda^(lambda^(lambda^(logo_forLoop^$2^(lambda^(lambda^(logo_FWRT^$2^$3^$0)))))))^$2^(logo_DIVA^logo_UA^$1)^logo_UL^$0))))^$1^$1^$0)))^$1^(#(lambda^(logo_PT^(lambda^(#(lambda^(logo_forLoop^$0^(lambda^(lambda^(#(lambda^(#(lambda^(lambda^(lambda^(logo_forLoop^$2^(lambda^(lambda^(logo_FWRT^$2^$3^$0)))))))^$0^(logo_DIVA^logo_UA^5)^logo_UL))^5^(logo_FWRT^logo_UL^logo_UA^$0))))))^$1^$0))))^$2^($3^$0)))))))^(lambda^($3^$0))^2^$1^$0)))) line 0.0037594
#(lambda^(lambda^(lambda^(#(lambda^(lambda^(lambda^(lambda^(#(lambda^(lambda^(#(lambda^(lambda^(lambda^(#(lambda^(lambda^(lambda^(logo_forLoop^$2^(lambda^(lambda^(logo_FWRT^$2^$3^$0)))))))^$2^(logo_DIVA^logo_UA^$1)^logo_UL^$0))))^$1^$1^$0)))^$1^(#(lambda^(logo_PT^(lambda^(#(lambda^(logo_forLoop^$0^(lambda^(lambda^(#(lambda^(#(lambda^(lambda^(lambda^(logo_forLoop^$2^(lambda^(lambda^(logo_FWRT^$2^$3^$0)))))))^$0^(logo_DIVA^logo_UA^5)^logo_UL))^5^(logo_FWRT^logo_UL^logo_UA^$0))))))^$1^$0))))^$2^($3^$0)))))))^(lambda^($3^$0))^2^$1^$0)))) space 0.0082192
#(lambda^(lambda^(lambda^(#(lambda^(lambda^(lambda^(lambda^(#(lambda^(lambda^(#(lambda^(lambda^(lambda^(#(lambda^(lambda^(lambda^(logo_forLoop^$2^(lambda^(lambda^(logo_FWRT^$2^$3^$0)))))))^$2^(logo_DIVA^logo_UA^$1)^logo_UL^$0))))^$1^$1^$0)))^$1^(#(lambda^(logo_PT^(lambda^(#(lambda^(logo_forLoop^$0^(lambda^(lambda^(#(lambda^(#(lambda^(lambda^(lambda^(logo_forLoop^$2^(lambda^(lambda^(logo_FWRT^$2^$3^$0)))))))^$0^(logo_DIVA^logo_UA^5)^logo_UL))^5^(logo_FWRT^logo_UL^logo_UA^$0))))))^$1^$0))))^$2^($3^$0)))))))^(lambda^($3^$0))^2^$1^$0)))) a 0.0031362
logo_forLoop snowflake 0.0040000
logo_forLoop short 0.0075853
logo_forLoop 5 0.0054054
logo_forLoop sided 0.0040900
logo_forLoop concentric 0.0285714
logo_forLoop s 0.0818966
logo_forLoop space 0.0054795
logo_forLoop a 0.0044803
logo_forLoop triangle 0.0065359
logo_forLoop as 0.0040323
logo_forLoop arms 0.0040568
logo_forLoop row 0.1900000
logo_forLoop with 0.0040323
logo_forLoop small 0.0027624
logo_forLoop and 0.0078637
logo_forLoop in 0.1747573
logo_forLoop circle 0.0179856
logo_forLoop semicircle 0.0204082
logo_forLoop medium 0.0271605
logo_forLoop line 0.0037594
#(lambda^(lambda^(lambda^(lambda^($1^(lambda^(lambda^(logo_FWRT^logo_ZL^(logo_DIVA^logo_UA^$4)^($5^$0))))^$0))))) line 0.0037594
#(lambda^(lambda^(lambda^(lambda^($1^(lambda^(lambda^(logo_FWRT^logo_ZL^(logo_DIVA^logo_UA^$4)^($5^$0))))^$0))))) space 0.0054795
#(lambda^(lambda^(lambda^(lambda^($1^(lambda^(lambda^(logo_FWRT^logo_ZL^(logo_DIVA^logo_UA^$4)^($5^$0))))^$0))))) a 0.0044803
#(lambda^(lambda^(lambda^(lambda^($1^(lambda^(lambda^(logo_FWRT^logo_ZL^(logo_DIVA^logo_UA^$4)^($5^$0))))^$0))))) sided 0.0040900
#(lambda^(lambda^(lambda^(lambda^($1^(lambda^(lambda^(logo_FWRT^logo_ZL^(logo_DIVA^logo_UA^$4)^($5^$0))))^$0))))) 5 0.0054054
#(lambda^(lambda^(lambda^(lambda^($1^(lambda^(lambda^(logo_FWRT^logo_ZL^(logo_DIVA^logo_UA^$4)^($5^$0))))^$0))))) small 0.0027624
#(lambda^(lambda^(lambda^(lambda^($1^(lambda^(lambda^(logo_FWRT^logo_ZL^(logo_DIVA^logo_UA^$4)^($5^$0))))^$0))))) with 0.0040323
#(lambda^(lambda^(lambda^(lambda^($1^(lambda^(lambda^(logo_FWRT^logo_ZL^(logo_DIVA^logo_UA^$4)^($5^$0))))^$0))))) and 0.0078637
#(lambda^(lambda^(lambda^(lambda^($1^(lambda^(lambda^(logo_FWRT^logo_ZL^(logo_DIVA^logo_UA^$4)^($5^$0))))^$0))))) short 0.0075853
#(lambda^(lambda^(lambda^(lambda^($1^(lambda^(lambda^(logo_FWRT^logo_ZL^(logo_DIVA^logo_UA^$4)^($5^$0))))^$0))))) snowflake 0.0040000
#(lambda^(lambda^(lambda^(lambda^($1^(lambda^(lambda^(logo_FWRT^logo_ZL^(logo_DIVA^logo_UA^$4)^($5^$0))))^$0))))) arms 0.0040568
#(lambda^(lambda^(lambda^(lambda^($1^(lambda^(lambda^(logo_FWRT^logo_ZL^(logo_DIVA^logo_UA^$4)^($5^$0))))^$0))))) as 0.0040323
#(lambda^(lambda^(#(lambda^(lambda^(lambda^(lambda^(logo_forLoop^$2^(lambda^(lambda^(logo_GETSET^(lambda^(#(lambda^(lambda^(lambda^(logo_forLoop^$2^(lambda^(lambda^(logo_FWRT^$2^$3^$0)))))))^$4^(logo_DIVA^logo_UA^$6)^(logo_MULL^logo_UL^$2)^$0))^$0)))^$0)))))^$1^5^$1^$0))) arms 0.0040568
#(lambda^(lambda^(#(lambda^(lambda^(lambda^(lambda^(logo_forLoop^$2^(lambda^(lambda^(logo_GETSET^(lambda^(#(lambda^(lambda^(lambda^(logo_forLoop^$2^(lambda^(lambda^(logo_FWRT^$2^$3^$0)))))))^$4^(logo_DIVA^logo_UA^$6)^(logo_MULL^logo_UL^$2)^$0))^$0)))^$0)))))^$1^5^$1^$0))) as 0.0040323
#(lambda^(lambda^(#(lambda^(lambda^(lambda^(lambda^(logo_forLoop^$2^(lambda^(lambda^(logo_GETSET^(lambda^(#(lambda^(lambda^(lambda^(logo_forLoop^$2^(lambda^(lambda^(logo_FWRT^$2^$3^$0)))))))^$4^(logo_DIVA^logo_UA^$6)^(logo_MULL^logo_UL^$2)^$0))^$0)))^$0)))))^$1^5^$1^$0))) small 0.0027624
#(lambda^(lambda^(#(lambda^(lambda^(lambda^(lambda^(logo_forLoop^$2^(lambda^(lambda^(logo_GETSET^(lambda^(#(lambda^(lambda^(lambda^(logo_forLoop^$2^(lambda^(lambda^(logo_FWRT^$2^$3^$0)))))))^$4^(logo_DIVA^logo_UA^$6)^(logo_MULL^logo_UL^$2)^$0))^$0)))^$0)))))^$1^5^$1^$0))) with 0.0040323
#(lambda^(lambda^(#(lambda^(lambda^(lambda^(lambda^(logo_forLoop^$2^(lambda^(lambda^(logo_GETSET^(lambda^(#(lambda^(lambda^(lambda^(logo_forLoop^$2^(lambda^(lambda^(logo_FWRT^$2^$3^$0)))))))^$4^(logo_DIVA^logo_UA^$6)^(logo_MULL^logo_UL^$2)^$0))^$0)))^$0)))))^$1^5^$1^$0))) and 0.0078637
#(lambda^(lambda^(#(lambda^(lambda^(lambda^(lambda^(logo_forLoop^$2^(lambda^(lambda^(logo_GETSET^(lambda^(#(lambda^(lambda^(lambda^(logo_forLoop^$2^(lambda^(lambda^(logo_FWRT^$2^$3^$0)))))))^$4^(logo_DIVA^logo_UA^$6)^(logo_MULL^logo_UL^$2)^$0))^$0)))^$0)))))^$1^5^$1^$0))) short 0.0075853
#(lambda^(lambda^(#(lambda^(lambda^(lambda^(lambda^(logo_forLoop^$2^(lambda^(lambda^(logo_GETSET^(lambda^(#(lambda^(lambda^(lambda^(logo_forLoop^$2^(lambda^(lambda^(logo_FWRT^$2^$3^$0)))))))^$4^(logo_DIVA^logo_UA^$6)^(logo_MULL^logo_UL^$2)^$0))^$0)))^$0)))))^$1^5^$1^$0))) snowflake 0.0040000
#(lambda^(lambda^(#(lambda^(lambda^(lambda^(lambda^(logo_forLoop^$2^(lambda^(lambda^(logo_GETSET^(lambda^(#(lambda^(lambda^(lambda^(logo_forLoop^$2^(lambda^(lambda^(logo_FWRT^$2^$3^$0)))))))^$4^(logo_DIVA^logo_UA^$6)^(logo_MULL^logo_UL^$2)^$0))^$0)))^$0)))))^$1^5^$1^$0))) sided 0.0040900
#(lambda^(lambda^(#(lambda^(lambda^(lambda^(lambda^(logo_forLoop^$2^(lambda^(lambda^(logo_GETSET^(lambda^(#(lambda^(lambda^(lambda^(logo_forLoop^$2^(lambda^(lambda^(logo_FWRT^$2^$3^$0)))))))^$4^(logo_DIVA^logo_UA^$6)^(logo_MULL^logo_UL^$2)^$0))^$0)))^$0)))))^$1^5^$1^$0))) 5 0.0054054
#(lambda^(lambda^(#(lambda^(lambda^(lambda^(lambda^(logo_forLoop^$2^(lambda^(lambda^(logo_GETSET^(lambda^(#(lambda^(lambda^(lambda^(logo_forLoop^$2^(lambda^(lambda^(logo_FWRT^$2^$3^$0)))))))^$4^(logo_DIVA^logo_UA^$6)^(logo_MULL^logo_UL^$2)^$0))^$0)))^$0)))))^$1^5^$1^$0))) line 0.0037594
#(lambda^(lambda^(#(lambda^(lambda^(lambda^(lambda^(logo_forLoop^$2^(lambda^(lambda^(logo_GETSET^(lambda^(#(lambda^(lambda^(lambda^(logo_forLoop^$2^(lambda^(lambda^(logo_FWRT^$2^$3^$0)))))))^$4^(logo_DIVA^logo_UA^$6)^(logo_MULL^logo_UL^$2)^$0))^$0)))^$0)))))^$1^5^$1^$0))) concentric 0.0571429
#(lambda^(lambda^(#(lambda^(lambda^(lambda^(lambda^(logo_forLoop^$2^(lambda^(lambda^(logo_GETSET^(lambda^(#(lambda^(lambda^(lambda^(logo_forLoop^$2^(lambda^(lambda^(logo_FWRT^$2^$3^$0)))))))^$4^(logo_DIVA^logo_UA^$6)^(logo_MULL^logo_UL^$2)^$0))^$0)))^$0)))))^$1^5^$1^$0))) s 0.0258621
#(lambda^(lambda^(#(lambda^(lambda^(lambda^(lambda^(logo_forLoop^$2^(lambda^(lambda^(logo_GETSET^(lambda^(#(lambda^(lambda^(lambda^(logo_forLoop^$2^(lambda^(lambda^(logo_FWRT^$2^$3^$0)))))))^$4^(logo_DIVA^logo_UA^$6)^(logo_MULL^logo_UL^$2)^$0))^$0)))^$0)))))^$1^5^$1^$0))) space 0.0054795
#(lambda^(lambda^(#(lambda^(lambda^(lambda^(lambda^(logo_forLoop^$2^(lambda^(lambda^(logo_GETSET^(lambda^(#(lambda^(lambda^(lambda^(logo_forLoop^$2^(lambda^(lambda^(logo_FWRT^$2^$3^$0)))))))^$4^(logo_DIVA^logo_UA^$6)^(logo_MULL^logo_UL^$2)^$0))^$0)))^$0)))))^$1^5^$1^$0))) a 0.0044803
#(lambda^(lambda^(#(lambda^(lambda^(lambda^(#(lambda^(lambda^(#(lambda^(logo_forLoop^9^(lambda^($1^(#(lambda^(lambda^(lambda^(logo_forLoop^$2^(lambda^(lambda^(logo_FWRT^$2^$3^$0)))))))^5^logo_epsA^logo_ZL)))))^(lambda^(lambda^(#(lambda^(lambda^(lambda^(lambda^(logo_FWRT^$2^(logo_DIVA^logo_UA^$1)^($3^$0))))))^$2^logo_ZL^$3^$0))))))^$0^(lambda^(logo_GETSET^(lambda^(#(lambda^(logo_PT^(lambda^(#(lambda^(logo_forLoop^$0^(lambda^(lambda^(#(lambda^(#(lambda^(lambda^(lambda^(logo_forLoop^$2^(lambda^(lambda^(logo_FWRT^$2^$3^$0)))))))^$0^(logo_DIVA^logo_UA^5)^logo_UL))^5^(logo_FWRT^logo_UL^logo_UA^$0))))))^$1^$0))))^$3^($4^$0)))^$0))))))^(lambda^(#(lambda^(lambda^(#(lambda^(lambda^(lambda^(#(lambda^(lambda^(lambda^(logo_forLoop^$2^(lambda^(lambda^(logo_FWRT^$2^$3^$0)))))))^$2^(logo_DIVA^logo_UA^$1)^logo_UL^$0))))^$1^$1^$0)))^$2^($1^$0)))))) sided 0.0040900
#(lambda^(lambda^(#(lambda^(lambda^(lambda^(#(lambda^(lambda^(#(lambda^(logo_forLoop^9^(lambda^($1^(#(lambda^(lambda^(lambda^(logo_forLoop^$2^(lambda^(lambda^(logo_FWRT^$2^$3^$0)))))))^5^logo_epsA^logo_ZL)))))^(lambda^(lambda^(#(lambda^(lambda^(lambda^(lambda^(logo_FWRT^$2^(logo_DIVA^logo_UA^$1)^($3^$0))))))^$2^logo_ZL^$3^$0))))))^$0^(lambda^(logo_GETSET^(lambda^(#(lambda^(logo_PT^(lambda^(#(lambda^(logo_forLoop^$0^(lambda^(lambda^(#(lambda^(#(lambda^(lambda^(lambda^(logo_forLoop^$2^(lambda^(lambda^(logo_FWRT^$2^$3^$0)))))))^$0^(logo_DIVA^logo_UA^5)^logo_UL))^5^(logo_FWRT^logo_UL^logo_UA^$0))))))^$1^$0))))^$3^($4^$0)))^$0))))))^(lambda^(#(lambda^(lambda^(#(lambda^(lambda^(lambda^(#(lambda^(lambda^(lambda^(logo_forLoop^$2^(lambda^(lambda^(logo_FWRT^$2^$3^$0)))))))^$2^(logo_DIVA^logo_UA^$1)^logo_UL^$0))))^$1^$1^$0)))^$2^($1^$0)))))) 5 0.0054054
#(lambda^(lambda^(#(lambda^(lambda^(lambda^(#(lambda^(lambda^(#(lambda^(logo_forLoop^9^(lambda^($1^(#(lambda^(lambda^(lambda^(logo_forLoop^$2^(lambda^(lambda^(logo_FWRT^$2^$3^$0)))))))^5^logo_epsA^logo_ZL)))))^(lambda^(lambda^(#(lambda^(lambda^(lambda^(lambda^(logo_FWRT^$2^(logo_DIVA^logo_UA^$1)^($3^$0))))))^$2^logo_ZL^$3^$0))))))^$0^(lambda^(logo_GETSET^(lambda^(#(lambda^(logo_PT^(lambda^(#(lambda^(logo_forLoop^$0^(lambda^(lambda^(#(lambda^(#(lambda^(lambda^(lambda^(logo_forLoop^$2^(lambda^(lambda^(logo_FWRT^$2^$3^$0)))))))^$0^(logo_DIVA^logo_UA^5)^logo_UL))^5^(logo_FWRT^logo_UL^logo_UA^$0))))))^$1^$0))))^$3^($4^$0)))^$0))))))^(lambda^(#(lambda^(lambda^(#(lambda^(lambda^(lambda^(#(lambda^(lambda^(lambda^(logo_forLoop^$2^(lambda^(lambda^(logo_FWRT^$2^$3^$0)))))))^$2^(logo_DIVA^logo_UA^$1)^logo_UL^$0))))^$1^$1^$0)))^$2^($1^$0)))))) a 0.0044803
#(lambda^(lambda^(#(lambda^(lambda^(lambda^(#(lambda^(lambda^(#(lambda^(logo_forLoop^9^(lambda^($1^(#(lambda^(lambda^(lambda^(logo_forLoop^$2^(lambda^(lambda^(logo_FWRT^$2^$3^$0)))))))^5^logo_epsA^logo_ZL)))))^(lambda^(lambda^(#(lambda^(lambda^(lambda^(lambda^(logo_FWRT^$2^(logo_DIVA^logo_UA^$1)^($3^$0))))))^$2^logo_ZL^$3^$0))))))^$0^(lambda^(logo_GETSET^(lambda^(#(lambda^(logo_PT^(lambda^(#(lambda^(logo_forLoop^$0^(lambda^(lambda^(#(lambda^(#(lambda^(lambda^(lambda^(logo_forLoop^$2^(lambda^(lambda^(logo_FWRT^$2^$3^$0)))))))^$0^(logo_DIVA^logo_UA^5)^logo_UL))^5^(logo_FWRT^logo_UL^logo_UA^$0))))))^$1^$0))))^$3^($4^$0)))^$0))))))^(lambda^(#(lambda^(lambda^(#(lambda^(lambda^(lambda^(#(lambda^(lambda^(lambda^(logo_forLoop^$2^(lambda^(lambda^(logo_FWRT^$2^$3^$0)))))))^$2^(logo_DIVA^logo_UA^$1)^logo_UL^$0))))^$1^$1^$0)))^$2^($1^$0)))))) space 0.0054795
#(lambda^(lambda^(#(lambda^(lambda^(lambda^(#(lambda^(lambda^(#(lambda^(logo_forLoop^9^(lambda^($1^(#(lambda^(lambda^(lambda^(logo_forLoop^$2^(lambda^(lambda^(logo_FWRT^$2^$3^$0)))))))^5^logo_epsA^logo_ZL)))))^(lambda^(lambda^(#(lambda^(lambda^(lambda^(lambda^(logo_FWRT^$2^(logo_DIVA^logo_UA^$1)^($3^$0))))))^$2^logo_ZL^$3^$0))))))^$0^(lambda^(logo_GETSET^(lambda^(#(lambda^(logo_PT^(lambda^(#(lambda^(logo_forLoop^$0^(lambda^(lambda^(#(lambda^(#(lambda^(lambda^(lambda^(logo_forLoop^$2^(lambda^(lambda^(logo_FWRT^$2^$3^$0)))))))^$0^(logo_DIVA^logo_UA^5)^logo_UL))^5^(logo_FWRT^logo_UL^logo_UA^$0))))))^$1^$0))))^$3^($4^$0)))^$0))))))^(lambda^(#(lambda^(lambda^(#(lambda^(lambda^(lambda^(#(lambda^(lambda^(lambda^(logo_forLoop^$2^(lambda^(lambda^(logo_FWRT^$2^$3^$0)))))))^$2^(logo_DIVA^logo_UA^$1)^logo_UL^$0))))^$1^$1^$0)))^$2^($1^$0)))))) line 0.0037594
#(lambda^(lambda^(#(lambda^(lambda^(lambda^(#(lambda^(lambda^(#(lambda^(logo_forLoop^9^(lambda^($1^(#(lambda^(lambda^(lambda^(logo_forLoop^$2^(lambda^(lambda^(logo_FWRT^$2^$3^$0)))))))^5^logo_epsA^logo_ZL)))))^(lambda^(lambda^(#(lambda^(lambda^(lambda^(lambda^(logo_FWRT^$2^(logo_DIVA^logo_UA^$1)^($3^$0))))))^$2^logo_ZL^$3^$0))))))^$0^(lambda^(logo_GETSET^(lambda^(#(lambda^(logo_PT^(lambda^(#(lambda^(logo_forLoop^$0^(lambda^(lambda^(#(lambda^(#(lambda^(lambda^(lambda^(logo_forLoop^$2^(lambda^(lambda^(logo_FWRT^$2^$3^$0)))))))^$0^(logo_DIVA^logo_UA^5)^logo_UL))^5^(logo_FWRT^logo_UL^logo_UA^$0))))))^$1^$0))))^$3^($4^$0)))^$0))))))^(lambda^(#(lambda^(lambda^(#(lambda^(lambda^(lambda^(#(lambda^(lambda^(lambda^(logo_forLoop^$2^(lambda^(lambda^(logo_FWRT^$2^$3^$0)))))))^$2^(logo_DIVA^logo_UA^$1)^logo_UL^$0))))^$1^$1^$0)))^$2^($1^$0)))))) arms 0.0933063
#(lambda^(lambda^(#(lambda^(lambda^(lambda^(#(lambda^(lambda^(#(lambda^(logo_forLoop^9^(lambda^($1^(#(lambda^(lambda^(lambda^(logo_forLoop^$2^(lambda^(lambda^(logo_FWRT^$2^$3^$0)))))))^5^logo_epsA^logo_ZL)))))^(lambda^(lambda^(#(lambda^(lambda^(lambda^(lambda^(logo_FWRT^$2^(logo_DIVA^logo_UA^$1)^($3^$0))))))^$2^logo_ZL^$3^$0))))))^$0^(lambda^(logo_GETSET^(lambda^(#(lambda^(logo_PT^(lambda^(#(lambda^(logo_forLoop^$0^(lambda^(lambda^(#(lambda^(#(lambda^(lambda^(lambda^(logo_forLoop^$2^(lambda^(lambda^(logo_FWRT^$2^$3^$0)))))))^$0^(logo_DIVA^logo_UA^5)^logo_UL))^5^(logo_FWRT^logo_UL^logo_UA^$0))))))^$1^$0))))^$3^($4^$0)))^$0))))))^(lambda^(#(lambda^(lambda^(#(lambda^(lambda^(lambda^(#(lambda^(lambda^(lambda^(logo_forLoop^$2^(lambda^(lambda^(logo_FWRT^$2^$3^$0)))))))^$2^(logo_DIVA^logo_UA^$1)^logo_UL^$0))))^$1^$1^$0)))^$2^($1^$0)))))) next 0.0133333
#(lambda^(lambda^(#(lambda^(lambda^(lambda^(#(lambda^(lambda^(#(lambda^(logo_forLoop^9^(lambda^($1^(#(lambda^(lambda^(lambda^(logo_forLoop^$2^(lambda^(lambda^(logo_FWRT^$2^$3^$0)))))))^5^logo_epsA^logo_ZL)))))^(lambda^(lambda^(#(lambda^(lambda^(lambda^(lambda^(logo_FWRT^$2^(logo_DIVA^logo_UA^$1)^($3^$0))))))^$2^logo_ZL^$3^$0))))))^$0^(lambda^(logo_GETSET^(lambda^(#(lambda^(logo_PT^(lambda^(#(lambda^(logo_forLoop^$0^(lambda^(lambda^(#(lambda^(#(lambda^(lambda^(lambda^(logo_forLoop^$2^(lambda^(lambda^(logo_FWRT^$2^$3^$0)))))))^$0^(logo_DIVA^logo_UA^5)^logo_UL))^5^(logo_FWRT^logo_UL^logo_UA^$0))))))^$1^$0))))^$3^($4^$0)))^$0))))))^(lambda^(#(lambda^(lambda^(#(lambda^(lambda^(lambda^(#(lambda^(lambda^(lambda^(logo_forLoop^$2^(lambda^(lambda^(logo_FWRT^$2^$3^$0)))))))^$2^(logo_DIVA^logo_UA^$1)^logo_UL^$0))))^$1^$1^$0)))^$2^($1^$0)))))) as 0.0866935
#(lambda^(lambda^(#(lambda^(lambda^(lambda^(#(lambda^(lambda^(#(lambda^(logo_forLoop^9^(lambda^($1^(#(lambda^(lambda^(lambda^(logo_forLoop^$2^(lambda^(lambda^(logo_FWRT^$2^$3^$0)))))))^5^logo_epsA^logo_ZL)))))^(lambda^(lambda^(#(lambda^(lambda^(lambda^(lambda^(logo_FWRT^$2^(logo_DIVA^logo_UA^$1)^($3^$0))))))^$2^logo_ZL^$3^$0))))))^$0^(lambda^(logo_GETSET^(lambda^(#(lambda^(logo_PT^(lambda^(#(lambda^(logo_forLoop^$0^(lambda^(lambda^(#(lambda^(#(lambda^(lambda^(lambda^(logo_forLoop^$2^(lambda^(lambda^(logo_FWRT^$2^$3^$0)))))))^$0^(logo_DIVA^logo_UA^5)^logo_UL))^5^(logo_FWRT^logo_UL^logo_UA^$0))))))^$1^$0))))^$3^($4^$0)))^$0))))))^(lambda^(#(lambda^(lambda^(#(lambda^(lambda^(lambda^(#(lambda^(lambda^(lambda^(logo_forLoop^$2^(lambda^(lambda^(logo_FWRT^$2^$3^$0)))))))^$2^(logo_DIVA^logo_UA^$1)^logo_UL^$0))))^$1^$1^$0)))^$2^($1^$0)))))) and 0.0078637
#(lambda^(lambda^(#(lambda^(lambda^(lambda^(#(lambda^(lambda^(#(lambda^(logo_forLoop^9^(lambda^($1^(#(lambda^(lambda^(lambda^(logo_forLoop^$2^(lambda^(lambda^(logo_FWRT^$2^$3^$0)))))))^5^logo_epsA^logo_ZL)))))^(lambda^(lambda^(#(lambda^(lambda^(lambda^(lambda^(logo_FWRT^$2^(logo_DIVA^logo_UA^$1)^($3^$0))))))^$2^logo_ZL^$3^$0))))))^$0^(lambda^(logo_GETSET^(lambda^(#(lambda^(logo_PT^(lambda^(#(lambda^(logo_forLoop^$0^(lambda^(lambda^(#(lambda^(#(lambda^(lambda^(lambda^(logo_forLoop^$2^(lambda^(lambda^(logo_FWRT^$2^$3^$0)))))))^$0^(logo_DIVA^logo_UA^5)^logo_UL))^5^(logo_FWRT^logo_UL^logo_UA^$0))))))^$1^$0))))^$3^($4^$0)))^$0))))))^(lambda^(#(lambda^(lambda^(#(lambda^(lambda^(lambda^(#(lambda^(lambda^(lambda^(logo_forLoop^$2^(lambda^(lambda^(logo_FWRT^$2^$3^$0)))))))^$2^(logo_DIVA^logo_UA^$1)^logo_UL^$0))))^$1^$1^$0)))^$2^($1^$0)))))) short 0.0075853
#(lambda^(lambda^(#(lambda^(lambda^(lambda^(#(lambda^(lambda^(#(lambda^(logo_forLoop^9^(lambda^($1^(#(lambda^(lambda^(lambda^(logo_forLoop^$2^(lambda^(lambda^(logo_FWRT^$2^$3^$0)))))))^5^logo_epsA^logo_ZL)))))^(lambda^(lambda^(#(lambda^(lambda^(lambda^(lambda^(logo_FWRT^$2^(logo_DIVA^logo_UA^$1)^($3^$0))))))^$2^logo_ZL^$3^$0))))))^$0^(lambda^(logo_GETSET^(lambda^(#(lambda^(logo_PT^(lambda^(#(lambda^(logo_forLoop^$0^(lambda^(lambda^(#(lambda^(#(lambda^(lambda^(lambda^(logo_forLoop^$2^(lambda^(lambda^(logo_FWRT^$2^$3^$0)))))))^$0^(logo_DIVA^logo_UA^5)^logo_UL))^5^(logo_FWRT^logo_UL^logo_UA^$0))))))^$1^$0))))^$3^($4^$0)))^$0))))))^(lambda^(#(lambda^(lambda^(#(lambda^(lambda^(lambda^(#(lambda^(lambda^(lambda^(logo_forLoop^$2^(lambda^(lambda^(logo_FWRT^$2^$3^$0)))))))^$2^(logo_DIVA^logo_UA^$1)^logo_UL^$0))))^$1^$1^$0)))^$2^($1^$0)))))) snowflake 0.0040000
#(lambda^(lambda^(#(lambda^(lambda^(lambda^(#(lambda^(lambda^(#(lambda^(logo_forLoop^9^(lambda^($1^(#(lambda^(lambda^(lambda^(logo_forLoop^$2^(lambda^(lambda^(logo_FWRT^$2^$3^$0)))))))^5^logo_epsA^logo_ZL)))))^(lambda^(lambda^(#(lambda^(lambda^(lambda^(lambda^(logo_FWRT^$2^(logo_DIVA^logo_UA^$1)^($3^$0))))))^$2^logo_ZL^$3^$0))))))^$0^(lambda^(logo_GETSET^(lambda^(#(lambda^(logo_PT^(lambda^(#(lambda^(logo_forLoop^$0^(lambda^(lambda^(#(lambda^(#(lambda^(lambda^(lambda^(logo_forLoop^$2^(lambda^(lambda^(logo_FWRT^$2^$3^$0)))))))^$0^(logo_DIVA^logo_UA^5)^logo_UL))^5^(logo_FWRT^logo_UL^logo_UA^$0))))))^$1^$0))))^$3^($4^$0)))^$0))))))^(lambda^(#(lambda^(lambda^(#(lambda^(lambda^(lambda^(#(lambda^(lambda^(lambda^(logo_forLoop^$2^(lambda^(lambda^(logo_FWRT^$2^$3^$0)))))))^$2^(logo_DIVA^logo_UA^$1)^logo_UL^$0))))^$1^$1^$0)))^$2^($1^$0)))))) with 0.0040323
#(lambda^(lambda^(#(lambda^(lambda^(lambda^(#(lambda^(lambda^(#(lambda^(logo_forLoop^9^(lambda^($1^(#(lambda^(lambda^(lambda^(logo_forLoop^$2^(lambda^(lambda^(logo_FWRT^$2^$3^$0)))))))^5^logo_epsA^logo_ZL)))))^(lambda^(lambda^(#(lambda^(lambda^(lambda^(lambda^(logo_FWRT^$2^(logo_DIVA^logo_UA^$1)^($3^$0))))))^$2^logo_ZL^$3^$0))))))^$0^(lambda^(logo_GETSET^(lambda^(#(lambda^(logo_PT^(lambda^(#(lambda^(logo_forLoop^$0^(lambda^(lambda^(#(lambda^(#(lambda^(lambda^(lambda^(logo_forLoop^$2^(lambda^(lambda^(logo_FWRT^$2^$3^$0)))))))^$0^(logo_DIVA^logo_UA^5)^logo_UL))^5^(logo_FWRT^logo_UL^logo_UA^$0))))))^$1^$0))))^$3^($4^$0)))^$0))))))^(lambda^(#(lambda^(lambda^(#(lambda^(lambda^(lambda^(#(lambda^(lambda^(lambda^(logo_forLoop^$2^(lambda^(lambda^(logo_FWRT^$2^$3^$0)))))))^$2^(logo_DIVA^logo_UA^$1)^logo_UL^$0))))^$1^$1^$0)))^$2^($1^$0)))))) small 0.0027624
#(lambda^(logo_PT^(lambda^(#(lambda^(logo_forLoop^$0^(lambda^(lambda^(#(lambda^(#(lambda^(lambda^(lambda^(logo_forLoop^$2^(lambda^(lambda^(logo_FWRT^$2^$3^$0)))))))^$0^(logo_DIVA^logo_UA^5)^logo_UL))^5^(logo_FWRT^logo_UL^logo_UA^$0))))))^$1^$0)))) big 0.1440000
#(lambda^(logo_PT^(lambda^(#(lambda^(logo_forLoop^$0^(lambda^(lambda^(#(lambda^(#(lambda^(lambda^(lambda^(logo_forLoop^$2^(lambda^(lambda^(logo_FWRT^$2^$3^$0)))))))^$0^(logo_DIVA^logo_UA^5)^logo_UL))^5^(logo_FWRT^logo_UL^logo_UA^$0))))))^$1^$0)))) sided 0.0040900
#(lambda^(logo_PT^(lambda^(#(lambda^(logo_forLoop^$0^(lambda^(lambda^(#(lambda^(#(lambda^(lambda^(lambda^(logo_forLoop^$2^(lambda^(lambda^(logo_FWRT^$2^$3^$0)))))))^$0^(logo_DIVA^logo_UA^5)^logo_UL))^5^(logo_FWRT^logo_UL^logo_UA^$0))))))^$1^$0)))) 5 0.0054054
#(lambda^(logo_PT^(lambda^(#(lambda^(logo_forLoop^$0^(lambda^(lambda^(#(lambda^(#(lambda^(lambda^(lambda^(logo_forLoop^$2^(lambda^(lambda^(logo_FWRT^$2^$3^$0)))))))^$0^(logo_DIVA^logo_UA^5)^logo_UL))^5^(logo_FWRT^logo_UL^logo_UA^$0))))))^$1^$0)))) a 0.0026882
#(lambda^(logo_PT^(lambda^(#(lambda^(logo_forLoop^$0^(lambda^(lambda^(#(lambda^(#(lambda^(lambda^(lambda^(logo_forLoop^$2^(lambda^(lambda^(logo_FWRT^$2^$3^$0)))))))^$0^(logo_DIVA^logo_UA^5)^logo_UL))^5^(logo_FWRT^logo_UL^logo_UA^$0))))))^$1^$0)))) s 0.0560345
#(lambda^(logo_PT^(lambda^(#(lambda^(logo_forLoop^$0^(lambda^(lambda^(#(lambda^(#(lambda^(lambda^(lambda^(logo_forLoop^$2^(lambda^(lambda^(logo_FWRT^$2^$3^$0)))))))^$0^(logo_DIVA^logo_UA^5)^logo_UL))^5^(logo_FWRT^logo_UL^logo_UA^$0))))))^$1^$0)))) space 0.0602740
#(lambda^(logo_PT^(lambda^(#(lambda^(logo_forLoop^$0^(lambda^(lambda^(#(lambda^(#(lambda^(lambda^(lambda^(logo_forLoop^$2^(lambda^(lambda^(logo_FWRT^$2^$3^$0)))))))^$0^(logo_DIVA^logo_UA^5)^logo_UL))^5^(logo_FWRT^logo_UL^logo_UA^$0))))))^$1^$0)))) snowflake 0.0040000
#(lambda^(logo_PT^(lambda^(#(lambda^(logo_forLoop^$0^(lambda^(lambda^(#(lambda^(#(lambda^(lambda^(lambda^(logo_forLoop^$2^(lambda^(lambda^(logo_FWRT^$2^$3^$0)))))))^$0^(logo_DIVA^logo_UA^5)^logo_UL))^5^(logo_FWRT^logo_UL^logo_UA^$0))))))^$1^$0)))) short 0.0075853
#(lambda^(logo_PT^(lambda^(#(lambda^(logo_forLoop^$0^(lambda^(lambda^(#(lambda^(#(lambda^(lambda^(lambda^(logo_forLoop^$2^(lambda^(lambda^(logo_FWRT^$2^$3^$0)))))))^$0^(logo_DIVA^logo_UA^5)^logo_UL))^5^(logo_FWRT^logo_UL^logo_UA^$0))))))^$1^$0)))) separated 0.6666667
#(lambda^(logo_PT^(lambda^(#(lambda^(logo_forLoop^$0^(lambda^(lambda^(#(lambda^(#(lambda^(lambda^(lambda^(logo_forLoop^$2^(lambda^(lambda^(logo_FWRT^$2^$3^$0)))))))^$0^(logo_DIVA^logo_UA^5)^logo_UL))^5^(logo_FWRT^logo_UL^logo_UA^$0))))))^$1^$0)))) from 0.5000000
#(lambda^(logo_PT^(lambda^(#(lambda^(logo_forLoop^$0^(lambda^(lambda^(#(lambda^(#(lambda^(lambda^(lambda^(logo_forLoop^$2^(lambda^(lambda^(logo_FWRT^$2^$3^$0)))))))^$0^(logo_DIVA^logo_UA^5)^logo_UL))^5^(logo_FWRT^logo_UL^logo_UA^$0))))))^$1^$0)))) circle 0.0791367
#(lambda^(logo_PT^(lambda^(#(lambda^(logo_forLoop^$0^(lambda^(lambda^(#(lambda^(#(lambda^(lambda^(lambda^(logo_forLoop^$2^(lambda^(lambda^(logo_FWRT^$2^$3^$0)))))))^$0^(logo_DIVA^logo_UA^5)^logo_UL))^5^(logo_FWRT^logo_UL^logo_UA^$0))))))^$1^$0)))) medium 0.0197531
#(lambda^(logo_PT^(lambda^(#(lambda^(logo_forLoop^$0^(lambda^(lambda^(#(lambda^(#(lambda^(lambda^(lambda^(logo_forLoop^$2^(lambda^(lambda^(logo_FWRT^$2^$3^$0)))))))^$0^(logo_DIVA^logo_UA^5)^logo_UL))^5^(logo_FWRT^logo_UL^logo_UA^$0))))))^$1^$0)))) line 0.0319549
#(lambda^(logo_PT^(lambda^(#(lambda^(logo_forLoop^$0^(lambda^(lambda^(#(lambda^(#(lambda^(lambda^(lambda^(logo_forLoop^$2^(lambda^(lambda^(logo_FWRT^$2^$3^$0)))))))^$0^(logo_DIVA^logo_UA^5)^logo_UL))^5^(logo_FWRT^logo_UL^logo_UA^$0))))))^$1^$0)))) semicircle 0.0816327
#(lambda^(logo_PT^(lambda^(#(lambda^(logo_forLoop^$0^(lambda^(lambda^(#(lambda^(#(lambda^(lambda^(lambda^(logo_forLoop^$2^(lambda^(lambda^(logo_FWRT^$2^$3^$0)))))))^$0^(logo_DIVA^logo_UA^5)^logo_UL))^5^(logo_FWRT^logo_UL^logo_UA^$0))))))^$1^$0)))) next 0.1466667
#(lambda^(logo_PT^(lambda^(#(lambda^(logo_forLoop^$0^(lambda^(lambda^(#(lambda^(#(lambda^(lambda^(lambda^(logo_forLoop^$2^(lambda^(lambda^(logo_FWRT^$2^$3^$0)))))))^$0^(logo_DIVA^logo_UA^5)^logo_UL))^5^(logo_FWRT^logo_UL^logo_UA^$0))))))^$1^$0)))) arms 0.0040568
#(lambda^(logo_PT^(lambda^(#(lambda^(logo_forLoop^$0^(lambda^(lambda^(#(lambda^(#(lambda^(lambda^(lambda^(logo_forLoop^$2^(lambda^(lambda^(logo_FWRT^$2^$3^$0)))))))^$0^(logo_DIVA^logo_UA^5)^logo_UL))^5^(logo_FWRT^logo_UL^logo_UA^$0))))))^$1^$0)))) NULL 0.1666667
#(lambda^(logo_PT^(lambda^(#(lambda^(logo_forLoop^$0^(lambda^(lambda^(#(lambda^(#(lambda^(lambda^(lambda^(logo_forLoop^$2^(lambda^(lambda^(logo_FWRT^$2^$3^$0)))))))^$0^(logo_DIVA^logo_UA^5)^logo_UL))^5^(logo_FWRT^logo_UL^logo_UA^$0))))))^$1^$0)))) as 0.0040323
#(lambda^(logo_PT^(lambda^(#(lambda^(logo_forLoop^$0^(lambda^(lambda^(#(lambda^(#(lambda^(lambda^(lambda^(logo_forLoop^$2^(lambda^(lambda^(logo_FWRT^$2^$3^$0)))))))^$0^(logo_DIVA^logo_UA^5)^logo_UL))^5^(logo_FWRT^logo_UL^logo_UA^$0))))))^$1^$0)))) and 0.0052425
#(lambda^(logo_PT^(lambda^(#(lambda^(logo_forLoop^$0^(lambda^(lambda^(#(lambda^(#(lambda^(lambda^(lambda^(logo_forLoop^$2^(lambda^(lambda^(logo_FWRT^$2^$3^$0)))))))^$0^(logo_DIVA^logo_UA^5)^logo_UL))^5^(logo_FWRT^logo_UL^logo_UA^$0))))))^$1^$0)))) 4 0.0204082
#(lambda^(logo_PT^(lambda^(#(lambda^(logo_forLoop^$0^(lambda^(lambda^(#(lambda^(#(lambda^(lambda^(lambda^(logo_forLoop^$2^(lambda^(lambda^(logo_FWRT^$2^$3^$0)))))))^$0^(logo_DIVA^logo_UA^5)^logo_UL))^5^(logo_FWRT^logo_UL^logo_UA^$0))))))^$1^$0)))) staircase 0.0317460
#(lambda^(logo_PT^(lambda^(#(lambda^(logo_forLoop^$0^(lambda^(lambda^(#(lambda^(#(lambda^(lambda^(lambda^(logo_forLoop^$2^(lambda^(lambda^(logo_FWRT^$2^$3^$0)))))))^$0^(logo_DIVA^logo_UA^5)^logo_UL))^5^(logo_FWRT^logo_UL^logo_UA^$0))))))^$1^$0)))) by 0.1417323
#(lambda^(logo_PT^(lambda^(#(lambda^(logo_forLoop^$0^(lambda^(lambda^(#(lambda^(#(lambda^(lambda^(lambda^(logo_forLoop^$2^(lambda^(lambda^(logo_FWRT^$2^$3^$0)))))))^$0^(logo_DIVA^logo_UA^5)^logo_UL))^5^(logo_FWRT^logo_UL^logo_UA^$0))))))^$1^$0)))) with 0.0040323
#(lambda^(logo_PT^(lambda^(#(lambda^(logo_forLoop^$0^(lambda^(lambda^(#(lambda^(#(lambda^(lambda^(lambda^(logo_forLoop^$2^(lambda^(lambda^(logo_FWRT^$2^$3^$0)))))))^$0^(logo_DIVA^logo_UA^5)^logo_UL))^5^(logo_FWRT^logo_UL^logo_UA^$0))))))^$1^$0)))) small 0.0027624
#(lambda^(lambda^(lambda^(#(lambda^(lambda^(lambda^(lambda^(#(lambda^(lambda^(lambda^(lambda^(#(lambda^(lambda^(lambda^(lambda^(#(lambda^(lambda^(lambda^(lambda^(#(lambda^(lambda^(lambda^(lambda^(#(lambda^(lambda^(lambda^(#(lambda^(lambda^(lambda^(lambda^(logo_forLoop^$2^(lambda^(lambda^($3^(lambda^($6^$2^(#(#(lambda^(lambda^(lambda^(logo_forLoop^$2^(lambda^(lambda^(logo_FWRT^$2^$3^$0)))))))^logo_IFTY^logo_epsA)^(logo_MULL^logo_epsL^2)^$0)))^$0)))^$0)))))^(lambda^(lambda^($2^$1^$0)))^$1^(lambda^(lambda^($4^(lambda^($2^$0))^$0)))))))^(lambda^(lambda^($4^(lambda^($2^$0))^$0)))^$1^(lambda^(lambda^($5^$1^$0)))^$0)))))^(lambda^(lambda^($4^$1^$0)))^(lambda^(lambda^($3^(lambda^($2^$0))^$0)))^$3^$0)))))^$3^(lambda^(lambda^($3^$1^$0)))^(lambda^(lambda^($4^(lambda^($2^$0))^$0)))^$0)))))^$3^(lambda^(lambda^($4^(lambda^($2^$0))^$0)))^(lambda^(lambda^($3^$1^$0)))^$0)))))^$3^(lambda^(lambda^($4^(lambda^($2^$0))^$0)))^(lambda^(lambda^($3^$1^$0)))^$0)))))^$2^(lambda^(lambda^($3^(lambda^($2^$0))^$0)))^(lambda^(lambda^(#(lambda^(logo_PT^(lambda^(#(lambda^(logo_forLoop^$0^(lambda^(lambda^(#(lambda^(#(lambda^(lambda^(lambda^(logo_forLoop^$2^(lambda^(lambda^(logo_FWRT^$2^$3^$0)))))))^$0^(logo_DIVA^logo_UA^5)^logo_UL))^5^(logo_FWRT^logo_UL^logo_UA^$0))))))^$1^$0))))^$1^$0)))^$0)))) a 0.0044803
#(lambda^(lambda^(lambda^(#(lambda^(lambda^(lambda^(lambda^(#(lambda^(lambda^(lambda^(lambda^(#(lambda^(lambda^(lambda^(lambda^(#(lambda^(lambda^(lambda^(lambda^(#(lambda^(lambda^(lambda^(lambda^(#(lambda^(lambda^(lambda^(#(lambda^(lambda^(lambda^(lambda^(logo_forLoop^$2^(lambda^(lambda^($3^(lambda^($6^$2^(#(#(lambda^(lambda^(lambda^(logo_forLoop^$2^(lambda^(lambda^(logo_FWRT^$2^$3^$0)))))))^logo_IFTY^logo_epsA)^(logo_MULL^logo_epsL^2)^$0)))^$0)))^$0)))))^(lambda^(lambda^($2^$1^$0)))^$1^(lambda^(lambda^($4^(lambda^($2^$0))^$0)))))))^(lambda^(lambda^($4^(lambda^($2^$0))^$0)))^$1^(lambda^(lambda^($5^$1^$0)))^$0)))))^(lambda^(lambda^($4^$1^$0)))^(lambda^(lambda^($3^(lambda^($2^$0))^$0)))^$3^$0)))))^$3^(lambda^(lambda^($3^$1^$0)))^(lambda^(lambda^($4^(lambda^($2^$0))^$0)))^$0)))))^$3^(lambda^(lambda^($4^(lambda^($2^$0))^$0)))^(lambda^(lambda^($3^$1^$0)))^$0)))))^$3^(lambda^(lambda^($4^(lambda^($2^$0))^$0)))^(lambda^(lambda^($3^$1^$0)))^$0)))))^$2^(lambda^(lambda^($3^(lambda^($2^$0))^$0)))^(lambda^(lambda^(#(lambda^(logo_PT^(lambda^(#(lambda^(logo_forLoop^$0^(lambda^(lambda^(#(lambda^(#(lambda^(lambda^(lambda^(logo_forLoop^$2^(lambda^(lambda^(logo_FWRT^$2^$3^$0)))))))^$0^(logo_DIVA^logo_UA^5)^logo_UL))^5^(logo_FWRT^logo_UL^logo_UA^$0))))))^$1^$0))))^$1^$0)))^$0)))) space 0.0054795
#(lambda^(lambda^(lambda^(#(lambda^(lambda^(lambda^(lambda^(#(lambda^(lambda^(lambda^(lambda^(#(lambda^(lambda^(lambda^(lambda^(#(lambda^(lambda^(lambda^(lambda^(#(lambda^(lambda^(lambda^(lambda^(#(lambda^(lambda^(lambda^(#(lambda^(lambda^(lambda^(lambda^(logo_forLoop^$2^(lambda^(lambda^($3^(lambda^($6^$2^(#(#(lambda^(lambda^(lambda^(logo_forLoop^$2^(lambda^(lambda^(logo_FWRT^$2^$3^$0)))))))^logo_IFTY^logo_epsA)^(logo_MULL^logo_epsL^2)^$0)))^$0)))^$0)))))^(lambda^(lambda^($2^$1^$0)))^$1^(lambda^(lambda^($4^(lambda^($2^$0))^$0)))))))^(lambda^(lambda^($4^(lambda^($2^$0))^$0)))^$1^(lambda^(lambda^($5^$1^$0)))^$0)))))^(lambda^(lambda^($4^$1^$0)))^(lambda^(lambda^($3^(lambda^($2^$0))^$0)))^$3^$0)))))^$3^(lambda^(lambda^($3^$1^$0)))^(lambda^(lambda^($4^(lambda^($2^$0))^$0)))^$0)))))^$3^(lambda^(lambda^($4^(lambda^($2^$0))^$0)))^(lambda^(lambda^($3^$1^$0)))^$0)))))^$3^(lambda^(lambda^($4^(lambda^($2^$0))^$0)))^(lambda^(lambda^($3^$1^$0)))^$0)))))^$2^(lambda^(lambda^($3^(lambda^($2^$0))^$0)))^(lambda^(lambda^(#(lambda^(logo_PT^(lambda^(#(lambda^(logo_forLoop^$0^(lambda^(lambda^(#(lambda^(#(lambda^(lambda^(lambda^(logo_forLoop^$2^(lambda^(lambda^(logo_FWRT^$2^$3^$0)))))))^$0^(logo_DIVA^logo_UA^5)^logo_UL))^5^(logo_FWRT^logo_UL^logo_UA^$0))))))^$1^$0))))^$1^$0)))^$0)))) s 0.0474138
#(lambda^(lambda^(lambda^(#(lambda^(lambda^(lambda^(lambda^(#(lambda^(lambda^(lambda^(lambda^(#(lambda^(lambda^(lambda^(lambda^(#(lambda^(lambda^(lambda^(lambda^(#(lambda^(lambda^(lambda^(lambda^(#(lambda^(lambda^(lambda^(#(lambda^(lambda^(lambda^(lambda^(logo_forLoop^$2^(lambda^(lambda^($3^(lambda^($6^$2^(#(#(lambda^(lambda^(lambda^(logo_forLoop^$2^(lambda^(lambda^(logo_FWRT^$2^$3^$0)))))))^logo_IFTY^logo_epsA)^(logo_MULL^logo_epsL^2)^$0)))^$0)))^$0)))))^(lambda^(lambda^($2^$1^$0)))^$1^(lambda^(lambda^($4^(lambda^($2^$0))^$0)))))))^(lambda^(lambda^($4^(lambda^($2^$0))^$0)))^$1^(lambda^(lambda^($5^$1^$0)))^$0)))))^(lambda^(lambda^($4^$1^$0)))^(lambda^(lambda^($3^(lambda^($2^$0))^$0)))^$3^$0)))))^$3^(lambda^(lambda^($3^$1^$0)))^(lambda^(lambda^($4^(lambda^($2^$0))^$0)))^$0)))))^$3^(lambda^(lambda^($4^(lambda^($2^$0))^$0)))^(lambda^(lambda^($3^$1^$0)))^$0)))))^$3^(lambda^(lambda^($4^(lambda^($2^$0))^$0)))^(lambda^(lambda^($3^$1^$0)))^$0)))))^$2^(lambda^(lambda^($3^(lambda^($2^$0))^$0)))^(lambda^(lambda^(#(lambda^(logo_PT^(lambda^(#(lambda^(logo_forLoop^$0^(lambda^(lambda^(#(lambda^(#(lambda^(lambda^(lambda^(logo_forLoop^$2^(lambda^(lambda^(logo_FWRT^$2^$3^$0)))))))^$0^(logo_DIVA^logo_UA^5)^logo_UL))^5^(logo_FWRT^logo_UL^logo_UA^$0))))))^$1^$0))))^$1^$0)))^$0)))) sided 0.0040900
#(lambda^(lambda^(lambda^(#(lambda^(lambda^(lambda^(lambda^(#(lambda^(lambda^(lambda^(lambda^(#(lambda^(lambda^(lambda^(lambda^(#(lambda^(lambda^(lambda^(lambda^(#(lambda^(lambda^(lambda^(lambda^(#(lambda^(lambda^(lambda^(#(lambda^(lambda^(lambda^(lambda^(logo_forLoop^$2^(lambda^(lambda^($3^(lambda^($6^$2^(#(#(lambda^(lambda^(lambda^(logo_forLoop^$2^(lambda^(lambda^(logo_FWRT^$2^$3^$0)))))))^logo_IFTY^logo_epsA)^(logo_MULL^logo_epsL^2)^$0)))^$0)))^$0)))))^(lambda^(lambda^($2^$1^$0)))^$1^(lambda^(lambda^($4^(lambda^($2^$0))^$0)))))))^(lambda^(lambda^($4^(lambda^($2^$0))^$0)))^$1^(lambda^(lambda^($5^$1^$0)))^$0)))))^(lambda^(lambda^($4^$1^$0)))^(lambda^(lambda^($3^(lambda^($2^$0))^$0)))^$3^$0)))))^$3^(lambda^(lambda^($3^$1^$0)))^(lambda^(lambda^($4^(lambda^($2^$0))^$0)))^$0)))))^$3^(lambda^(lambda^($4^(lambda^($2^$0))^$0)))^(lambda^(lambda^($3^$1^$0)))^$0)))))^$3^(lambda^(lambda^($4^(lambda^($2^$0))^$0)))^(lambda^(lambda^($3^$1^$0)))^$0)))))^$2^(lambda^(lambda^($3^(lambda^($2^$0))^$0)))^(lambda^(lambda^(#(lambda^(logo_PT^(lambda^(#(lambda^(logo_forLoop^$0^(lambda^(lambda^(#(lambda^(#(lambda^(lambda^(lambda^(logo_forLoop^$2^(lambda^(lambda^(logo_FWRT^$2^$3^$0)))))))^$0^(logo_DIVA^logo_UA^5)^logo_UL))^5^(logo_FWRT^logo_UL^logo_UA^$0))))))^$1^$0))))^$1^$0)))^$0)))) 5 0.0054054
#(lambda^(lambda^(lambda^(#(lambda^(lambda^(lambda^(lambda^(#(lambda^(lambda^(lambda^(lambda^(#(lambda^(lambda^(lambda^(lambda^(#(lambda^(lambda^(lambda^(lambda^(#(lambda^(lambda^(lambda^(lambda^(#(lambda^(lambda^(lambda^(#(lambda^(lambda^(lambda^(lambda^(logo_forLoop^$2^(lambda^(lambda^($3^(lambda^($6^$2^(#(#(lambda^(lambda^(lambda^(logo_forLoop^$2^(lambda^(lambda^(logo_FWRT^$2^$3^$0)))))))^logo_IFTY^logo_epsA)^(logo_MULL^logo_epsL^2)^$0)))^$0)))^$0)))))^(lambda^(lambda^($2^$1^$0)))^$1^(lambda^(lambda^($4^(lambda^($2^$0))^$0)))))))^(lambda^(lambda^($4^(lambda^($2^$0))^$0)))^$1^(lambda^(lambda^($5^$1^$0)))^$0)))))^(lambda^(lambda^($4^$1^$0)))^(lambda^(lambda^($3^(lambda^($2^$0))^$0)))^$3^$0)))))^$3^(lambda^(lambda^($3^$1^$0)))^(lambda^(lambda^($4^(lambda^($2^$0))^$0)))^$0)))))^$3^(lambda^(lambda^($4^(lambda^($2^$0))^$0)))^(lambda^(lambda^($3^$1^$0)))^$0)))))^$3^(lambda^(lambda^($4^(lambda^($2^$0))^$0)))^(lambda^(lambda^($3^$1^$0)))^$0)))))^$2^(lambda^(lambda^($3^(lambda^($2^$0))^$0)))^(lambda^(lambda^(#(lambda^(logo_PT^(lambda^(#(lambda^(logo_forLoop^$0^(lambda^(lambda^(#(lambda^(#(lambda^(lambda^(lambda^(logo_forLoop^$2^(lambda^(lambda^(logo_FWRT^$2^$3^$0)))))))^$0^(logo_DIVA^logo_UA^5)^logo_UL))^5^(logo_FWRT^logo_UL^logo_UA^$0))))))^$1^$0))))^$1^$0)))^$0)))) short 0.0075853
#(lambda^(lambda^(lambda^(#(lambda^(lambda^(lambda^(lambda^(#(lambda^(lambda^(lambda^(lambda^(#(lambda^(lambda^(lambda^(lambda^(#(lambda^(lambda^(lambda^(lambda^(#(lambda^(lambda^(lambda^(lambda^(#(lambda^(lambda^(lambda^(#(lambda^(lambda^(lambda^(lambda^(logo_forLoop^$2^(lambda^(lambda^($3^(lambda^($6^$2^(#(#(lambda^(lambda^(lambda^(logo_forLoop^$2^(lambda^(lambda^(logo_FWRT^$2^$3^$0)))))))^logo_IFTY^logo_epsA)^(logo_MULL^logo_epsL^2)^$0)))^$0)))^$0)))))^(lambda^(lambda^($2^$1^$0)))^$1^(lambda^(lambda^($4^(lambda^($2^$0))^$0)))))))^(lambda^(lambda^($4^(lambda^($2^$0))^$0)))^$1^(lambda^(lambda^($5^$1^$0)))^$0)))))^(lambda^(lambda^($4^$1^$0)))^(lambda^(lambda^($3^(lambda^($2^$0))^$0)))^$3^$0)))))^$3^(lambda^(lambda^($3^$1^$0)))^(lambda^(lambda^($4^(lambda^($2^$0))^$0)))^$0)))))^$3^(lambda^(lambda^($4^(lambda^($2^$0))^$0)))^(lambda^(lambda^($3^$1^$0)))^$0)))))^$3^(lambda^(lambda^($4^(lambda^($2^$0))^$0)))^(lambda^(lambda^($3^$1^$0)))^$0)))))^$2^(lambda^(lambda^($3^(lambda^($2^$0))^$0)))^(lambda^(lambda^(#(lambda^(logo_PT^(lambda^(#(lambda^(logo_forLoop^$0^(lambda^(lambda^(#(lambda^(#(lambda^(lambda^(lambda^(logo_forLoop^$2^(lambda^(lambda^(logo_FWRT^$2^$3^$0)))))))^$0^(logo_DIVA^logo_UA^5)^logo_UL))^5^(logo_FWRT^logo_UL^logo_UA^$0))))))^$1^$0))))^$1^$0)))^$0)))) snowflake 0.0040000
#(lambda^(lambda^(lambda^(#(lambda^(lambda^(lambda^(lambda^(#(lambda^(lambda^(lambda^(lambda^(#(lambda^(lambda^(lambda^(lambda^(#(lambda^(lambda^(lambda^(lambda^(#(lambda^(lambda^(lambda^(lambda^(#(lambda^(lambda^(lambda^(#(lambda^(lambda^(lambda^(lambda^(logo_forLoop^$2^(lambda^(lambda^($3^(lambda^($6^$2^(#(#(lambda^(lambda^(lambda^(logo_forLoop^$2^(lambda^(lambda^(logo_FWRT^$2^$3^$0)))))))^logo_IFTY^logo_epsA)^(logo_MULL^logo_epsL^2)^$0)))^$0)))^$0)))))^(lambda^(lambda^($2^$1^$0)))^$1^(lambda^(lambda^($4^(lambda^($2^$0))^$0)))))))^(lambda^(lambda^($4^(lambda^($2^$0))^$0)))^$1^(lambda^(lambda^($5^$1^$0)))^$0)))))^(lambda^(lambda^($4^$1^$0)))^(lambda^(lambda^($3^(lambda^($2^$0))^$0)))^$3^$0)))))^$3^(lambda^(lambda^($3^$1^$0)))^(lambda^(lambda^($4^(lambda^($2^$0))^$0)))^$0)))))^$3^(lambda^(lambda^($4^(lambda^($2^$0))^$0)))^(lambda^(lambda^($3^$1^$0)))^$0)))))^$3^(lambda^(lambda^($4^(lambda^($2^$0))^$0)))^(lambda^(lambda^($3^$1^$0)))^$0)))))^$2^(lambda^(lambda^($3^(lambda^($2^$0))^$0)))^(lambda^(lambda^(#(lambda^(logo_PT^(lambda^(#(lambda^(logo_forLoop^$0^(lambda^(lambda^(#(lambda^(#(lambda^(lambda^(lambda^(logo_forLoop^$2^(lambda^(lambda^(logo_FWRT^$2^$3^$0)))))))^$0^(logo_DIVA^logo_UA^5)^logo_UL))^5^(logo_FWRT^logo_UL^logo_UA^$0))))))^$1^$0))))^$1^$0)))^$0)))) line 0.0037594
#(lambda^(lambda^(lambda^(#(lambda^(lambda^(lambda^(lambda^(#(lambda^(lambda^(lambda^(lambda^(#(lambda^(lambda^(lambda^(lambda^(#(lambda^(lambda^(lambda^(lambda^(#(lambda^(lambda^(lambda^(lambda^(#(lambda^(lambda^(lambda^(#(lambda^(lambda^(lambda^(lambda^(logo_forLoop^$2^(lambda^(lambda^($3^(lambda^($6^$2^(#(#(lambda^(lambda^(lambda^(logo_forLoop^$2^(lambda^(lambda^(logo_FWRT^$2^$3^$0)))))))^logo_IFTY^logo_epsA)^(logo_MULL^logo_epsL^2)^$0)))^$0)))^$0)))))^(lambda^(lambda^($2^$1^$0)))^$1^(lambda^(lambda^($4^(lambda^($2^$0))^$0)))))))^(lambda^(lambda^($4^(lambda^($2^$0))^$0)))^$1^(lambda^(lambda^($5^$1^$0)))^$0)))))^(lambda^(lambda^($4^$1^$0)))^(lambda^(lambda^($3^(lambda^($2^$0))^$0)))^$3^$0)))))^$3^(lambda^(lambda^($3^$1^$0)))^(lambda^(lambda^($4^(lambda^($2^$0))^$0)))^$0)))))^$3^(lambda^(lambda^($4^(lambda^($2^$0))^$0)))^(lambda^(lambda^($3^$1^$0)))^$0)))))^$3^(lambda^(lambda^($4^(lambda^($2^$0))^$0)))^(lambda^(lambda^($3^$1^$0)))^$0)))))^$2^(lambda^(lambda^($3^(lambda^($2^$0))^$0)))^(lambda^(lambda^(#(lambda^(logo_PT^(lambda^(#(lambda^(logo_forLoop^$0^(lambda^(lambda^(#(lambda^(#(lambda^(lambda^(lambda^(logo_forLoop^$2^(lambda^(lambda^(logo_FWRT^$2^$3^$0)))))))^$0^(logo_DIVA^logo_UA^5)^logo_UL))^5^(logo_FWRT^logo_UL^logo_UA^$0))))))^$1^$0))))^$1^$0)))^$0)))) medium 0.0271605
#(lambda^(lambda^(lambda^(#(lambda^(lambda^(lambda^(lambda^(#(lambda^(lambda^(lambda^(lambda^(#(lambda^(lambda^(lambda^(lambda^(#(lambda^(lambda^(lambda^(lambda^(#(lambda^(lambda^(lambda^(lambda^(#(lambda^(lambda^(lambda^(#(lambda^(lambda^(lambda^(lambda^(logo_forLoop^$2^(lambda^(lambda^($3^(lambda^($6^$2^(#(#(lambda^(lambda^(lambda^(logo_forLoop^$2^(lambda^(lambda^(logo_FWRT^$2^$3^$0)))))))^logo_IFTY^logo_epsA)^(logo_MULL^logo_epsL^2)^$0)))^$0)))^$0)))))^(lambda^(lambda^($2^$1^$0)))^$1^(lambda^(lambda^($4^(lambda^($2^$0))^$0)))))))^(lambda^(lambda^($4^(lambda^($2^$0))^$0)))^$1^(lambda^(lambda^($5^$1^$0)))^$0)))))^(lambda^(lambda^($4^$1^$0)))^(lambda^(lambda^($3^(lambda^($2^$0))^$0)))^$3^$0)))))^$3^(lambda^(lambda^($3^$1^$0)))^(lambda^(lambda^($4^(lambda^($2^$0))^$0)))^$0)))))^$3^(lambda^(lambda^($4^(lambda^($2^$0))^$0)))^(lambda^(lambda^($3^$1^$0)))^$0)))))^$3^(lambda^(lambda^($4^(lambda^($2^$0))^$0)))^(lambda^(lambda^($3^$1^$0)))^$0)))))^$2^(lambda^(lambda^($3^(lambda^($2^$0))^$0)))^(lambda^(lambda^(#(lambda^(logo_PT^(lambda^(#(lambda^(logo_forLoop^$0^(lambda^(lambda^(#(lambda^(#(lambda^(lambda^(lambda^(logo_forLoop^$2^(lambda^(lambda^(logo_FWRT^$2^$3^$0)))))))^$0^(logo_DIVA^logo_UA^5)^logo_UL))^5^(logo_FWRT^logo_UL^logo_UA^$0))))))^$1^$0))))^$1^$0)))^$0)))) semicircle 0.0561224
#(lambda^(lambda^(lambda^(#(lambda^(lambda^(lambda^(lambda^(#(lambda^(lambda^(lambda^(lambda^(#(lambda^(lambda^(lambda^(lambda^(#(lambda^(lambda^(lambda^(lambda^(#(lambda^(lambda^(lambda^(lambda^(#(lambda^(lambda^(lambda^(#(lambda^(lambda^(lambda^(lambda^(logo_forLoop^$2^(lambda^(lambda^($3^(lambda^($6^$2^(#(#(lambda^(lambda^(lambda^(logo_forLoop^$2^(lambda^(lambda^(logo_FWRT^$2^$3^$0)))))))^logo_IFTY^logo_epsA)^(logo_MULL^logo_epsL^2)^$0)))^$0)))^$0)))))^(lambda^(lambda^($2^$1^$0)))^$1^(lambda^(lambda^($4^(lambda^($2^$0))^$0)))))))^(lambda^(lambda^($4^(lambda^($2^$0))^$0)))^$1^(lambda^(lambda^($5^$1^$0)))^$0)))))^(lambda^(lambda^($4^$1^$0)))^(lambda^(lambda^($3^(lambda^($2^$0))^$0)))^$3^$0)))))^$3^(lambda^(lambda^($3^$1^$0)))^(lambda^(lambda^($4^(lambda^($2^$0))^$0)))^$0)))))^$3^(lambda^(lambda^($4^(lambda^($2^$0))^$0)))^(lambda^(lambda^($3^$1^$0)))^$0)))))^$3^(lambda^(lambda^($4^(lambda^($2^$0))^$0)))^(lambda^(lambda^($3^$1^$0)))^$0)))))^$2^(lambda^(lambda^($3^(lambda^($2^$0))^$0)))^(lambda^(lambda^(#(lambda^(logo_PT^(lambda^(#(lambda^(logo_forLoop^$0^(lambda^(lambda^(#(lambda^(#(lambda^(lambda^(lambda^(logo_forLoop^$2^(lambda^(lambda^(logo_FWRT^$2^$3^$0)))))))^$0^(logo_DIVA^logo_UA^5)^logo_UL))^5^(logo_FWRT^logo_UL^logo_UA^$0))))))^$1^$0))))^$1^$0)))^$0)))) in 0.1262136
#(lambda^(lambda^(lambda^(#(lambda^(lambda^(lambda^(lambda^(#(lambda^(lambda^(lambda^(lambda^(#(lambda^(lambda^(lambda^(lambda^(#(lambda^(lambda^(lambda^(lambda^(#(lambda^(lambda^(lambda^(lambda^(#(lambda^(lambda^(lambda^(#(lambda^(lambda^(lambda^(lambda^(logo_forLoop^$2^(lambda^(lambda^($3^(lambda^($6^$2^(#(#(lambda^(lambda^(lambda^(logo_forLoop^$2^(lambda^(lambda^(logo_FWRT^$2^$3^$0)))))))^logo_IFTY^logo_epsA)^(logo_MULL^logo_epsL^2)^$0)))^$0)))^$0)))))^(lambda^(lambda^($2^$1^$0)))^$1^(lambda^(lambda^($4^(lambda^($2^$0))^$0)))))))^(lambda^(lambda^($4^(lambda^($2^$0))^$0)))^$1^(lambda^(lambda^($5^$1^$0)))^$0)))))^(lambda^(lambda^($4^$1^$0)))^(lambda^(lambda^($3^(lambda^($2^$0))^$0)))^$3^$0)))))^$3^(lambda^(lambda^($3^$1^$0)))^(lambda^(lambda^($4^(lambda^($2^$0))^$0)))^$0)))))^$3^(lambda^(lambda^($4^(lambda^($2^$0))^$0)))^(lambda^(lambda^($3^$1^$0)))^$0)))))^$3^(lambda^(lambda^($4^(lambda^($2^$0))^$0)))^(lambda^(lambda^($3^$1^$0)))^$0)))))^$2^(lambda^(lambda^($3^(lambda^($2^$0))^$0)))^(lambda^(lambda^(#(lambda^(logo_PT^(lambda^(#(lambda^(logo_forLoop^$0^(lambda^(lambda^(#(lambda^(#(lambda^(lambda^(lambda^(logo_forLoop^$2^(lambda^(lambda^(logo_FWRT^$2^$3^$0)))))))^$0^(logo_DIVA^logo_UA^5)^logo_UL))^5^(logo_FWRT^logo_UL^logo_UA^$0))))))^$1^$0))))^$1^$0)))^$0)))) and 0.0078637
#(lambda^(lambda^(lambda^(#(lambda^(lambda^(lambda^(lambda^(#(lambda^(lambda^(lambda^(lambda^(#(lambda^(lambda^(lambda^(lambda^(#(lambda^(lambda^(lambda^(lambda^(#(lambda^(lambda^(lambda^(lambda^(#(lambda^(lambda^(lambda^(#(lambda^(lambda^(lambda^(lambda^(logo_forLoop^$2^(lambda^(lambda^($3^(lambda^($6^$2^(#(#(lambda^(lambda^(lambda^(logo_forLoop^$2^(lambda^(lambda^(logo_FWRT^$2^$3^$0)))))))^logo_IFTY^logo_epsA)^(logo_MULL^logo_epsL^2)^$0)))^$0)))^$0)))))^(lambda^(lambda^($2^$1^$0)))^$1^(lambda^(lambda^($4^(lambda^($2^$0))^$0)))))))^(lambda^(lambda^($4^(lambda^($2^$0))^$0)))^$1^(lambda^(lambda^($5^$1^$0)))^$0)))))^(lambda^(lambda^($4^$1^$0)))^(lambda^(lambda^($3^(lambda^($2^$0))^$0)))^$3^$0)))))^$3^(lambda^(lambda^($3^$1^$0)))^(lambda^(lambda^($4^(lambda^($2^$0))^$0)))^$0)))))^$3^(lambda^(lambda^($4^(lambda^($2^$0))^$0)))^(lambda^(lambda^($3^$1^$0)))^$0)))))^$3^(lambda^(lambda^($4^(lambda^($2^$0))^$0)))^(lambda^(lambda^($3^$1^$0)))^$0)))))^$2^(lambda^(lambda^($3^(lambda^($2^$0))^$0)))^(lambda^(lambda^(#(lambda^(logo_PT^(lambda^(#(lambda^(logo_forLoop^$0^(lambda^(lambda^(#(lambda^(#(lambda^(lambda^(lambda^(logo_forLoop^$2^(lambda^(lambda^(logo_FWRT^$2^$3^$0)))))))^$0^(logo_DIVA^logo_UA^5)^logo_UL))^5^(logo_FWRT^logo_UL^logo_UA^$0))))))^$1^$0))))^$1^$0)))^$0)))) small 0.0027624
#(lambda^(lambda^(lambda^(#(lambda^(lambda^(lambda^(lambda^(#(lambda^(lambda^(lambda^(lambda^(#(lambda^(lambda^(lambda^(lambda^(#(lambda^(lambda^(lambda^(lambda^(#(lambda^(lambda^(lambda^(lambda^(#(lambda^(lambda^(lambda^(#(lambda^(lambda^(lambda^(lambda^(logo_forLoop^$2^(lambda^(lambda^($3^(lambda^($6^$2^(#(#(lambda^(lambda^(lambda^(logo_forLoop^$2^(lambda^(lambda^(logo_FWRT^$2^$3^$0)))))))^logo_IFTY^logo_epsA)^(logo_MULL^logo_epsL^2)^$0)))^$0)))^$0)))))^(lambda^(lambda^($2^$1^$0)))^$1^(lambda^(lambda^($4^(lambda^($2^$0))^$0)))))))^(lambda^(lambda^($4^(lambda^($2^$0))^$0)))^$1^(lambda^(lambda^($5^$1^$0)))^$0)))))^(lambda^(lambda^($4^$1^$0)))^(lambda^(lambda^($3^(lambda^($2^$0))^$0)))^$3^$0)))))^$3^(lambda^(lambda^($3^$1^$0)))^(lambda^(lambda^($4^(lambda^($2^$0))^$0)))^$0)))))^$3^(lambda^(lambda^($4^(lambda^($2^$0))^$0)))^(lambda^(lambda^($3^$1^$0)))^$0)))))^$3^(lambda^(lambda^($4^(lambda^($2^$0))^$0)))^(lambda^(lambda^($3^$1^$0)))^$0)))))^$2^(lambda^(lambda^($3^(lambda^($2^$0))^$0)))^(lambda^(lambda^(#(lambda^(logo_PT^(lambda^(#(lambda^(logo_forLoop^$0^(lambda^(lambda^(#(lambda^(#(lambda^(lambda^(lambda^(logo_forLoop^$2^(lambda^(lambda^(logo_FWRT^$2^$3^$0)))))))^$0^(logo_DIVA^logo_UA^5)^logo_UL))^5^(logo_FWRT^logo_UL^logo_UA^$0))))))^$1^$0))))^$1^$0)))^$0)))) with 0.0040323
#(lambda^(lambda^(lambda^(#(lambda^(lambda^(lambda^(lambda^(#(lambda^(lambda^(lambda^(lambda^(#(lambda^(lambda^(lambda^(lambda^(#(lambda^(lambda^(lambda^(lambda^(#(lambda^(lambda^(lambda^(lambda^(#(lambda^(lambda^(lambda^(#(lambda^(lambda^(lambda^(lambda^(logo_forLoop^$2^(lambda^(lambda^($3^(lambda^($6^$2^(#(#(lambda^(lambda^(lambda^(logo_forLoop^$2^(lambda^(lambda^(logo_FWRT^$2^$3^$0)))))))^logo_IFTY^logo_epsA)^(logo_MULL^logo_epsL^2)^$0)))^$0)))^$0)))))^(lambda^(lambda^($2^$1^$0)))^$1^(lambda^(lambda^($4^(lambda^($2^$0))^$0)))))))^(lambda^(lambda^($4^(lambda^($2^$0))^$0)))^$1^(lambda^(lambda^($5^$1^$0)))^$0)))))^(lambda^(lambda^($4^$1^$0)))^(lambda^(lambda^($3^(lambda^($2^$0))^$0)))^$3^$0)))))^$3^(lambda^(lambda^($3^$1^$0)))^(lambda^(lambda^($4^(lambda^($2^$0))^$0)))^$0)))))^$3^(lambda^(lambda^($4^(lambda^($2^$0))^$0)))^(lambda^(lambda^($3^$1^$0)))^$0)))))^$3^(lambda^(lambda^($4^(lambda^($2^$0))^$0)))^(lambda^(lambda^($3^$1^$0)))^$0)))))^$2^(lambda^(lambda^($3^(lambda^($2^$0))^$0)))^(lambda^(lambda^(#(lambda^(logo_PT^(lambda^(#(lambda^(logo_forLoop^$0^(lambda^(lambda^(#(lambda^(#(lambda^(lambda^(lambda^(logo_forLoop^$2^(lambda^(lambda^(logo_FWRT^$2^$3^$0)))))))^$0^(logo_DIVA^logo_UA^5)^logo_UL))^5^(logo_FWRT^logo_UL^logo_UA^$0))))))^$1^$0))))^$1^$0)))^$0)))) row 0.1100000
#(lambda^(lambda^(lambda^(#(lambda^(lambda^(lambda^(lambda^(#(lambda^(lambda^(lambda^(lambda^(#(lambda^(lambda^(lambda^(lambda^(#(lambda^(lambda^(lambda^(lambda^(#(lambda^(lambda^(lambda^(lambda^(#(lambda^(lambda^(lambda^(#(lambda^(lambda^(lambda^(lambda^(logo_forLoop^$2^(lambda^(lambda^($3^(lambda^($6^$2^(#(#(lambda^(lambda^(lambda^(logo_forLoop^$2^(lambda^(lambda^(logo_FWRT^$2^$3^$0)))))))^logo_IFTY^logo_epsA)^(logo_MULL^logo_epsL^2)^$0)))^$0)))^$0)))))^(lambda^(lambda^($2^$1^$0)))^$1^(lambda^(lambda^($4^(lambda^($2^$0))^$0)))))))^(lambda^(lambda^($4^(lambda^($2^$0))^$0)))^$1^(lambda^(lambda^($5^$1^$0)))^$0)))))^(lambda^(lambda^($4^$1^$0)))^(lambda^(lambda^($3^(lambda^($2^$0))^$0)))^$3^$0)))))^$3^(lambda^(lambda^($3^$1^$0)))^(lambda^(lambda^($4^(lambda^($2^$0))^$0)))^$0)))))^$3^(lambda^(lambda^($4^(lambda^($2^$0))^$0)))^(lambda^(lambda^($3^$1^$0)))^$0)))))^$3^(lambda^(lambda^($4^(lambda^($2^$0))^$0)))^(lambda^(lambda^($3^$1^$0)))^$0)))))^$2^(lambda^(lambda^($3^(lambda^($2^$0))^$0)))^(lambda^(lambda^(#(lambda^(logo_PT^(lambda^(#(lambda^(logo_forLoop^$0^(lambda^(lambda^(#(lambda^(#(lambda^(lambda^(lambda^(logo_forLoop^$2^(lambda^(lambda^(logo_FWRT^$2^$3^$0)))))))^$0^(logo_DIVA^logo_UA^5)^logo_UL))^5^(logo_FWRT^logo_UL^logo_UA^$0))))))^$1^$0))))^$1^$0)))^$0)))) arms 0.0040568
#(lambda^(lambda^(lambda^(#(lambda^(lambda^(lambda^(lambda^(#(lambda^(lambda^(lambda^(lambda^(#(lambda^(lambda^(lambda^(lambda^(#(lambda^(lambda^(lambda^(lambda^(#(lambda^(lambda^(lambda^(lambda^(#(lambda^(lambda^(lambda^(#(lambda^(lambda^(lambda^(lambda^(logo_forLoop^$2^(lambda^(lambda^($3^(lambda^($6^$2^(#(#(lambda^(lambda^(lambda^(logo_forLoop^$2^(lambda^(lambda^(logo_FWRT^$2^$3^$0)))))))^logo_IFTY^logo_epsA)^(logo_MULL^logo_epsL^2)^$0)))^$0)))^$0)))))^(lambda^(lambda^($2^$1^$0)))^$1^(lambda^(lambda^($4^(lambda^($2^$0))^$0)))))))^(lambda^(lambda^($4^(lambda^($2^$0))^$0)))^$1^(lambda^(lambda^($5^$1^$0)))^$0)))))^(lambda^(lambda^($4^$1^$0)))^(lambda^(lambda^($3^(lambda^($2^$0))^$0)))^$3^$0)))))^$3^(lambda^(lambda^($3^$1^$0)))^(lambda^(lambda^($4^(lambda^($2^$0))^$0)))^$0)))))^$3^(lambda^(lambda^($4^(lambda^($2^$0))^$0)))^(lambda^(lambda^($3^$1^$0)))^$0)))))^$3^(lambda^(lambda^($4^(lambda^($2^$0))^$0)))^(lambda^(lambda^($3^$1^$0)))^$0)))))^$2^(lambda^(lambda^($3^(lambda^($2^$0))^$0)))^(lambda^(lambda^(#(lambda^(logo_PT^(lambda^(#(lambda^(logo_forLoop^$0^(lambda^(lambda^(#(lambda^(#(lambda^(lambda^(lambda^(logo_forLoop^$2^(lambda^(lambda^(logo_FWRT^$2^$3^$0)))))))^$0^(logo_DIVA^logo_UA^5)^logo_UL))^5^(logo_FWRT^logo_UL^logo_UA^$0))))))^$1^$0))))^$1^$0)))^$0)))) as 0.0040323
#(lambda^(lambda^(lambda^(lambda^($2^(lambda^(lambda^(logo_FWRT^logo_ZL^(logo_DIVA^logo_UA^$5)^($3^$0))))^$0))))) arms 0.0040568
#(lambda^(lambda^(lambda^(lambda^($2^(lambda^(lambda^(logo_FWRT^logo_ZL^(logo_DIVA^logo_UA^$5)^($3^$0))))^$0))))) as 0.0040323
#(lambda^(lambda^(lambda^(lambda^($2^(lambda^(lambda^(logo_FWRT^logo_ZL^(logo_DIVA^logo_UA^$5)^($3^$0))))^$0))))) and 0.0078637
#(lambda^(lambda^(lambda^(lambda^($2^(lambda^(lambda^(logo_FWRT^logo_ZL^(logo_DIVA^logo_UA^$5)^($3^$0))))^$0))))) short 0.0075853
#(lambda^(lambda^(lambda^(lambda^($2^(lambda^(lambda^(logo_FWRT^logo_ZL^(logo_DIVA^logo_UA^$5)^($3^$0))))^$0))))) snowflake 0.0040000
#(lambda^(lambda^(lambda^(lambda^($2^(lambda^(lambda^(logo_FWRT^logo_ZL^(logo_DIVA^logo_UA^$5)^($3^$0))))^$0))))) small 0.0027624
#(lambda^(lambda^(lambda^(lambda^($2^(lambda^(lambda^(logo_FWRT^logo_ZL^(logo_DIVA^logo_UA^$5)^($3^$0))))^$0))))) with 0.0040323
#(lambda^(lambda^(lambda^(lambda^($2^(lambda^(lambda^(logo_FWRT^logo_ZL^(logo_DIVA^logo_UA^$5)^($3^$0))))^$0))))) sided 0.0040900
#(lambda^(lambda^(lambda^(lambda^($2^(lambda^(lambda^(logo_FWRT^logo_ZL^(logo_DIVA^logo_UA^$5)^($3^$0))))^$0))))) 5 0.0054054
#(lambda^(lambda^(lambda^(lambda^($2^(lambda^(lambda^(logo_FWRT^logo_ZL^(logo_DIVA^logo_UA^$5)^($3^$0))))^$0))))) a 0.0044803
#(lambda^(lambda^(lambda^(lambda^($2^(lambda^(lambda^(logo_FWRT^logo_ZL^(logo_DIVA^logo_UA^$5)^($3^$0))))^$0))))) space 0.0054795
#(lambda^(lambda^(lambda^(lambda^($2^(lambda^(lambda^(logo_FWRT^logo_ZL^(logo_DIVA^logo_UA^$5)^($3^$0))))^$0))))) line 0.0037594
ZERO gon 0.0024814
ZERO sided 0.1820041
ZERO 5 0.0054054
ZERO space 0.0054795
ZERO a 0.0044803
ZERO line 0.0037594
ZERO arms 0.0040568
ZERO next 0.0666667
ZERO as 0.0040323
ZERO zigzag 0.0357143
ZERO short 0.0075853
ZERO snowflake 0.1800000
ZERO and 0.0078637
ZERO with 0.1875000
ZERO small 0.0027624
#(lambda^(lambda^(lambda^($1^1^(#(lambda^(lambda^(#(lambda^(lambda^(lambda^(#(lambda^(lambda^(lambda^(logo_forLoop^$2^(lambda^(lambda^(logo_FWRT^$2^$3^$0)))))))^$2^(logo_DIVA^logo_UA^$1)^logo_UL^$0))))^$1^$1^$0)))^$2^$0))))) medium 0.0024691
#(lambda^(lambda^(lambda^($1^1^(#(lambda^(lambda^(#(lambda^(lambda^(lambda^(#(lambda^(lambda^(lambda^(logo_forLoop^$2^(lambda^(lambda^(logo_FWRT^$2^$3^$0)))))))^$2^(logo_DIVA^logo_UA^$1)^logo_UL^$0))))^$1^$1^$0)))^$2^$0))))) line 0.0488722
#(lambda^(lambda^(lambda^($1^1^(#(lambda^(lambda^(#(lambda^(lambda^(lambda^(#(lambda^(lambda^(lambda^(logo_forLoop^$2^(lambda^(lambda^(logo_FWRT^$2^$3^$0)))))))^$2^(logo_DIVA^logo_UA^$1)^logo_UL^$0))))^$1^$1^$0)))^$2^$0))))) vertical 0.1333333
#(lambda^(lambda^(lambda^($1^1^(#(lambda^(lambda^(#(lambda^(lambda^(lambda^(#(lambda^(lambda^(lambda^(logo_forLoop^$2^(lambda^(lambda^(logo_FWRT^$2^$3^$0)))))))^$2^(logo_DIVA^logo_UA^$1)^logo_UL^$0))))^$1^$1^$0)))^$2^$0))))) as 0.0040323
#(lambda^(lambda^(lambda^($1^1^(#(lambda^(lambda^(#(lambda^(lambda^(lambda^(#(lambda^(lambda^(lambda^(logo_forLoop^$2^(lambda^(lambda^(logo_FWRT^$2^$3^$0)))))))^$2^(logo_DIVA^logo_UA^$1)^logo_UL^$0))))^$1^$1^$0)))^$2^$0))))) next 0.0533333
#(lambda^(lambda^(lambda^($1^1^(#(lambda^(lambda^(#(lambda^(lambda^(lambda^(#(lambda^(lambda^(lambda^(logo_forLoop^$2^(lambda^(lambda^(logo_FWRT^$2^$3^$0)))))))^$2^(logo_DIVA^logo_UA^$1)^logo_UL^$0))))^$1^$1^$0)))^$2^$0))))) arms 0.0040568
#(lambda^(lambda^(lambda^($1^1^(#(lambda^(lambda^(#(lambda^(lambda^(lambda^(#(lambda^(lambda^(lambda^(logo_forLoop^$2^(lambda^(lambda^(logo_FWRT^$2^$3^$0)))))))^$2^(logo_DIVA^logo_UA^$1)^logo_UL^$0))))^$1^$1^$0)))^$2^$0))))) with 0.0040323
#(lambda^(lambda^(lambda^($1^1^(#(lambda^(lambda^(#(lambda^(lambda^(lambda^(#(lambda^(lambda^(lambda^(logo_forLoop^$2^(lambda^(lambda^(logo_FWRT^$2^$3^$0)))))))^$2^(logo_DIVA^logo_UA^$1)^logo_UL^$0))))^$1^$1^$0)))^$2^$0))))) small 0.0580110
#(lambda^(lambda^(lambda^($1^1^(#(lambda^(lambda^(#(lambda^(lambda^(lambda^(#(lambda^(lambda^(lambda^(logo_forLoop^$2^(lambda^(lambda^(logo_FWRT^$2^$3^$0)))))))^$2^(logo_DIVA^logo_UA^$1)^logo_UL^$0))))^$1^$1^$0)))^$2^$0))))) and 0.0157274
#(lambda^(lambda^(lambda^($1^1^(#(lambda^(lambda^(#(lambda^(lambda^(lambda^(#(lambda^(lambda^(lambda^(logo_forLoop^$2^(lambda^(lambda^(logo_FWRT^$2^$3^$0)))))))^$2^(logo_DIVA^logo_UA^$1)^logo_UL^$0))))^$1^$1^$0)))^$2^$0))))) 5 0.0054054
#(lambda^(lambda^(lambda^($1^1^(#(lambda^(lambda^(#(lambda^(lambda^(lambda^(#(lambda^(lambda^(lambda^(logo_forLoop^$2^(lambda^(lambda^(logo_FWRT^$2^$3^$0)))))))^$2^(logo_DIVA^logo_UA^$1)^logo_UL^$0))))^$1^$1^$0)))^$2^$0))))) sided 0.0040900
#(lambda^(lambda^(lambda^($1^1^(#(lambda^(lambda^(#(lambda^(lambda^(lambda^(#(lambda^(lambda^(lambda^(logo_forLoop^$2^(lambda^(lambda^(logo_FWRT^$2^$3^$0)))))))^$2^(logo_DIVA^logo_UA^$1)^logo_UL^$0))))^$1^$1^$0)))^$2^$0))))) gon 0.0645161
#(lambda^(lambda^(lambda^($1^1^(#(lambda^(lambda^(#(lambda^(lambda^(lambda^(#(lambda^(lambda^(lambda^(logo_forLoop^$2^(lambda^(lambda^(logo_FWRT^$2^$3^$0)))))))^$2^(logo_DIVA^logo_UA^$1)^logo_UL^$0))))^$1^$1^$0)))^$2^$0))))) a 0.0058244
#(lambda^(lambda^(lambda^($1^1^(#(lambda^(lambda^(#(lambda^(lambda^(lambda^(#(lambda^(lambda^(lambda^(logo_forLoop^$2^(lambda^(lambda^(logo_FWRT^$2^$3^$0)))))))^$2^(logo_DIVA^logo_UA^$1)^logo_UL^$0))))^$1^$1^$0)))^$2^$0))))) space 0.0054795
#(lambda^(lambda^(lambda^($1^1^(#(lambda^(lambda^(#(lambda^(lambda^(lambda^(#(lambda^(lambda^(lambda^(logo_forLoop^$2^(lambda^(lambda^(logo_FWRT^$2^$3^$0)))))))^$2^(logo_DIVA^logo_UA^$1)^logo_UL^$0))))^$1^$1^$0)))^$2^$0))))) to 0.1036585
#(lambda^(lambda^(lambda^($1^1^(#(lambda^(lambda^(#(lambda^(lambda^(lambda^(#(lambda^(lambda^(lambda^(logo_forLoop^$2^(lambda^(lambda^(logo_FWRT^$2^$3^$0)))))))^$2^(logo_DIVA^logo_UA^$1)^logo_UL^$0))))^$1^$1^$0)))^$2^$0))))) snowflake 0.0040000
#(lambda^(lambda^(lambda^($1^1^(#(lambda^(lambda^(#(lambda^(lambda^(lambda^(#(lambda^(lambda^(lambda^(logo_forLoop^$2^(lambda^(lambda^(logo_FWRT^$2^$3^$0)))))))^$2^(logo_DIVA^logo_UA^$1)^logo_UL^$0))))^$1^$1^$0)))^$2^$0))))) short 0.0075853
#(#(lambda^(lambda^(lambda^(logo_forLoop^$2^(lambda^(lambda^(logo_FWRT^$2^$3^$0)))))))^logo_IFTY^logo_epsA^(logo_MULL^logo_epsL^2)) short 0.0075853
#(#(lambda^(lambda^(lambda^(logo_forLoop^$2^(lambda^(lambda^(logo_FWRT^$2^$3^$0)))))))^logo_IFTY^logo_epsA^(logo_MULL^logo_epsL^2)) snowflake 0.0040000
#(#(lambda^(lambda^(lambda^(logo_forLoop^$2^(lambda^(lambda^(logo_FWRT^$2^$3^$0)))))))^logo_IFTY^logo_epsA^(logo_MULL^logo_epsL^2)) to 0.0426829
#(#(lambda^(lambda^(lambda^(logo_forLoop^$2^(lambda^(lambda^(logo_FWRT^$2^$3^$0)))))))^logo_IFTY^logo_epsA^(logo_MULL^logo_epsL^2)) sided 0.0040900
#(#(lambda^(lambda^(lambda^(logo_forLoop^$2^(lambda^(lambda^(logo_FWRT^$2^$3^$0)))))))^logo_IFTY^logo_epsA^(logo_MULL^logo_epsL^2)) 5 0.0054054
#(#(lambda^(lambda^(lambda^(logo_forLoop^$2^(lambda^(lambda^(logo_FWRT^$2^$3^$0)))))))^logo_IFTY^logo_epsA^(logo_MULL^logo_epsL^2)) space 0.0054795
#(#(lambda^(lambda^(lambda^(logo_forLoop^$2^(lambda^(lambda^(logo_FWRT^$2^$3^$0)))))))^logo_IFTY^logo_epsA^(logo_MULL^logo_epsL^2)) a 0.0062724
#(#(lambda^(lambda^(lambda^(logo_forLoop^$2^(lambda^(lambda^(logo_FWRT^$2^$3^$0)))))))^logo_IFTY^logo_epsA^(logo_MULL^logo_epsL^2)) arms 0.0040568
#(#(lambda^(lambda^(lambda^(logo_forLoop^$2^(lambda^(lambda^(logo_FWRT^$2^$3^$0)))))))^logo_IFTY^logo_epsA^(logo_MULL^logo_epsL^2)) next 0.0400000
#(#(lambda^(lambda^(lambda^(logo_forLoop^$2^(lambda^(lambda^(logo_FWRT^$2^$3^$0)))))))^logo_IFTY^logo_epsA^(logo_MULL^logo_epsL^2)) as 0.0040323
#(#(lambda^(lambda^(lambda^(logo_forLoop^$2^(lambda^(lambda^(logo_FWRT^$2^$3^$0)))))))^logo_IFTY^logo_epsA^(logo_MULL^logo_epsL^2)) and 0.0078637
#(#(lambda^(lambda^(lambda^(logo_forLoop^$2^(lambda^(lambda^(logo_FWRT^$2^$3^$0)))))))^logo_IFTY^logo_epsA^(logo_MULL^logo_epsL^2)) by 0.0629921
#(#(lambda^(lambda^(lambda^(logo_forLoop^$2^(lambda^(lambda^(logo_FWRT^$2^$3^$0)))))))^logo_IFTY^logo_epsA^(logo_MULL^logo_epsL^2)) with 0.0040323
#(#(lambda^(lambda^(lambda^(logo_forLoop^$2^(lambda^(lambda^(logo_FWRT^$2^$3^$0)))))))^logo_IFTY^logo_epsA^(logo_MULL^logo_epsL^2)) small 0.0027624
#(#(lambda^(lambda^(lambda^(logo_forLoop^$2^(lambda^(lambda^(logo_FWRT^$2^$3^$0)))))))^logo_IFTY^logo_epsA^(logo_MULL^logo_epsL^2)) circle 0.1043165
#(#(lambda^(lambda^(lambda^(logo_forLoop^$2^(lambda^(lambda^(logo_FWRT^$2^$3^$0)))))))^logo_IFTY^logo_epsA^(logo_MULL^logo_epsL^2)) connected 0.0740741
#(#(lambda^(lambda^(lambda^(logo_forLoop^$2^(lambda^(lambda^(logo_FWRT^$2^$3^$0)))))))^logo_IFTY^logo_epsA^(logo_MULL^logo_epsL^2)) line 0.0037594
#(#(lambda^(lambda^(lambda^(logo_forLoop^$2^(lambda^(lambda^(logo_FWRT^$2^$3^$0)))))))^logo_IFTY^logo_epsA^(logo_MULL^logo_epsL^2)) medium 0.1333333
#(#(lambda^(lambda^(lambda^(logo_forLoop^$2^(lambda^(lambda^(logo_FWRT^$2^$3^$0)))))))^logo_IFTY^logo_epsA^(logo_MULL^logo_epsL^2)) semicircle 0.2551020
#(lambda^(lambda^(logo_forLoop^$1^(lambda^(lambda^(logo_GETSET^(lambda^(#(lambda^(lambda^(#(lambda^(lambda^(logo_forLoop^7^(lambda^(lambda^(#(#(lambda^(lambda^(lambda^(logo_forLoop^$2^(lambda^(lambda^(logo_FWRT^$2^$3^$0)))))))^logo_IFTY^logo_epsA)^$3^$0)))^$0)))^(logo_MULL^logo_epsL^$1)^$0)))^$2^$0))^$0)))^$0))) circle 0.0755396
#(lambda^(lambda^(logo_forLoop^$1^(lambda^(lambda^(logo_GETSET^(lambda^(#(lambda^(lambda^(#(lambda^(lambda^(logo_forLoop^7^(lambda^(lambda^(#(#(lambda^(lambda^(lambda^(logo_forLoop^$2^(lambda^(lambda^(logo_FWRT^$2^$3^$0)))))))^logo_IFTY^logo_epsA)^$3^$0)))^$0)))^(logo_MULL^logo_epsL^$1)^$0)))^$2^$0))^$0)))^$0))) line 0.0037594
#(lambda^(lambda^(logo_forLoop^$1^(lambda^(lambda^(logo_GETSET^(lambda^(#(lambda^(lambda^(#(lambda^(lambda^(logo_forLoop^7^(lambda^(lambda^(#(#(lambda^(lambda^(lambda^(logo_forLoop^$2^(lambda^(lambda^(logo_FWRT^$2^$3^$0)))))))^logo_IFTY^logo_epsA)^$3^$0)))^$0)))^(logo_MULL^logo_epsL^$1)^$0)))^$2^$0))^$0)))^$0))) as 0.0040323
#(lambda^(lambda^(logo_forLoop^$1^(lambda^(lambda^(logo_GETSET^(lambda^(#(lambda^(lambda^(#(lambda^(lambda^(logo_forLoop^7^(lambda^(lambda^(#(#(lambda^(lambda^(lambda^(logo_forLoop^$2^(lambda^(lambda^(logo_FWRT^$2^$3^$0)))))))^logo_IFTY^logo_epsA)^$3^$0)))^$0)))^(logo_MULL^logo_epsL^$1)^$0)))^$2^$0))^$0)))^$0))) arms 0.0040568
#(lambda^(lambda^(logo_forLoop^$1^(lambda^(lambda^(logo_GETSET^(lambda^(#(lambda^(lambda^(#(lambda^(lambda^(logo_forLoop^7^(lambda^(lambda^(#(#(lambda^(lambda^(lambda^(logo_forLoop^$2^(lambda^(lambda^(logo_FWRT^$2^$3^$0)))))))^logo_IFTY^logo_epsA)^$3^$0)))^$0)))^(logo_MULL^logo_epsL^$1)^$0)))^$2^$0))^$0)))^$0))) with 0.0040323
#(lambda^(lambda^(logo_forLoop^$1^(lambda^(lambda^(logo_GETSET^(lambda^(#(lambda^(lambda^(#(lambda^(lambda^(logo_forLoop^7^(lambda^(lambda^(#(#(lambda^(lambda^(lambda^(logo_forLoop^$2^(lambda^(lambda^(logo_FWRT^$2^$3^$0)))))))^logo_IFTY^logo_epsA)^$3^$0)))^$0)))^(logo_MULL^logo_epsL^$1)^$0)))^$2^$0))^$0)))^$0))) small 0.0027624
#(lambda^(lambda^(logo_forLoop^$1^(lambda^(lambda^(logo_GETSET^(lambda^(#(lambda^(lambda^(#(lambda^(lambda^(logo_forLoop^7^(lambda^(lambda^(#(#(lambda^(lambda^(lambda^(logo_forLoop^$2^(lambda^(lambda^(logo_FWRT^$2^$3^$0)))))))^logo_IFTY^logo_epsA)^$3^$0)))^$0)))^(logo_MULL^logo_epsL^$1)^$0)))^$2^$0))^$0)))^$0))) and 0.0078637
#(lambda^(lambda^(logo_forLoop^$1^(lambda^(lambda^(logo_GETSET^(lambda^(#(lambda^(lambda^(#(lambda^(lambda^(logo_forLoop^7^(lambda^(lambda^(#(#(lambda^(lambda^(lambda^(logo_forLoop^$2^(lambda^(lambda^(logo_FWRT^$2^$3^$0)))))))^logo_IFTY^logo_epsA)^$3^$0)))^$0)))^(logo_MULL^logo_epsL^$1)^$0)))^$2^$0))^$0)))^$0))) 5 0.0054054
#(lambda^(lambda^(logo_forLoop^$1^(lambda^(lambda^(logo_GETSET^(lambda^(#(lambda^(lambda^(#(lambda^(lambda^(logo_forLoop^7^(lambda^(lambda^(#(#(lambda^(lambda^(lambda^(logo_forLoop^$2^(lambda^(lambda^(logo_FWRT^$2^$3^$0)))))))^logo_IFTY^logo_epsA)^$3^$0)))^$0)))^(logo_MULL^logo_epsL^$1)^$0)))^$2^$0))^$0)))^$0))) sided 0.0040900
#(lambda^(lambda^(logo_forLoop^$1^(lambda^(lambda^(logo_GETSET^(lambda^(#(lambda^(lambda^(#(lambda^(lambda^(logo_forLoop^7^(lambda^(lambda^(#(#(lambda^(lambda^(lambda^(logo_forLoop^$2^(lambda^(lambda^(logo_FWRT^$2^$3^$0)))))))^logo_IFTY^logo_epsA)^$3^$0)))^$0)))^(logo_MULL^logo_epsL^$1)^$0)))^$2^$0))^$0)))^$0))) 8 0.0486111
#(lambda^(lambda^(logo_forLoop^$1^(lambda^(lambda^(logo_GETSET^(lambda^(#(lambda^(lambda^(#(lambda^(lambda^(logo_forLoop^7^(lambda^(lambda^(#(#(lambda^(lambda^(lambda^(logo_forLoop^$2^(lambda^(lambda^(logo_FWRT^$2^$3^$0)))))))^logo_IFTY^logo_epsA)^$3^$0)))^$0)))^(logo_MULL^logo_epsL^$1)^$0)))^$2^$0))^$0)))^$0))) concentric 0.1619048
#(lambda^(lambda^(logo_forLoop^$1^(lambda^(lambda^(logo_GETSET^(lambda^(#(lambda^(lambda^(#(lambda^(lambda^(logo_forLoop^7^(lambda^(lambda^(#(#(lambda^(lambda^(lambda^(logo_forLoop^$2^(lambda^(lambda^(logo_FWRT^$2^$3^$0)))))))^logo_IFTY^logo_epsA)^$3^$0)))^$0)))^(logo_MULL^logo_epsL^$1)^$0)))^$2^$0))^$0)))^$0))) space 0.0054795
#(lambda^(lambda^(logo_forLoop^$1^(lambda^(lambda^(logo_GETSET^(lambda^(#(lambda^(lambda^(#(lambda^(lambda^(logo_forLoop^7^(lambda^(lambda^(#(#(lambda^(lambda^(lambda^(logo_forLoop^$2^(lambda^(lambda^(logo_FWRT^$2^$3^$0)))))))^logo_IFTY^logo_epsA)^$3^$0)))^$0)))^(logo_MULL^logo_epsL^$1)^$0)))^$2^$0))^$0)))^$0))) s 0.0732759
#(lambda^(lambda^(logo_forLoop^$1^(lambda^(lambda^(logo_GETSET^(lambda^(#(lambda^(lambda^(#(lambda^(lambda^(logo_forLoop^7^(lambda^(lambda^(#(#(lambda^(lambda^(lambda^(logo_forLoop^$2^(lambda^(lambda^(logo_FWRT^$2^$3^$0)))))))^logo_IFTY^logo_epsA)^$3^$0)))^$0)))^(logo_MULL^logo_epsL^$1)^$0)))^$2^$0))^$0)))^$0))) a 0.0044803
#(lambda^(lambda^(logo_forLoop^$1^(lambda^(lambda^(logo_GETSET^(lambda^(#(lambda^(lambda^(#(lambda^(lambda^(logo_forLoop^7^(lambda^(lambda^(#(#(lambda^(lambda^(lambda^(logo_forLoop^$2^(lambda^(lambda^(logo_FWRT^$2^$3^$0)))))))^logo_IFTY^logo_epsA)^$3^$0)))^$0)))^(logo_MULL^logo_epsL^$1)^$0)))^$2^$0))^$0)))^$0))) 7 0.0540541
#(lambda^(lambda^(logo_forLoop^$1^(lambda^(lambda^(logo_GETSET^(lambda^(#(lambda^(lambda^(#(lambda^(lambda^(logo_forLoop^7^(lambda^(lambda^(#(#(lambda^(lambda^(lambda^(logo_forLoop^$2^(lambda^(lambda^(logo_FWRT^$2^$3^$0)))))))^logo_IFTY^logo_epsA)^$3^$0)))^$0)))^(logo_MULL^logo_epsL^$1)^$0)))^$2^$0))^$0)))^$0))) short 0.0075853
#(lambda^(lambda^(logo_forLoop^$1^(lambda^(lambda^(logo_GETSET^(lambda^(#(lambda^(lambda^(#(lambda^(lambda^(logo_forLoop^7^(lambda^(lambda^(#(#(lambda^(lambda^(lambda^(logo_forLoop^$2^(lambda^(lambda^(logo_FWRT^$2^$3^$0)))))))^logo_IFTY^logo_epsA)^$3^$0)))^$0)))^(logo_MULL^logo_epsL^$1)^$0)))^$2^$0))^$0)))^$0))) snowflake 0.0040000
#(lambda^(lambda^(lambda^(lambda^(#(lambda^(lambda^(lambda^(lambda^(#(lambda^(lambda^(lambda^(#(lambda^(lambda^(lambda^(lambda^(logo_forLoop^$2^(lambda^(lambda^($3^(lambda^($6^$2^(#(#(lambda^(lambda^(lambda^(logo_forLoop^$2^(lambda^(lambda^(logo_FWRT^$2^$3^$0)))))))^logo_IFTY^logo_epsA)^(logo_MULL^logo_epsL^2)^$0)))^$0)))^$0)))))^(lambda^(lambda^($2^$1^$0)))^$1^(lambda^(lambda^($4^(lambda^($2^$0))^$0)))))))^(lambda^(lambda^($4^(lambda^($2^$0))^$0)))^$1^(lambda^(lambda^($5^$1^$0)))^$0)))))^(lambda^(lambda^($4^$1^$0)))^(lambda^(lambda^($3^(lambda^($2^$0))^$0)))^$3^$0))))) line 0.0037594
#(lambda^(lambda^(lambda^(lambda^(#(lambda^(lambda^(lambda^(lambda^(#(lambda^(lambda^(lambda^(#(lambda^(lambda^(lambda^(lambda^(logo_forLoop^$2^(lambda^(lambda^($3^(lambda^($6^$2^(#(#(lambda^(lambda^(lambda^(logo_forLoop^$2^(lambda^(lambda^(logo_FWRT^$2^$3^$0)))))))^logo_IFTY^logo_epsA)^(logo_MULL^logo_epsL^2)^$0)))^$0)))^$0)))))^(lambda^(lambda^($2^$1^$0)))^$1^(lambda^(lambda^($4^(lambda^($2^$0))^$0)))))))^(lambda^(lambda^($4^(lambda^($2^$0))^$0)))^$1^(lambda^(lambda^($5^$1^$0)))^$0)))))^(lambda^(lambda^($4^$1^$0)))^(lambda^(lambda^($3^(lambda^($2^$0))^$0)))^$3^$0))))) space 0.0054795
#(lambda^(lambda^(lambda^(lambda^(#(lambda^(lambda^(lambda^(lambda^(#(lambda^(lambda^(lambda^(#(lambda^(lambda^(lambda^(lambda^(logo_forLoop^$2^(lambda^(lambda^($3^(lambda^($6^$2^(#(#(lambda^(lambda^(lambda^(logo_forLoop^$2^(lambda^(lambda^(logo_FWRT^$2^$3^$0)))))))^logo_IFTY^logo_epsA)^(logo_MULL^logo_epsL^2)^$0)))^$0)))^$0)))))^(lambda^(lambda^($2^$1^$0)))^$1^(lambda^(lambda^($4^(lambda^($2^$0))^$0)))))))^(lambda^(lambda^($4^(lambda^($2^$0))^$0)))^$1^(lambda^(lambda^($5^$1^$0)))^$0)))))^(lambda^(lambda^($4^$1^$0)))^(lambda^(lambda^($3^(lambda^($2^$0))^$0)))^$3^$0))))) a 0.0044803
#(lambda^(lambda^(lambda^(lambda^(#(lambda^(lambda^(lambda^(lambda^(#(lambda^(lambda^(lambda^(#(lambda^(lambda^(lambda^(lambda^(logo_forLoop^$2^(lambda^(lambda^($3^(lambda^($6^$2^(#(#(lambda^(lambda^(lambda^(logo_forLoop^$2^(lambda^(lambda^(logo_FWRT^$2^$3^$0)))))))^logo_IFTY^logo_epsA)^(logo_MULL^logo_epsL^2)^$0)))^$0)))^$0)))))^(lambda^(lambda^($2^$1^$0)))^$1^(lambda^(lambda^($4^(lambda^($2^$0))^$0)))))))^(lambda^(lambda^($4^(lambda^($2^$0))^$0)))^$1^(lambda^(lambda^($5^$1^$0)))^$0)))))^(lambda^(lambda^($4^$1^$0)))^(lambda^(lambda^($3^(lambda^($2^$0))^$0)))^$3^$0))))) sided 0.0040900
#(lambda^(lambda^(lambda^(lambda^(#(lambda^(lambda^(lambda^(lambda^(#(lambda^(lambda^(lambda^(#(lambda^(lambda^(lambda^(lambda^(logo_forLoop^$2^(lambda^(lambda^($3^(lambda^($6^$2^(#(#(lambda^(lambda^(lambda^(logo_forLoop^$2^(lambda^(lambda^(logo_FWRT^$2^$3^$0)))))))^logo_IFTY^logo_epsA)^(logo_MULL^logo_epsL^2)^$0)))^$0)))^$0)))))^(lambda^(lambda^($2^$1^$0)))^$1^(lambda^(lambda^($4^(lambda^($2^$0))^$0)))))))^(lambda^(lambda^($4^(lambda^($2^$0))^$0)))^$1^(lambda^(lambda^($5^$1^$0)))^$0)))))^(lambda^(lambda^($4^$1^$0)))^(lambda^(lambda^($3^(lambda^($2^$0))^$0)))^$3^$0))))) 5 0.0054054
#(lambda^(lambda^(lambda^(lambda^(#(lambda^(lambda^(lambda^(lambda^(#(lambda^(lambda^(lambda^(#(lambda^(lambda^(lambda^(lambda^(logo_forLoop^$2^(lambda^(lambda^($3^(lambda^($6^$2^(#(#(lambda^(lambda^(lambda^(logo_forLoop^$2^(lambda^(lambda^(logo_FWRT^$2^$3^$0)))))))^logo_IFTY^logo_epsA)^(logo_MULL^logo_epsL^2)^$0)))^$0)))^$0)))))^(lambda^(lambda^($2^$1^$0)))^$1^(lambda^(lambda^($4^(lambda^($2^$0))^$0)))))))^(lambda^(lambda^($4^(lambda^($2^$0))^$0)))^$1^(lambda^(lambda^($5^$1^$0)))^$0)))))^(lambda^(lambda^($4^$1^$0)))^(lambda^(lambda^($3^(lambda^($2^$0))^$0)))^$3^$0))))) with 0.0040323
#(lambda^(lambda^(lambda^(lambda^(#(lambda^(lambda^(lambda^(lambda^(#(lambda^(lambda^(lambda^(#(lambda^(lambda^(lambda^(lambda^(logo_forLoop^$2^(lambda^(lambda^($3^(lambda^($6^$2^(#(#(lambda^(lambda^(lambda^(logo_forLoop^$2^(lambda^(lambda^(logo_FWRT^$2^$3^$0)))))))^logo_IFTY^logo_epsA)^(logo_MULL^logo_epsL^2)^$0)))^$0)))^$0)))))^(lambda^(lambda^($2^$1^$0)))^$1^(lambda^(lambda^($4^(lambda^($2^$0))^$0)))))))^(lambda^(lambda^($4^(lambda^($2^$0))^$0)))^$1^(lambda^(lambda^($5^$1^$0)))^$0)))))^(lambda^(lambda^($4^$1^$0)))^(lambda^(lambda^($3^(lambda^($2^$0))^$0)))^$3^$0))))) small 0.0027624
#(lambda^(lambda^(lambda^(lambda^(#(lambda^(lambda^(lambda^(lambda^(#(lambda^(lambda^(lambda^(#(lambda^(lambda^(lambda^(lambda^(logo_forLoop^$2^(lambda^(lambda^($3^(lambda^($6^$2^(#(#(lambda^(lambda^(lambda^(logo_forLoop^$2^(lambda^(lambda^(logo_FWRT^$2^$3^$0)))))))^logo_IFTY^logo_epsA)^(logo_MULL^logo_epsL^2)^$0)))^$0)))^$0)))))^(lambda^(lambda^($2^$1^$0)))^$1^(lambda^(lambda^($4^(lambda^($2^$0))^$0)))))))^(lambda^(lambda^($4^(lambda^($2^$0))^$0)))^$1^(lambda^(lambda^($5^$1^$0)))^$0)))))^(lambda^(lambda^($4^$1^$0)))^(lambda^(lambda^($3^(lambda^($2^$0))^$0)))^$3^$0))))) short 0.0075853
#(lambda^(lambda^(lambda^(lambda^(#(lambda^(lambda^(lambda^(lambda^(#(lambda^(lambda^(lambda^(#(lambda^(lambda^(lambda^(lambda^(logo_forLoop^$2^(lambda^(lambda^($3^(lambda^($6^$2^(#(#(lambda^(lambda^(lambda^(logo_forLoop^$2^(lambda^(lambda^(logo_FWRT^$2^$3^$0)))))))^logo_IFTY^logo_epsA)^(logo_MULL^logo_epsL^2)^$0)))^$0)))^$0)))))^(lambda^(lambda^($2^$1^$0)))^$1^(lambda^(lambda^($4^(lambda^($2^$0))^$0)))))))^(lambda^(lambda^($4^(lambda^($2^$0))^$0)))^$1^(lambda^(lambda^($5^$1^$0)))^$0)))))^(lambda^(lambda^($4^$1^$0)))^(lambda^(lambda^($3^(lambda^($2^$0))^$0)))^$3^$0))))) snowflake 0.0040000
#(lambda^(lambda^(lambda^(lambda^(#(lambda^(lambda^(lambda^(lambda^(#(lambda^(lambda^(lambda^(#(lambda^(lambda^(lambda^(lambda^(logo_forLoop^$2^(lambda^(lambda^($3^(lambda^($6^$2^(#(#(lambda^(lambda^(lambda^(logo_forLoop^$2^(lambda^(lambda^(logo_FWRT^$2^$3^$0)))))))^logo_IFTY^logo_epsA)^(logo_MULL^logo_epsL^2)^$0)))^$0)))^$0)))))^(lambda^(lambda^($2^$1^$0)))^$1^(lambda^(lambda^($4^(lambda^($2^$0))^$0)))))))^(lambda^(lambda^($4^(lambda^($2^$0))^$0)))^$1^(lambda^(lambda^($5^$1^$0)))^$0)))))^(lambda^(lambda^($4^$1^$0)))^(lambda^(lambda^($3^(lambda^($2^$0))^$0)))^$3^$0))))) and 0.0078637
#(lambda^(lambda^(lambda^(lambda^(#(lambda^(lambda^(lambda^(lambda^(#(lambda^(lambda^(lambda^(#(lambda^(lambda^(lambda^(lambda^(logo_forLoop^$2^(lambda^(lambda^($3^(lambda^($6^$2^(#(#(lambda^(lambda^(lambda^(logo_forLoop^$2^(lambda^(lambda^(logo_FWRT^$2^$3^$0)))))))^logo_IFTY^logo_epsA)^(logo_MULL^logo_epsL^2)^$0)))^$0)))^$0)))))^(lambda^(lambda^($2^$1^$0)))^$1^(lambda^(lambda^($4^(lambda^($2^$0))^$0)))))))^(lambda^(lambda^($4^(lambda^($2^$0))^$0)))^$1^(lambda^(lambda^($5^$1^$0)))^$0)))))^(lambda^(lambda^($4^$1^$0)))^(lambda^(lambda^($3^(lambda^($2^$0))^$0)))^$3^$0))))) arms 0.0040568
#(lambda^(lambda^(lambda^(lambda^(#(lambda^(lambda^(lambda^(lambda^(#(lambda^(lambda^(lambda^(#(lambda^(lambda^(lambda^(lambda^(logo_forLoop^$2^(lambda^(lambda^($3^(lambda^($6^$2^(#(#(lambda^(lambda^(lambda^(logo_forLoop^$2^(lambda^(lambda^(logo_FWRT^$2^$3^$0)))))))^logo_IFTY^logo_epsA)^(logo_MULL^logo_epsL^2)^$0)))^$0)))^$0)))))^(lambda^(lambda^($2^$1^$0)))^$1^(lambda^(lambda^($4^(lambda^($2^$0))^$0)))))))^(lambda^(lambda^($4^(lambda^($2^$0))^$0)))^$1^(lambda^(lambda^($5^$1^$0)))^$0)))))^(lambda^(lambda^($4^$1^$0)))^(lambda^(lambda^($3^(lambda^($2^$0))^$0)))^$3^$0))))) as 0.0040323
logo_UL small 0.0027624
logo_UL with 0.0040323
logo_UL short 0.0075853
logo_UL snowflake 0.0040000
logo_UL and 0.0078637
logo_UL by 0.0157480
logo_UL arms 0.0040568
logo_UL as 0.0040323
logo_UL line 0.0263158
logo_UL a 0.0044803
logo_UL space 0.0054795
logo_UL big 0.0320000
logo_UL sided 0.0040900
logo_UL pointed 0.1724138
logo_UL 5 0.0054054
#(lambda^(lambda^(lambda^(lambda^(logo_forLoop^$2^(lambda^(lambda^(#(lambda^(lambda^(#(lambda^(lambda^(lambda^(#(lambda^(lambda^(lambda^(logo_forLoop^$2^(lambda^(lambda^(logo_FWRT^$2^$3^$0)))))))^$2^(logo_DIVA^logo_UA^$1)^logo_UL^$0))))^$1^$1^$0)))^$3^(#(lambda^(lambda^(#(lambda^(lambda^(lambda^(#(lambda^(lambda^(lambda^(logo_forLoop^$2^(lambda^(lambda^(logo_FWRT^$2^$3^$0)))))))^$2^(logo_DIVA^logo_UA^$1)^logo_UL^$0))))^$1^$1^$0)))^$5^$0))))^$0))))) a 0.0044803
#(lambda^(lambda^(lambda^(lambda^(logo_forLoop^$2^(lambda^(lambda^(#(lambda^(lambda^(#(lambda^(lambda^(lambda^(#(lambda^(lambda^(lambda^(logo_forLoop^$2^(lambda^(lambda^(logo_FWRT^$2^$3^$0)))))))^$2^(logo_DIVA^logo_UA^$1)^logo_UL^$0))))^$1^$1^$0)))^$3^(#(lambda^(lambda^(#(lambda^(lambda^(lambda^(#(lambda^(lambda^(lambda^(logo_forLoop^$2^(lambda^(lambda^(logo_FWRT^$2^$3^$0)))))))^$2^(logo_DIVA^logo_UA^$1)^logo_UL^$0))))^$1^$1^$0)))^$5^$0))))^$0))))) space 0.0054795
#(lambda^(lambda^(lambda^(lambda^(logo_forLoop^$2^(lambda^(lambda^(#(lambda^(lambda^(#(lambda^(lambda^(lambda^(#(lambda^(lambda^(lambda^(logo_forLoop^$2^(lambda^(lambda^(logo_FWRT^$2^$3^$0)))))))^$2^(logo_DIVA^logo_UA^$1)^logo_UL^$0))))^$1^$1^$0)))^$3^(#(lambda^(lambda^(#(lambda^(lambda^(lambda^(#(lambda^(lambda^(lambda^(logo_forLoop^$2^(lambda^(lambda^(logo_FWRT^$2^$3^$0)))))))^$2^(logo_DIVA^logo_UA^$1)^logo_UL^$0))))^$1^$1^$0)))^$5^$0))))^$0))))) s 0.1206897
#(lambda^(lambda^(lambda^(lambda^(logo_forLoop^$2^(lambda^(lambda^(#(lambda^(lambda^(#(lambda^(lambda^(lambda^(#(lambda^(lambda^(lambda^(logo_forLoop^$2^(lambda^(lambda^(logo_FWRT^$2^$3^$0)))))))^$2^(logo_DIVA^logo_UA^$1)^logo_UL^$0))))^$1^$1^$0)))^$3^(#(lambda^(lambda^(#(lambda^(lambda^(lambda^(#(lambda^(lambda^(lambda^(logo_forLoop^$2^(lambda^(lambda^(logo_FWRT^$2^$3^$0)))))))^$2^(logo_DIVA^logo_UA^$1)^logo_UL^$0))))^$1^$1^$0)))^$5^$0))))^$0))))) sided 0.0040900
#(lambda^(lambda^(lambda^(lambda^(logo_forLoop^$2^(lambda^(lambda^(#(lambda^(lambda^(#(lambda^(lambda^(lambda^(#(lambda^(lambda^(lambda^(logo_forLoop^$2^(lambda^(lambda^(logo_FWRT^$2^$3^$0)))))))^$2^(logo_DIVA^logo_UA^$1)^logo_UL^$0))))^$1^$1^$0)))^$3^(#(lambda^(lambda^(#(lambda^(lambda^(lambda^(#(lambda^(lambda^(lambda^(logo_forLoop^$2^(lambda^(lambda^(logo_FWRT^$2^$3^$0)))))))^$2^(logo_DIVA^logo_UA^$1)^logo_UL^$0))))^$1^$1^$0)))^$5^$0))))^$0))))) 5 0.0054054
#(lambda^(lambda^(lambda^(lambda^(logo_forLoop^$2^(lambda^(lambda^(#(lambda^(lambda^(#(lambda^(lambda^(lambda^(#(lambda^(lambda^(lambda^(logo_forLoop^$2^(lambda^(lambda^(logo_FWRT^$2^$3^$0)))))))^$2^(logo_DIVA^logo_UA^$1)^logo_UL^$0))))^$1^$1^$0)))^$3^(#(lambda^(lambda^(#(lambda^(lambda^(lambda^(#(lambda^(lambda^(lambda^(logo_forLoop^$2^(lambda^(lambda^(logo_FWRT^$2^$3^$0)))))))^$2^(logo_DIVA^logo_UA^$1)^logo_UL^$0))))^$1^$1^$0)))^$5^$0))))^$0))))) short 0.0075853
#(lambda^(lambda^(lambda^(lambda^(logo_forLoop^$2^(lambda^(lambda^(#(lambda^(lambda^(#(lambda^(lambda^(lambda^(#(lambda^(lambda^(lambda^(logo_forLoop^$2^(lambda^(lambda^(logo_FWRT^$2^$3^$0)))))))^$2^(logo_DIVA^logo_UA^$1)^logo_UL^$0))))^$1^$1^$0)))^$3^(#(lambda^(lambda^(#(lambda^(lambda^(lambda^(#(lambda^(lambda^(lambda^(logo_forLoop^$2^(lambda^(lambda^(logo_FWRT^$2^$3^$0)))))))^$2^(logo_DIVA^logo_UA^$1)^logo_UL^$0))))^$1^$1^$0)))^$5^$0))))^$0))))) snowflake 0.0040000
#(lambda^(lambda^(lambda^(lambda^(logo_forLoop^$2^(lambda^(lambda^(#(lambda^(lambda^(#(lambda^(lambda^(lambda^(#(lambda^(lambda^(lambda^(logo_forLoop^$2^(lambda^(lambda^(logo_FWRT^$2^$3^$0)))))))^$2^(logo_DIVA^logo_UA^$1)^logo_UL^$0))))^$1^$1^$0)))^$3^(#(lambda^(lambda^(#(lambda^(lambda^(lambda^(#(lambda^(lambda^(lambda^(logo_forLoop^$2^(lambda^(lambda^(logo_FWRT^$2^$3^$0)))))))^$2^(logo_DIVA^logo_UA^$1)^logo_UL^$0))))^$1^$1^$0)))^$5^$0))))^$0))))) connected 0.0277778
#(lambda^(lambda^(lambda^(lambda^(logo_forLoop^$2^(lambda^(lambda^(#(lambda^(lambda^(#(lambda^(lambda^(lambda^(#(lambda^(lambda^(lambda^(logo_forLoop^$2^(lambda^(lambda^(logo_FWRT^$2^$3^$0)))))))^$2^(logo_DIVA^logo_UA^$1)^logo_UL^$0))))^$1^$1^$0)))^$3^(#(lambda^(lambda^(#(lambda^(lambda^(lambda^(#(lambda^(lambda^(lambda^(logo_forLoop^$2^(lambda^(lambda^(logo_FWRT^$2^$3^$0)))))))^$2^(logo_DIVA^logo_UA^$1)^logo_UL^$0))))^$1^$1^$0)))^$5^$0))))^$0))))) line 0.0037594
#(lambda^(lambda^(lambda^(lambda^(logo_forLoop^$2^(lambda^(lambda^(#(lambda^(lambda^(#(lambda^(lambda^(lambda^(#(lambda^(lambda^(lambda^(logo_forLoop^$2^(lambda^(lambda^(logo_FWRT^$2^$3^$0)))))))^$2^(logo_DIVA^logo_UA^$1)^logo_UL^$0))))^$1^$1^$0)))^$3^(#(lambda^(lambda^(#(lambda^(lambda^(lambda^(#(lambda^(lambda^(lambda^(logo_forLoop^$2^(lambda^(lambda^(logo_FWRT^$2^$3^$0)))))))^$2^(logo_DIVA^logo_UA^$1)^logo_UL^$0))))^$1^$1^$0)))^$5^$0))))^$0))))) in 0.2815534
#(lambda^(lambda^(lambda^(lambda^(logo_forLoop^$2^(lambda^(lambda^(#(lambda^(lambda^(#(lambda^(lambda^(lambda^(#(lambda^(lambda^(lambda^(logo_forLoop^$2^(lambda^(lambda^(logo_FWRT^$2^$3^$0)))))))^$2^(logo_DIVA^logo_UA^$1)^logo_UL^$0))))^$1^$1^$0)))^$3^(#(lambda^(lambda^(#(lambda^(lambda^(lambda^(#(lambda^(lambda^(lambda^(logo_forLoop^$2^(lambda^(lambda^(logo_FWRT^$2^$3^$0)))))))^$2^(logo_DIVA^logo_UA^$1)^logo_UL^$0))))^$1^$1^$0)))^$5^$0))))^$0))))) and 0.0078637
#(lambda^(lambda^(lambda^(lambda^(logo_forLoop^$2^(lambda^(lambda^(#(lambda^(lambda^(#(lambda^(lambda^(lambda^(#(lambda^(lambda^(lambda^(logo_forLoop^$2^(lambda^(lambda^(logo_FWRT^$2^$3^$0)))))))^$2^(logo_DIVA^logo_UA^$1)^logo_UL^$0))))^$1^$1^$0)))^$3^(#(lambda^(lambda^(#(lambda^(lambda^(lambda^(#(lambda^(lambda^(lambda^(logo_forLoop^$2^(lambda^(lambda^(logo_FWRT^$2^$3^$0)))))))^$2^(logo_DIVA^logo_UA^$1)^logo_UL^$0))))^$1^$1^$0)))^$5^$0))))^$0))))) with 0.0040323
#(lambda^(lambda^(lambda^(lambda^(logo_forLoop^$2^(lambda^(lambda^(#(lambda^(lambda^(#(lambda^(lambda^(lambda^(#(lambda^(lambda^(lambda^(logo_forLoop^$2^(lambda^(lambda^(logo_FWRT^$2^$3^$0)))))))^$2^(logo_DIVA^logo_UA^$1)^logo_UL^$0))))^$1^$1^$0)))^$3^(#(lambda^(lambda^(#(lambda^(lambda^(lambda^(#(lambda^(lambda^(lambda^(logo_forLoop^$2^(lambda^(lambda^(logo_FWRT^$2^$3^$0)))))))^$2^(logo_DIVA^logo_UA^$1)^logo_UL^$0))))^$1^$1^$0)))^$5^$0))))^$0))))) small 0.0027624
#(lambda^(lambda^(lambda^(lambda^(logo_forLoop^$2^(lambda^(lambda^(#(lambda^(lambda^(#(lambda^(lambda^(lambda^(#(lambda^(lambda^(lambda^(logo_forLoop^$2^(lambda^(lambda^(logo_FWRT^$2^$3^$0)))))))^$2^(logo_DIVA^logo_UA^$1)^logo_UL^$0))))^$1^$1^$0)))^$3^(#(lambda^(lambda^(#(lambda^(lambda^(lambda^(#(lambda^(lambda^(lambda^(logo_forLoop^$2^(lambda^(lambda^(logo_FWRT^$2^$3^$0)))))))^$2^(logo_DIVA^logo_UA^$1)^logo_UL^$0))))^$1^$1^$0)))^$5^$0))))^$0))))) row 0.2900000
#(lambda^(lambda^(lambda^(lambda^(logo_forLoop^$2^(lambda^(lambda^(#(lambda^(lambda^(#(lambda^(lambda^(lambda^(#(lambda^(lambda^(lambda^(logo_forLoop^$2^(lambda^(lambda^(logo_FWRT^$2^$3^$0)))))))^$2^(logo_DIVA^logo_UA^$1)^logo_UL^$0))))^$1^$1^$0)))^$3^(#(lambda^(lambda^(#(lambda^(lambda^(lambda^(#(lambda^(lambda^(lambda^(logo_forLoop^$2^(lambda^(lambda^(logo_FWRT^$2^$3^$0)))))))^$2^(logo_DIVA^logo_UA^$1)^logo_UL^$0))))^$1^$1^$0)))^$5^$0))))^$0))))) arms 0.0040568
#(lambda^(lambda^(lambda^(lambda^(logo_forLoop^$2^(lambda^(lambda^(#(lambda^(lambda^(#(lambda^(lambda^(lambda^(#(lambda^(lambda^(lambda^(logo_forLoop^$2^(lambda^(lambda^(logo_FWRT^$2^$3^$0)))))))^$2^(logo_DIVA^logo_UA^$1)^logo_UL^$0))))^$1^$1^$0)))^$3^(#(lambda^(lambda^(#(lambda^(lambda^(lambda^(#(lambda^(lambda^(lambda^(logo_forLoop^$2^(lambda^(lambda^(logo_FWRT^$2^$3^$0)))))))^$2^(logo_DIVA^logo_UA^$1)^logo_UL^$0))))^$1^$1^$0)))^$5^$0))))^$0))))) as 0.0040323
#(lambda^(#(#(lambda^(lambda^(lambda^(logo_forLoop^$2^(lambda^(lambda^(logo_FWRT^$2^$3^$0)))))))^logo_IFTY^logo_epsA)^logo_epsL^$0)) connected 0.0925926
#(lambda^(#(#(lambda^(lambda^(lambda^(logo_forLoop^$2^(lambda^(lambda^(logo_FWRT^$2^$3^$0)))))))^logo_IFTY^logo_epsA)^logo_epsL^$0)) line 0.0037594
#(lambda^(#(#(lambda^(lambda^(lambda^(logo_forLoop^$2^(lambda^(lambda^(logo_FWRT^$2^$3^$0)))))))^logo_IFTY^logo_epsA)^logo_epsL^$0)) semicircle 0.2959184
#(lambda^(#(#(lambda^(lambda^(lambda^(logo_forLoop^$2^(lambda^(lambda^(logo_FWRT^$2^$3^$0)))))))^logo_IFTY^logo_epsA)^logo_epsL^$0)) 2 0.1538462
#(lambda^(#(#(lambda^(lambda^(lambda^(logo_forLoop^$2^(lambda^(lambda^(logo_FWRT^$2^$3^$0)))))))^logo_IFTY^logo_epsA)^logo_epsL^$0)) circle 0.0899281
#(lambda^(#(#(lambda^(lambda^(lambda^(logo_forLoop^$2^(lambda^(lambda^(logo_FWRT^$2^$3^$0)))))))^logo_IFTY^logo_epsA)^logo_epsL^$0)) and 0.0078637
#(lambda^(#(#(lambda^(lambda^(lambda^(logo_forLoop^$2^(lambda^(lambda^(logo_FWRT^$2^$3^$0)))))))^logo_IFTY^logo_epsA)^logo_epsL^$0)) by 0.0787402
#(lambda^(#(#(lambda^(lambda^(lambda^(logo_forLoop^$2^(lambda^(lambda^(logo_FWRT^$2^$3^$0)))))))^logo_IFTY^logo_epsA)^logo_epsL^$0)) small 0.0787293
#(lambda^(#(#(lambda^(lambda^(lambda^(logo_forLoop^$2^(lambda^(lambda^(logo_FWRT^$2^$3^$0)))))))^logo_IFTY^logo_epsA)^logo_epsL^$0)) with 0.0040323
#(lambda^(#(#(lambda^(lambda^(lambda^(logo_forLoop^$2^(lambda^(lambda^(logo_FWRT^$2^$3^$0)))))))^logo_IFTY^logo_epsA)^logo_epsL^$0)) arms 0.0040568
#(lambda^(#(#(lambda^(lambda^(lambda^(logo_forLoop^$2^(lambda^(lambda^(logo_FWRT^$2^$3^$0)))))))^logo_IFTY^logo_epsA)^logo_epsL^$0)) as 0.0040323
#(lambda^(#(#(lambda^(lambda^(lambda^(logo_forLoop^$2^(lambda^(lambda^(logo_FWRT^$2^$3^$0)))))))^logo_IFTY^logo_epsA)^logo_epsL^$0)) a 0.0255376
#(lambda^(#(#(lambda^(lambda^(lambda^(logo_forLoop^$2^(lambda^(lambda^(logo_FWRT^$2^$3^$0)))))))^logo_IFTY^logo_epsA)^logo_epsL^$0)) space 0.0054795
#(lambda^(#(#(lambda^(lambda^(lambda^(logo_forLoop^$2^(lambda^(lambda^(logo_FWRT^$2^$3^$0)))))))^logo_IFTY^logo_epsA)^logo_epsL^$0)) sided 0.0040900
#(lambda^(#(#(lambda^(lambda^(lambda^(logo_forLoop^$2^(lambda^(lambda^(logo_FWRT^$2^$3^$0)))))))^logo_IFTY^logo_epsA)^logo_epsL^$0)) 5 0.0054054
#(lambda^(#(#(lambda^(lambda^(lambda^(logo_forLoop^$2^(lambda^(lambda^(logo_FWRT^$2^$3^$0)))))))^logo_IFTY^logo_epsA)^logo_epsL^$0)) snowflake 0.0040000
#(lambda^(#(#(lambda^(lambda^(lambda^(logo_forLoop^$2^(lambda^(lambda^(logo_FWRT^$2^$3^$0)))))))^logo_IFTY^logo_epsA)^logo_epsL^$0)) short 0.0075853
#(lambda^(#(#(lambda^(lambda^(lambda^(logo_forLoop^$2^(lambda^(lambda^(logo_FWRT^$2^$3^$0)))))))^logo_IFTY^logo_epsA)^logo_epsL^$0)) to 0.0182927
#(#(lambda^(lambda^(lambda^(#(lambda^(lambda^(lambda^(logo_forLoop^$2^(lambda^(lambda^(logo_FWRT^$2^$3^$0)))))))^$2^(logo_DIVA^logo_UA^$1)^logo_UL^$0))))^5^1) as 0.0040323
#(#(lambda^(lambda^(lambda^(#(lambda^(lambda^(lambda^(logo_forLoop^$2^(lambda^(lambda^(logo_FWRT^$2^$3^$0)))))))^$2^(logo_DIVA^logo_UA^$1)^logo_UL^$0))))^5^1) arms 0.0040568
#(#(lambda^(lambda^(lambda^(#(lambda^(lambda^(lambda^(logo_forLoop^$2^(lambda^(lambda^(logo_FWRT^$2^$3^$0)))))))^$2^(logo_DIVA^logo_UA^$1)^logo_UL^$0))))^5^1) row 0.0300000
#(#(lambda^(lambda^(lambda^(#(lambda^(lambda^(lambda^(logo_forLoop^$2^(lambda^(lambda^(logo_FWRT^$2^$3^$0)))))))^$2^(logo_DIVA^logo_UA^$1)^logo_UL^$0))))^5^1) small 0.0027624
#(#(lambda^(lambda^(lambda^(#(lambda^(lambda^(lambda^(logo_forLoop^$2^(lambda^(lambda^(logo_FWRT^$2^$3^$0)))))))^$2^(logo_DIVA^logo_UA^$1)^logo_UL^$0))))^5^1) with 0.0040323
#(#(lambda^(lambda^(lambda^(#(lambda^(lambda^(lambda^(logo_forLoop^$2^(lambda^(lambda^(logo_FWRT^$2^$3^$0)))))))^$2^(logo_DIVA^logo_UA^$1)^logo_UL^$0))))^5^1) by 0.4409449
#(#(lambda^(lambda^(lambda^(#(lambda^(lambda^(lambda^(logo_forLoop^$2^(lambda^(lambda^(logo_FWRT^$2^$3^$0)))))))^$2^(logo_DIVA^logo_UA^$1)^logo_UL^$0))))^5^1) and 0.0078637
#(#(lambda^(lambda^(lambda^(#(lambda^(lambda^(lambda^(logo_forLoop^$2^(lambda^(lambda^(logo_FWRT^$2^$3^$0)))))))^$2^(logo_DIVA^logo_UA^$1)^logo_UL^$0))))^5^1) in 0.0291262
#(#(lambda^(lambda^(lambda^(#(lambda^(lambda^(lambda^(logo_forLoop^$2^(lambda^(lambda^(logo_FWRT^$2^$3^$0)))))))^$2^(logo_DIVA^logo_UA^$1)^logo_UL^$0))))^5^1) line 0.1127820
#(#(lambda^(lambda^(lambda^(#(lambda^(lambda^(lambda^(logo_forLoop^$2^(lambda^(lambda^(logo_FWRT^$2^$3^$0)))))))^$2^(logo_DIVA^logo_UA^$1)^logo_UL^$0))))^5^1) connected 0.5185185
#(#(lambda^(lambda^(lambda^(#(lambda^(lambda^(lambda^(logo_forLoop^$2^(lambda^(lambda^(logo_FWRT^$2^$3^$0)))))))^$2^(logo_DIVA^logo_UA^$1)^logo_UL^$0))))^5^1) to 0.3292683
#(#(lambda^(lambda^(lambda^(#(lambda^(lambda^(lambda^(logo_forLoop^$2^(lambda^(lambda^(logo_FWRT^$2^$3^$0)))))))^$2^(logo_DIVA^logo_UA^$1)^logo_UL^$0))))^5^1) snowflake 0.0040000
#(#(lambda^(lambda^(lambda^(#(lambda^(lambda^(lambda^(logo_forLoop^$2^(lambda^(lambda^(logo_FWRT^$2^$3^$0)))))))^$2^(logo_DIVA^logo_UA^$1)^logo_UL^$0))))^5^1) short 0.0075853
#(#(lambda^(lambda^(lambda^(#(lambda^(lambda^(lambda^(logo_forLoop^$2^(lambda^(lambda^(logo_FWRT^$2^$3^$0)))))))^$2^(logo_DIVA^logo_UA^$1)^logo_UL^$0))))^5^1) 5 0.0054054
#(#(lambda^(lambda^(lambda^(#(lambda^(lambda^(lambda^(logo_forLoop^$2^(lambda^(lambda^(logo_FWRT^$2^$3^$0)))))))^$2^(logo_DIVA^logo_UA^$1)^logo_UL^$0))))^5^1) sided 0.0040900
#(#(lambda^(lambda^(lambda^(#(lambda^(lambda^(lambda^(logo_forLoop^$2^(lambda^(lambda^(logo_FWRT^$2^$3^$0)))))))^$2^(logo_DIVA^logo_UA^$1)^logo_UL^$0))))^5^1) big 0.4480000
#(#(lambda^(lambda^(lambda^(#(lambda^(lambda^(lambda^(logo_forLoop^$2^(lambda^(lambda^(logo_FWRT^$2^$3^$0)))))))^$2^(logo_DIVA^logo_UA^$1)^logo_UL^$0))))^5^1) a 0.0044803
#(#(lambda^(lambda^(lambda^(#(lambda^(lambda^(lambda^(logo_forLoop^$2^(lambda^(lambda^(logo_FWRT^$2^$3^$0)))))))^$2^(logo_DIVA^logo_UA^$1)^logo_UL^$0))))^5^1) space 0.0054795
#(#(lambda^(lambda^(lambda^(#(lambda^(lambda^(lambda^(logo_forLoop^$2^(lambda^(lambda^(logo_FWRT^$2^$3^$0)))))))^$2^(logo_DIVA^logo_UA^$1)^logo_UL^$0))))^5^1) s 0.0129310
#(lambda^(lambda^(lambda^(#(lambda^(lambda^(lambda^(logo_forLoop^$2^(lambda^(lambda^(logo_FWRT^$2^$3^$0)))))))^$2^(logo_DIVA^logo_UA^$1)^logo_UL^$0)))) gon 0.0024814
#(lambda^(lambda^(lambda^(#(lambda^(lambda^(lambda^(logo_forLoop^$2^(lambda^(lambda^(logo_FWRT^$2^$3^$0)))))))^$2^(logo_DIVA^logo_UA^$1)^logo_UL^$0)))) sided 0.0040900
#(lambda^(lambda^(lambda^(#(lambda^(lambda^(lambda^(logo_forLoop^$2^(lambda^(lambda^(logo_FWRT^$2^$3^$0)))))))^$2^(logo_DIVA^logo_UA^$1)^logo_UL^$0)))) 5 0.0054054
#(lambda^(lambda^(lambda^(#(lambda^(lambda^(lambda^(logo_forLoop^$2^(lambda^(lambda^(logo_FWRT^$2^$3^$0)))))))^$2^(logo_DIVA^logo_UA^$1)^logo_UL^$0)))) space 0.0054795
#(lambda^(lambda^(lambda^(#(lambda^(lambda^(lambda^(logo_forLoop^$2^(lambda^(lambda^(logo_FWRT^$2^$3^$0)))))))^$2^(logo_DIVA^logo_UA^$1)^logo_UL^$0)))) a 0.0125448
#(lambda^(lambda^(lambda^(#(lambda^(lambda^(lambda^(logo_forLoop^$2^(lambda^(lambda^(logo_FWRT^$2^$3^$0)))))))^$2^(logo_DIVA^logo_UA^$1)^logo_UL^$0)))) snowflake 0.0040000
#(lambda^(lambda^(lambda^(#(lambda^(lambda^(lambda^(logo_forLoop^$2^(lambda^(lambda^(logo_FWRT^$2^$3^$0)))))))^$2^(logo_DIVA^logo_UA^$1)^logo_UL^$0)))) short 0.0075853
#(lambda^(lambda^(lambda^(#(lambda^(lambda^(lambda^(logo_forLoop^$2^(lambda^(lambda^(logo_FWRT^$2^$3^$0)))))))^$2^(logo_DIVA^logo_UA^$1)^logo_UL^$0)))) in 0.0291262
#(lambda^(lambda^(lambda^(#(lambda^(lambda^(lambda^(logo_forLoop^$2^(lambda^(lambda^(logo_FWRT^$2^$3^$0)))))))^$2^(logo_DIVA^logo_UA^$1)^logo_UL^$0)))) connected 0.0277778
#(lambda^(lambda^(lambda^(#(lambda^(lambda^(lambda^(logo_forLoop^$2^(lambda^(lambda^(logo_FWRT^$2^$3^$0)))))))^$2^(logo_DIVA^logo_UA^$1)^logo_UL^$0)))) line 0.0037594
#(lambda^(lambda^(lambda^(#(lambda^(lambda^(lambda^(logo_forLoop^$2^(lambda^(lambda^(logo_FWRT^$2^$3^$0)))))))^$2^(logo_DIVA^logo_UA^$1)^logo_UL^$0)))) arms 0.0040568
#(lambda^(lambda^(lambda^(#(lambda^(lambda^(lambda^(logo_forLoop^$2^(lambda^(lambda^(logo_FWRT^$2^$3^$0)))))))^$2^(logo_DIVA^logo_UA^$1)^logo_UL^$0)))) as 0.0040323
#(lambda^(lambda^(lambda^(#(lambda^(lambda^(lambda^(logo_forLoop^$2^(lambda^(lambda^(logo_FWRT^$2^$3^$0)))))))^$2^(logo_DIVA^logo_UA^$1)^logo_UL^$0)))) and 0.0078637
#(lambda^(lambda^(lambda^(#(lambda^(lambda^(lambda^(logo_forLoop^$2^(lambda^(lambda^(logo_FWRT^$2^$3^$0)))))))^$2^(logo_DIVA^logo_UA^$1)^logo_UL^$0)))) with 0.0040323
#(lambda^(lambda^(lambda^(#(lambda^(lambda^(lambda^(logo_forLoop^$2^(lambda^(lambda^(logo_FWRT^$2^$3^$0)))))))^$2^(logo_DIVA^logo_UA^$1)^logo_UL^$0)))) small 0.0883978
#(lambda^(lambda^(lambda^(#(lambda^(lambda^(lambda^(logo_forLoop^$2^(lambda^(lambda^(logo_FWRT^$2^$3^$0)))))))^$2^(logo_DIVA^logo_UA^$1)^logo_UL^$0)))) row 0.0300000
#(lambda^(lambda^(#(lambda^(lambda^(logo_forLoop^7^(lambda^(lambda^(#(#(lambda^(lambda^(lambda^(logo_forLoop^$2^(lambda^(lambda^(logo_FWRT^$2^$3^$0)))))))^logo_IFTY^logo_epsA)^$3^$0)))^$0)))^(logo_MULL^logo_epsL^$1)^$0))) a 0.0044803
#(lambda^(lambda^(#(lambda^(lambda^(logo_forLoop^7^(lambda^(lambda^(#(#(lambda^(lambda^(lambda^(logo_forLoop^$2^(lambda^(lambda^(logo_FWRT^$2^$3^$0)))))))^logo_IFTY^logo_epsA)^$3^$0)))^$0)))^(logo_MULL^logo_epsL^$1)^$0))) space 0.0054795
#(lambda^(lambda^(#(lambda^(lambda^(logo_forLoop^7^(lambda^(lambda^(#(#(lambda^(lambda^(lambda^(logo_forLoop^$2^(lambda^(lambda^(logo_FWRT^$2^$3^$0)))))))^logo_IFTY^logo_epsA)^$3^$0)))^$0)))^(logo_MULL^logo_epsL^$1)^$0))) s 0.0043103
#(lambda^(lambda^(#(lambda^(lambda^(logo_forLoop^7^(lambda^(lambda^(#(#(lambda^(lambda^(lambda^(logo_forLoop^$2^(lambda^(lambda^(logo_FWRT^$2^$3^$0)))))))^logo_IFTY^logo_epsA)^$3^$0)))^$0)))^(logo_MULL^logo_epsL^$1)^$0))) concentric 0.0666667
